14.919277747484088,0.8565533691197702,0.9989416816391226,0.30618783948837514,0.8739041897439997,0.4824748787128039,11.274505282945865,0.6312078915628134,0.2998444694864213,0.052447416944471525,0.12454919036084133,0.16213839597439428,0.47874802858712573,0.7834068573171835,0.46620511865114456,0.7983811985753299,0.7514874754506623,0.4161347266867109,0.15155900947649492,9.517587171670446,0.07752421618568417,7.6042987628227054,0.041232565530525456,0.13361836078574352,0.02543639242632778,0.9674949280100342
12.424005146835995,0.8565533691197702,0.9989416816391226,0.30618783948837514,0.8739041897439997,0.4824748787128039,9.278287202427391,0.6312078915628134,0.2998444694864213,0.052447416944471525,0.12454919036084133,0.16213839597439428,0.47874802858712573,0.7834068573171835,0.46620511865114456,0.7983811985753299,0.7514874754506623,0.4161347266867109,0.15155900947649492,7.920612707255667,0.07752421618568417,6.3267191912908824,0.041232565530525456,0.13361836078574352,0.02543639242632778,0.9674949280100342
10.854031323765467,0.8565533691197702,0.9989416816391226,0.30618783948837514,0.8739041897439997,0.4824748787128039,9.278287202427391,-0.6247711668936093,0.2998444694864213,0.052447416944471525,0.12454919036084133,0.16213839597439428,0.47874802858712573,0.7834068573171835,0.46620511865114456,0.7983811985753299,0.7514874754506623,0.4161347266867109,0.15155900947649492,7.920612707255667,0.07752421618568417,5.321935944525745,0.041232565530525456,0.13361836078574352,0.02543639242632778,0.9674949280100342
11.026782916778464,0.8565533691197702,0.9989416816391226,0.30618783948837514,0.8739041897439997,0.4824748787128039,9.416488476837788,-0.6247711668936093,0.2998444694864213,0.052447416944471525,0.12454919036084133,0.16213839597439428,0.47874802858712573,0.7834068573171835,0.46620511865114456,0.7983811985753299,0.7514874754506623,0.4161347266867109,0.15155900947649492,7.920612707255667,0.07752421618568417,5.321935944525745,0.041232565530525456,0.13361836078574352,0.02543639242632778,0.9674949280100342
9.781972726052228,0.8565533691197702,0.9989416816391226,0.30618783948837514,0.8739041897439997,0.4824748787128039,9.416488476837788,-1.6206193194745988,0.2998444694864213,0.052447416944471525,0.12454919036084133,0.16213839597439428,0.47874802858712573,0.7834068573171835,0.46620511865114456,0.7983811985753299,0.7514874754506623,0.4161347266867109,0.15155900947649492,7.920612707255667,0.07752421618568417,4.525257422460953,0.041232565530525456,0.13361836078574352,0.02543639242632778,0.9674949280100342
6.700963079441859,0.8565533691197702,3.4637493989274173,0.30618783948837514,0.8739041897439997,0.4824748787128039,7.444642303007153,-1.6206193194745988,0.2998444694864213,0.052447416944471525,0.12454919036084133,0.16213839597439428,0.47874802858712573,0.7834068573171835,0.46620511865114456,0.7983811985753299,0.7514874754506623,0.4161347266867109,0.15155900947649492,7.920612707255667,0.07752421618568417,4.525257422460953,0.041232565530525456,0.13361836078574352,0.02543639242632778,0.9674949280100342
6.151393501896466,0.8565533691197702,3.4637493989274173,0.30618783948837514,0.8739041897439997,0.4824748787128039,7.444642303007153,-1.6206193194745988,0.2998444694864213,0.052447416944471525,0.12454919036084133,0.16213839597439428,0.47874802858712573,0.7834068573171835,0.46620511865114456,0.7983811985753299,0.7514874754506623,0.4161347266867109,0.15155900947649492,7.920612707255667,0.07752421618568417,4.525257422460953,0.041232565530525456,0.13361836078574352,0.02543639242632778,0.5278392659737201
6.283538812058799,0.8565533691197702,3.4637493989274173,0.41190408761824093,0.8739041897439997,0.4824748787128039,7.444642303007153,-1.5360463209707063,0.2998444694864213,0.052447416944471525,0.12454919036084133,0.16213839597439428,0.47874802858712573,0.7834068573171835,0.46620511865114456,0.7983811985753299,0.7514874754506623,0.4161347266867109,0.15155900947649492,7.920612707255667,0.07752421618568417,4.592915821264067,0.041232565530525456,0.13361836078574352,0.02543639242632778,0.5278392659737201
4.648338343708951,0.8565533691197702,3.4637493989274173,0.41190408761824093,-0.4342561849358785,0.4824748787128039,6.398114003263251,-1.5360463209707063,0.2998444694864213,0.052447416944471525,0.12454919036084133,0.16213839597439428,0.47874802858712573,0.7834068573171835,0.46620511865114456,0.7983811985753299,0.7514874754506623,0.4161347266867109,0.15155900947649492,7.920612707255667,0.07752421618568417,4.592915821264067,0.041232565530525456,0.13361836078574352,0.02543639242632778,0.5278392659737201
-18.991559851165096,-18.055365186779465,3.4637493989274173,0.41190408761824093,-0.4342561849358785,0.4824748787128039,6.398114003263251,-1.5360463209707063,0.2998444694864213,0.052447416944471525,0.12454919036084133,0.16213839597439428,0.47874802858712573,0.7834068573171835,0.46620511865114456,0.7983811985753299,0.7514874754506623,0.4161347266867109,0.15155900947649492,7.920612707255667,0.07752421618568417,4.592915821264067,0.041232565530525456,0.13361836078574352,0.02543639242632778,0.5278392659737201
-18.83198896442519,-18.055365186779465,3.4637493989274173,0.5395607970101678,-0.4342561849358785,0.4824748787128039,6.398114003263251,-1.433920953457165,0.2998444694864213,0.052447416944471525,0.12454919036084133,0.16213839597439428,0.47874802858712573,0.7834068573171835,0.46620511865114456,0.7983811985753299,0.7514874754506623,0.4161347266867109,0.15155900947649492,7.920612707255667,0.07752421618568417,4.6746161152749,0.041232565530525456,0.13361836078574352,0.02543639242632778,0.5278392659737201
-18.967674676213136,-18.055365186779465,3.4637493989274173,0.5395607970101678,-0.5428047543662371,0.4824748787128039,6.3112751477189635,-1.433920953457165,0.2998444694864213,0.052447416944471525,0.12454919036084133,0.16213839597439428,0.47874802858712573,0.7834068573171835,0.46620511865114456,0.7983811985753299,0.7514874754506623,0.4161347266867109,0.15155900947649492,7.920612707255667,0.07752421618568417,4.6746161152749,0.041232565530525456,0.13361836078574352,0.02543639242632778,0.5278392659737201
-19.334696796210146,-18.055365186779465,3.4637493989274173,0.24594310101255973,-0.5428047543662371,0.4824748787128039,6.3112751477189635,-1.6688151102552518,0.2998444694864213,0.052447416944471525,0.12454919036084133,0.16213839597439428,0.47874802858712573,0.7834068573171835,0.46620511865114456,0.7983811985753299,0.7514874754506623,0.4161347266867109,0.15155900947649492,7.920612707255667,0.07752421618568417,4.486700789836431,0.041232565530525456,0.13361836078574352,0.02543639242632778,0.5278392659737201
-20.071685562371496,-18.055365186779465,4.053340411856496,-0.22572970933070324,-0.5428047543662371,0.4824748787128039,5.933936899444354,-1.6688151102552518,0.2998444694864213,0.052447416944471525,0.12454919036084133,0.16213839597439428,0.47874802858712573,0.7834068573171835,0.46620511865114456,0.7983811985753299,0.7514874754506623,0.4161347266867109,0.15155900947649492,7.920612707255667,0.07752421618568417,4.486700789836431,0.041232565530525456,0.13361836078574352,0.02543639242632778,0.5278392659737201
-20.16630513778012,-18.055365186779465,4.053340411856496,-0.22572970933070324,-0.5428047543662371,0.4824748787128039,5.933936899444354,-1.6688151102552518,0.2998444694864213,0.052447416944471525,0.12454919036084133,0.16213839597439428,0.47874802858712573,0.7834068573171835,0.46620511865114456,0.7983811985753299,0.7514874754506623,0.4161347266867109,0.15155900947649492,7.920612707255667,0.07752421618568417,4.486700789836431,0.041232565530525456,0.13361836078574352,0.02543639242632778,0.45214360564681977
-22.247591433953446,-18.055365186779465,4.053340411856496,-0.22572970933070324,-2.207833791304897,0.4824748787128039,5.933936899444354,-3.0008383398061795,0.2998444694864213,0.052447416944471525,0.12454919036084133,0.16213839597439428,0.47874802858712573,0.7834068573171835,0.46620511865114456,0.7983811985753299,0.7514874754506623,0.4161347266867109,0.15155900947649492,7.920612707255667,0.07752421618568417,3.4210822061956883,0.041232565530525456,0.13361836078574352,0.02543639242632778,0.45214360564681977
-22.461014748733962,-18.055365186779465,4.053340411856496,-0.22572970933070324,-2.378572443129312,0.4824748787128039,5.797345977984822,-3.0008383398061795,0.2998444694864213,0.052447416944471525,0.12454919036084133,0.16213839597439428,0.47874802858712573,0.7834068573171835,0.46620511865114456,0.7983811985753299,0.7514874754506623,0.4161347266867109,0.15155900947649492,7.920612707255667,0.07752421618568417,3.4210822061956883,0.041232565530525456,0.13361836078574352,0.02543639242632778,0.45214360564681977
-18.68319496474186,-18.055365186779465,4.053340411856496,-0.22572970933070324,-2.378572443129312,3.504730705906489,5.797345977984822,-3.0008383398061795,0.2998444694864213,0.052447416944471525,0.12454919036084133,0.16213839597439428,0.47874802858712573,0.7834068573171835,0.46620511865114456,0.7983811985753299,0.7514874754506623,0.4161347266867109,0.15155900947649492,7.920612707255667,0.07752421618568417,3.4210822061956883,0.041232565530525456,0.13361836078574352,0.02543639242632778,0.45214360564681977
-26.334541561531463,-18.055365186779465,4.053340411856496,-0.22572970933070324,-2.378572443129312,3.504730705906489,5.797345977984822,-3.0008383398061795,0.2998444694864213,0.052447416944471525,0.12454919036084133,0.16213839597439428,0.47874802858712573,0.7834068573171835,0.46620511865114456,-5.322696078856355,0.7514874754506623,0.4161347266867109,0.15155900947649492,7.920612707255667,0.07752421618568417,3.4210822061956883,0.041232565530525456,0.13361836078574352,0.02543639242632778,-4.4447182162985275
-41.819416192754055,-18.055365186779465,4.053340411856496,-0.22572970933070324,-2.378572443129312,3.504730705906489,5.797345977984822,-3.0008383398061795,0.2998444694864213,0.052447416944471525,0.12454919036084133,-12.22576130900368,0.47874802858712573,0.7834068573171835,0.46620511865114456,-5.322696078856355,0.7514874754506623,-9.494185037295749,0.15155900947649492,7.920612707255667,0.07752421618568417,3.4210822061956883,0.041232565530525456,0.13361836078574352,0.02543639242632778,-4.4447182162985275
-37.56234649467016,-18.055365186779465,4.053340411856496,-0.22572970933070324,1.0270833153378063,3.504730705906489,5.797345977984822,-0.27631373303248496,2.4794641549053784,0.052447416944471525,0.12454919036084133,-12.22576130900368,0.47874802858712573,0.7834068573171835,0.46620511865114456,-5.322696078856355,0.7514874754506623,-9.494185037295749,0.15155900947649492,7.920612707255667,0.07752421618568417,5.164777954530853,0.041232565530525456,0.13361836078574352,0.02543639242632778,-4.4447182162985275
-8.256576360660972,-3.7979727319876524,4.053340411856496,8.961493943084834,1.0270833153378063,3.504730705906489,5.797345977984822,7.073465188899947,8.359287292451324,0.052447416944471525,0.12454919036084133,-12.22576130900368,0.47874802858712573,0.7834068573171835,0.46620511865114456,-5.322696078856355,0.7514874754506623,-9.494185037295749,0.15155900947649492,19.326526671089116,0.07752421618568417,9.86863646456761,0.041232565530525456,0.13361836078574352,0.02543639242632778,-4.4447182162985275
-33.92393188726605,-24.33185715327172,4.053340411856496,8.961493943084834,1.0270833153378063,3.504730705906489,5.797345977984822,7.073465188899947,8.359287292451324,0.052447416944471525,0.12454919036084133,-12.22576130900368,0.47874802858712573,0.7834068573171835,0.46620511865114456,-5.322696078856355,0.7514874754506623,-9.494185037295749,0.15155900947649492,2.899419134061862,0.07752421618568417,9.86863646456761,0.041232565530525456,0.13361836078574352,0.02543639242632778,-4.4447182162985275
-33.81056798967656,-24.33185715327172,4.053340411856496,8.961493943084834,1.0270833153378063,3.504730705906489,5.797345977984822,7.164156306971539,8.359287292451324,0.052447416944471525,0.12454919036084133,-12.22576130900368,0.47874802858712573,0.7834068573171835,0.46620511865114456,-5.322696078856355,0.7514874754506623,-9.494185037295749,0.15155900947649492,2.899419134061862,0.07752421618568417,9.86863646456761,0.041232565530525456,0.13361836078574352,0.02543639242632778,-4.4447182162985275
-36.85136704893598,-24.33185715327172,4.053340411856496,8.961493943084834,1.0270833153378063,3.504730705906489,5.797345977984822,4.731517059564001,8.359287292451324,0.052447416944471525,0.12454919036084133,-12.22576130900368,0.47874802858712573,0.7834068573171835,0.46620511865114456,-5.322696078856355,0.7514874754506623,-9.494185037295749,0.15155900947649492,2.899419134061862,0.07752421618568417,7.9225250666415805,0.041232565530525456,0.13361836078574352,0.02543639242632778,-4.4447182162985275
-54.39629520658139,-38.36779967938806,4.053340411856496,8.961493943084834,1.0270833153378063,3.504730705906489,5.797345977984822,4.731517059564001,8.359287292451324,0.052447416944471525,0.12454919036084133,-12.22576130900368,0.47874802858712573,0.7834068573171835,0.46620511865114456,-5.322696078856355,0.7514874754506623,-9.494185037295749,0.15155900947649492,2.899419134061862,0.07752421618568417,7.9225250666415805,0.041232565530525456,0.13361836078574352,0.02543639242632778,-4.4447182162985275
-68.59826129908983,-49.7293725533948,4.053340411856496,8.961493943084834,1.0270833153378063,3.504730705906489,5.797345977984822,4.731517059564001,8.359287292451324,0.052447416944471525,0.12454919036084133,-12.22576130900368,0.47874802858712573,0.7834068573171835,0.46620511865114456,-5.322696078856355,0.7514874754506623,-9.494185037295749,0.15155900947649492,2.899419134061862,0.07752421618568417,7.9225250666415805,0.041232565530525456,0.13361836078574352,0.02543639242632778,-4.4447182162985275
-80.24387349494674,-59.04586231008034,4.053340411856496,8.961493943084834,1.0270833153378063,3.504730705906489,5.797345977984822,4.731517059564001,8.359287292451324,0.052447416944471525,0.12454919036084133,-12.22576130900368,0.47874802858712573,0.7834068573171835,0.46620511865114456,-5.322696078856355,0.7514874754506623,-9.494185037295749,0.15155900947649492,2.899419134061862,0.07752421618568417,7.9225250666415805,0.041232565530525456,0.13361836078574352,0.02543639242632778,-4.4447182162985275
-79.4999196075559,-59.04586231008034,4.053340411856496,8.961493943084834,1.6222464252504878,3.504730705906489,5.797345977984822,5.2076475474941475,8.359287292451324,0.052447416944471525,0.12454919036084133,-12.22576130900368,0.47874802858712573,0.7834068573171835,0.46620511865114456,-5.322696078856355,0.7514874754506623,-9.494185037295749,0.15155900947649492,2.899419134061862,0.07752421618568417,7.9225250666415805,0.041232565530525456,0.13361836078574352,0.02543639242632778,-4.4447182162985275
-81.69887361175486,-59.04586231008034,4.053340411856496,7.202330739725666,1.6222464252504878,3.504730705906489,5.797345977984822,3.8003169848068126,8.359287292451324,0.052447416944471525,0.12454919036084133,-12.22576130900368,0.47874802858712573,0.7834068573171835,0.46620511865114456,-5.322696078856355,0.7514874754506623,-9.494185037295749,0.15155900947649492,2.899419134061862,0.07752421618568417,6.796660616491712,0.041232565530525456,0.13361836078574352,0.02543639242632778,-4.4447182162985275
-81.18606810137483,-59.04586231008034,4.053340411856496,7.202330739725666,2.0324908335545144,3.504730705906489,5.797345977984822,4.128512511450031,8.359287292451324,0.052447416944471525,0.12454919036084133,-12.22576130900368,0.47874802858712573,0.7834068573171835,0.46620511865114456,-5.322696078856355,0.7514874754506623,-9.494185037295749,0.15155900947649492,2.899419134061862,0.07752421618568417,6.796660616491712,0.041232565530525456,0.13361836078574352,0.02543639242632778,-4.4447182162985275
-79.41263360408695,-59.04586231008034,4.053340411856496,8.621078337555964,2.0324908335545144,3.504730705906489,6.932344056249061,4.128512511450031,8.359287292451324,0.052447416944471525,0.12454919036084133,-12.22576130900368,0.47874802858712573,0.7834068573171835,0.46620511865114456,-5.322696078856355,0.7514874754506623,-9.494185037295749,0.15155900947649492,2.899419134061862,0.07752421618568417,7.704659079103102,0.041232565530525456,0.13361836078574352,0.02543639242632778,-4.4447182162985275
-78.97481661394649,-59.04586231008034,4.053340411856496,8.621078337555964,2.382744425666887,3.504730705906489,6.932344056249061,4.4087153851399306,8.359287292451324,0.052447416944471525,0.12454919036084133,-12.22576130900368,0.47874802858712573,0.7834068573171835,0.46620511865114456,-5.322696078856355,0.7514874754506623,-9.494185037295749,0.15155900947649492,2.899419134061862,0.07752421618568417,7.704659079103102,0.041232565530525456,0.13361836078574352,0.02543639242632778,-4.4447182162985275
-80.91974807608213,-59.04586231008034,4.053340411856496,7.065133167847452,2.382744425666887,3.504730705906489,6.932344056249061,3.1639592493731197,8.359287292451324,0.052447416944471525,0.12454919036084133,-12.22576130900368,0.47874802858712573,0.7834068573171835,0.46620511865114456,-5.322696078856355,0.7514874754506623,-9.494185037295749,0.15155900947649492,2.899419134061862,0.07752421618568417,6.708854170489653,0.041232565530525456,0.13361836078574352,0.02543639242632778,-4.4447182162985275
-81.49114794923112,-59.04586231008034,4.053340411856496,7.065133167847452,1.9256245271476997,3.504730705906489,6.932344056249061,2.798263330557769,8.359287292451324,0.052447416944471525,0.12454919036084133,-12.22576130900368,0.47874802858712573,0.7834068573171835,0.46620511865114456,-5.322696078856355,0.7514874754506623,-9.494185037295749,0.15155900947649492,2.899419134061862,0.07752421618568417,6.708854170489653,0.041232565530525456,0.13361836078574352,0.02543639242632778,-4.4447182162985275
-78.20292686999068,-59.04586231008034,4.053340411856496,9.695710031239807,1.9256245271476997,3.504730705906489,9.036805546962944,2.798263330557769,8.359287292451324,0.052447416944471525,0.12454919036084133,-12.22576130900368,0.47874802858712573,0.7834068573171835,0.46620511865114456,-5.322696078856355,0.7514874754506623,-9.494185037295749,0.15155900947649492,2.899419134061862,0.07752421618568417,6.708854170489653,0.041232565530525456,0.13361836078574352,0.02543639242632778,-4.4447182162985275
-78.55356393415339,-59.04586231008034,4.053340411856496,9.695710031239807,1.645114875817525,3.504730705906489,9.036805546962944,2.57385560949363,8.359287292451324,0.052447416944471525,0.12454919036084133,-12.22576130900368,0.47874802858712573,0.7834068573171835,0.46620511865114456,-5.322696078856355,0.7514874754506623,-9.494185037295749,0.15155900947649492,2.899419134061862,0.07752421618568417,6.529327993638342,0.041232565530525456,0.13361836078574352,0.02543639242632778,-4.4447182162985275
-77.12390331903413,-59.04586231008034,4.053340411856496,10.839438523335215,1.645114875817525,3.504730705906489,9.95178834063927,2.57385560949363,8.359287292451324,0.052447416944471525,0.12454919036084133,-12.22576130900368,0.47874802858712573,0.7834068573171835,0.46620511865114456,-5.322696078856355,0.7514874754506623,-9.494185037295749,0.15155900947649492,2.899419134061862,0.07752421618568417,6.529327993638342,0.041232565530525456,0.13361836078574352,0.02543639242632778,-4.4447182162985275
-85.83755906442647,-66.0167869063942,4.053340411856496,10.839438523335215,1.645114875817525,3.504730705906489,9.95178834063927,2.57385560949363,8.359287292451324,0.052447416944471525,0.12454919036084133,-12.22576130900368,0.47874802858712573,0.7834068573171835,0.46620511865114456,-5.322696078856355,0.7514874754506623,-9.494185037295749,0.15155900947649492,2.899419134061862,0.07752421618568417,6.529327993638342,0.041232565530525456,0.13361836078574352,0.02543639242632778,-4.4447182162985275
-92.9827567756482,-71.73294507537157,4.053340411856496,10.839438523335215,1.645114875817525,3.504730705906489,9.95178834063927,2.57385560949363,8.359287292451324,0.052447416944471525,0.12454919036084133,-12.22576130900368,0.47874802858712573,0.7834068573171835,0.46620511865114456,-5.322696078856355,0.7514874754506623,-9.494185037295749,0.15155900947649492,2.899419134061862,0.07752421618568417,6.529327993638342,0.041232565530525456,0.13361836078574352,0.02543639242632778,-4.4447182162985275
-98.84181889885001,-76.42019477393302,4.053340411856496,10.839438523335215,1.645114875817525,3.504730705906489,9.95178834063927,2.57385560949363,8.359287292451324,0.052447416944471525,0.12454919036084133,-12.22576130900368,0.47874802858712573,0.7834068573171835,0.46620511865114456,-5.322696078856355,0.7514874754506623,-9.494185037295749,0.15155900947649492,2.899419134061862,0.07752421618568417,6.529327993638342,0.041232565530525456,0.13361836078574352,0.02543639242632778,-4.4447182162985275
-103.6462498398755,-80.2637395267534,4.053340411856496,10.839438523335215,1.645114875817525,3.504730705906489,9.95178834063927,2.57385560949363,8.359287292451324,0.052447416944471525,0.12454919036084133,-12.22576130900368,0.47874802858712573,0.7834068573171835,0.46620511865114456,-5.322696078856355,0.7514874754506623,-9.494185037295749,0.15155900947649492,2.899419134061862,0.07752421618568417,6.529327993638342,0.041232565530525456,0.13361836078574352,0.02543639242632778,-4.4447182162985275
-103.13331255610379,-80.2637395267534,4.053340411856496,10.839438523335215,2.0554647028348865,3.504730705906489,9.95178834063927,2.9021354711075205,8.359287292451324,0.052447416944471525,0.12454919036084133,-12.22576130900368,0.47874802858712573,0.7834068573171835,0.46620511865114456,-5.322696078856355,0.7514874754506623,-9.494185037295749,0.15155900947649492,2.899419134061862,0.07752421618568417,6.791951882929453,0.041232565530525456,0.13361836078574352,0.02543639242632778,-4.4447182162985275
-104.88498344914652,-80.2637395267534,4.053340411856496,9.43810180890103,2.0554647028348865,3.504730705906489,9.95178834063927,1.7810660995601737,8.359287292451324,0.052447416944471525,0.12454919036084133,-12.22576130900368,0.47874802858712573,0.7834068573171835,0.46620511865114456,-5.322696078856355,0.7514874754506623,-9.494185037295749,0.15155900947649492,2.899419134061862,0.07752421618568417,5.895096385691576,0.041232565530525456,0.13361836078574352,0.02543639242632778,-4.4447182162985275
-103.93216704339277,-80.2637395267534,4.053340411856496,9.43810180890103,2.8177178274378845,3.504730705906489,9.95178834063927,2.3908685992425704,8.359287292451324,0.052447416944471525,0.12454919036084133,-12.22576130900368,0.47874802858712573,0.7834068573171835,0.46620511865114456,-5.322696078856355,0.7514874754506623,-9.494185037295749,0.15155900947649492,2.899419134061862,0.07752421618568417,5.895096385691576,0.041232565530525456,0.13361836078574352,0.02543639242632778,-4.4447182162985275
-106.44114733749586,-82.27092376203588,4.053340411856496,9.43810180890103,2.8177178274378845,3.504730705906489,9.95178834063927,2.3908685992425704,8.359287292451324,0.052447416944471525,0.12454919036084133,-12.22576130900368,0.47874802858712573,0.7834068573171835,0.46620511865114456,-5.322696078856355,0.7514874754506623,-9.494185037295749,0.15155900947649492,2.899419134061862,0.07752421618568417,5.895096385691576,0.041232565530525456,0.13361836078574352,0.02543639242632778,-4.4447182162985275
-108.49851117866041,-83.91681483496751,4.053340411856496,9.43810180890103,2.8177178274378845,3.504730705906489,9.95178834063927,2.3908685992425704,8.359287292451324,0.052447416944471525,0.12454919036084133,-12.22576130900368,0.47874802858712573,0.7834068573171835,0.46620511865114456,-5.322696078856355,0.7514874754506623,-9.494185037295749,0.15155900947649492,2.899419134061862,0.07752421618568417,5.895096385691576,0.041232565530525456,0.13361836078574352,0.02543639242632778,-4.4447182162985275
-107.3322467923751,-83.91681483496751,4.053340411856496,9.43810180890103,3.750729336466132,3.504730705906489,10.698197547861868,2.3908685992425704,8.359287292451324,0.052447416944471525,0.12454919036084133,-12.22576130900368,0.47874802858712573,0.7834068573171835,0.46620511865114456,-5.322696078856355,0.7514874754506623,-9.494185037295749,0.15155900947649492,2.899419134061862,0.07752421618568417,6.492223751469655,0.041232565530525456,0.13361836078574352,0.02543639242632778,-4.4447182162985275
-104.98198882371274,-83.91681483496751,4.053340411856496,11.318308183830919,3.750729336466132,3.504730705906489,10.698197547861868,3.8950336991864805,8.359287292451324,0.052447416944471525,0.12454919036084133,-12.22576130900368,0.47874802858712573,0.7834068573171835,0.46620511865114456,-5.322696078856355,0.7514874754506623,-9.494185037295749,0.15155900947649492,2.899419134061862,0.07752421618568417,6.492223751469655,0.041232565530525456,0.13361836078574352,0.02543639242632778,-4.4447182162985275
-104.46177890958906,-83.91681483496751,4.053340411856496,11.318308183830919,4.166897267765084,3.504730705906489,11.031131892901032,3.8950336991864805,8.359287292451324,0.052447416944471525,0.12454919036084133,-12.22576130900368,0.47874802858712573,0.7834068573171835,0.46620511865114456,-5.322696078856355,0.7514874754506623,-9.494185037295749,0.15155900947649492,2.899419134061862,0.07752421618568417,6.758571227500985,0.041232565530525456,0.13361836078574352,0.02543639242632778,-4.4447182162985275
-105.58195682989356,-83.91681483496751,4.94948274810009,10.601394314836044,4.166897267765084,3.504730705906489,11.031131892901032,3.3215026039905826,8.359287292451324,0.052447416944471525,0.12454919036084133,-12.22576130900368,0.47874802858712573,0.7834068573171835,0.46620511865114456,-5.322696078856355,0.7514874754506623,-9.494185037295749,0.15155900947649492,2.899419134061862,0.07752421618568417,6.758571227500985,0.041232565530525456,0.13361836078574352,0.02543639242632778,-4.4447182162985275
-106.73476665643211,-84.83906269619835,4.94948274810009,10.601394314836044,4.166897267765084,3.504730705906489,11.031131892901032,3.3215026039905826,8.359287292451324,0.052447416944471525,0.12454919036084133,-12.22576130900368,0.47874802858712573,0.7834068573171835,0.46620511865114456,-5.322696078856355,0.7514874754506623,-9.494185037295749,0.15155900947649492,2.899419134061862,0.07752421618568417,6.758571227500985,0.041232565530525456,0.13361836078574352,0.02543639242632778,-4.4447182162985275
-107.23673873015278,-84.83906269619835,4.94948274810009,10.199816655859514,4.166897267765084,3.504730705906489,11.031131892901032,3.0002404768093602,8.359287292451324,0.052447416944471525,0.12454919036084133,-12.22576130900368,0.47874802858712573,0.7834068573171835,0.46620511865114456,-5.322696078856355,0.7514874754506623,-9.494185037295749,0.15155900947649492,2.899419134061862,0.07752421618568417,6.758571227500985,0.041232565530525456,0.13361836078574352,0.02543639242632778,-4.4447182162985275
-106.17324343459454,-84.83906269619835,4.94948274810009,10.199816655859514,5.017693504211677,3.504730705906489,11.031131892901032,3.680877465966633,8.359287292451324,0.052447416944471525,0.12454919036084133,-12.22576130900368,0.47874802858712573,0.7834068573171835,0.46620511865114456,-5.322696078856355,0.7514874754506623,-9.494185037295749,0.15155900947649492,2.899419134061862,0.07752421618568417,6.758571227500985,0.041232565530525456,0.13361836078574352,0.02543639242632778,-4.4447182162985275
-105.51273294889668,-84.83906269619835,4.94948274810009,10.199816655859514,5.5461018927699675,3.504730705906489,11.453858603747664,3.680877465966633,8.359287292451324,0.052447416944471525,0.12454919036084133,-12.22576130900368,0.47874802858712573,0.7834068573171835,0.46620511865114456,-5.322696078856355,0.7514874754506623,-9.494185037295749,0.15155900947649492,2.899419134061862,0.07752421618568417,7.096752596178291,0.041232565530525456,0.13361836078574352,0.02543639242632778,-4.4447182162985275
-107.93614080875038,-86.77778898408131,4.94948274810009,10.199816655859514,5.5461018927699675,3.504730705906489,11.453858603747664,3.680877465966633,8.359287292451324,0.052447416944471525,0.12454919036084133,-12.22576130900368,0.47874802858712573,0.7834068573171835,0.46620511865114456,-5.322696078856355,0.7514874754506623,-9.494185037295749,0.15155900947649492,2.899419134061862,0.07752421618568417,7.096752596178291,0.041232565530525456,0.13361836078574352,0.02543639242632778,-4.4447182162985275
-105.9776164076998,-86.77778898408131,4.94948274810009,11.766636176699977,5.5461018927699675,3.504730705906489,11.453858603747664,4.934333082639002,8.359287292451324,0.052447416944471525,0.12454919036084133,-12.22576130900368,0.47874802858712573,0.7834068573171835,0.46620511865114456,-5.322696078856355,0.7514874754506623,-9.494185037295749,0.15155900947649492,2.899419134061862,0.07752421618568417,7.096752596178291,0.041232565530525456,0.13361836078574352,0.02543639242632778,-4.4447182162985275
-107.33113015507564,-86.77778898408131,4.94948274810009,10.683825178799303,5.5461018927699675,3.504730705906489,11.453858603747664,4.068084284318461,8.359287292451324,0.052447416944471525,0.12454919036084133,-12.22576130900368,0.47874802858712573,0.7834068573171835,0.46620511865114456,-5.322696078856355,0.7514874754506623,-9.494185037295749,0.15155900947649492,2.899419134061862,0.07752421618568417,6.403753557521858,0.041232565530525456,0.13361836078574352,0.02543639242632778,-4.4447182162985275
-110.09839624328194,-88.99160185464636,4.94948274810009,10.683825178799303,5.5461018927699675,3.504730705906489,11.453858603747664,4.068084284318461,8.359287292451324,0.052447416944471525,0.12454919036084133,-12.22576130900368,0.47874802858712573,0.7834068573171835,0.46620511865114456,-5.322696078856355,0.7514874754506623,-9.494185037295749,0.15155900947649492,2.899419134061862,0.07752421618568417,6.403753557521858,0.041232565530525456,0.13361836078574352,0.02543639242632778,-4.4447182162985275
-109.20659702410688,-88.99160185464636,4.94948274810009,10.683825178799303,6.259541268110015,3.504730705906489,11.453858603747664,4.6388357845904995,8.359287292451324,0.052447416944471525,0.12454919036084133,-12.22576130900368,0.47874802858712573,0.7834068573171835,0.46620511865114456,-5.322696078856355,0.7514874754506623,-9.494185037295749,0.15155900947649492,2.899419134061862,0.07752421618568417,6.403753557521858,0.041232565530525456,0.13361836078574352,0.02543639242632778,-4.4447182162985275
-108.48781679609048,-88.99160185464636,4.94948274810009,10.683825178799303,6.834565450523131,3.504730705906489,11.913877949678158,4.6388357845904995,8.359287292451324,0.052447416944471525,0.12454919036084133,-12.22576130900368,0.47874802858712573,0.7834068573171835,0.46620511865114456,-5.322696078856355,0.7514874754506623,-9.494185037295749,0.15155900947649492,2.899419134061862,0.07752421618568417,6.771769034266253,0.041232565530525456,0.13361836078574352,0.02543639242632778,-4.4447182162985275
-105.98895441464248,-88.99160185464636,4.94948274810009,12.682915083957706,6.834565450523131,3.504730705906489,11.913877949678158,6.238107708717222,8.359287292451324,0.052447416944471525,0.12454919036084133,-12.22576130900368,0.47874802858712573,0.7834068573171835,0.46620511865114456,-5.322696078856355,0.7514874754506623,-9.494185037295749,0.15155900947649492,2.899419134061862,0.07752421618568417,6.771769034266253,0.041232565530525456,0.13361836078574352,0.02543639242632778,-4.4447182162985275
-107.2546525230746,-88.99160185464636,4.94948274810009,11.670356597212006,6.834565450523131,3.504730705906489,11.913877949678158,5.428060919320662,8.359287292451324,0.052447416944471525,0.12454919036084133,-12.22576130900368,0.47874802858712573,0.7834068573171835,0.46620511865114456,-5.322696078856355,0.7514874754506623,-9.494185037295749,0.15155900947649492,2.899419134061862,0.07752421618568417,6.123731602749006,0.041232565530525456,0.13361836078574352,0.02543639242632778,-4.4447182162985275
-109.10396635511195,-90.47105292027625,4.94948274810009,11.670356597212006,6.834565450523131,3.504730705906489,11.913877949678158,5.428060919320662,8.359287292451324,0.052447416944471525,0.12454919036084133,-12.22576130900368,0.47874802858712573,0.7834068573171835,0.46620511865114456,-5.322696078856355,0.7514874754506623,-9.494185037295749,0.15155900947649492,2.899419134061862,0.07752421618568417,6.123731602749006,0.041232565530525456,0.13361836078574352,0.02543639242632778,-4.4447182162985275
-108.49742080144742,-90.47105292027625,4.94948274810009,11.670356597212006,7.319801893454756,3.504730705906489,11.913877949678158,5.816250073665962,8.359287292451324,0.052447416944471525,0.12454919036084133,-12.22576130900368,0.47874802858712573,0.7834068573171835,0.46620511865114456,-5.322696078856355,0.7514874754506623,-9.494185037295749,0.15155900947649492,2.899419134061862,0.07752421618568417,6.123731602749006,0.041232565530525456,0.13361836078574352,0.02543639242632778,-4.4447182162985275
-107.66892774110448,-89.8082584720019,4.94948274810009,11.670356597212006,7.319801893454756,3.504730705906489,11.913877949678158,5.816250073665962,8.359287292451324,0.052447416944471525,0.12454919036084133,-12.22576130900368,0.47874802858712573,0.7834068573171835,0.46620511865114456,-5.322696078856355,0.7514874754506623,-9.494185037295749,0.15155900947649492,2.899419134061862,0.07752421618568417,6.123731602749006,0.041232565530525456,0.13361836078574352,0.02543639242632778,-4.4447182162985275
-106.83944227470074,-89.8082584720019,4.94948274810009,11.670356597212006,7.98339026657775,3.504730705906489,12.444748648176551,5.816250073665962,8.359287292451324,0.052447416944471525,0.12454919036084133,-12.22576130900368,0.47874802858712573,0.7834068573171835,0.46620511865114456,-5.322696078856355,0.7514874754506623,-9.494185037295749,0.15155900947649492,2.899419134061862,0.07752421618568417,6.548428161547718,0.041232565530525456,0.13361836078574352,0.02543639242632778,-4.4447182162985275
-107.59341253404831,-90.41143467947995,4.94948274810009,11.670356597212006,7.98339026657775,3.504730705906489,12.444748648176551,5.816250073665962,8.359287292451324,0.052447416944471525,0.12454919036084133,-12.22576130900368,0.47874802858712573,0.7834068573171835,0.46620511865114456,-5.322696078856355,0.7514874754506623,-9.494185037295749,0.15155900947649492,2.899419134061862,0.07752421618568417,6.548428161547718,0.041232565530525456,0.13361836078574352,0.02543639242632778,-4.4447182162985275
-105.28308354380857,-90.41143467947995,4.94948274810009,13.518619789403797,7.98339026657775,3.504730705906489,12.444748648176551,7.294860627419392,8.359287292451324,0.052447416944471525,0.12454919036084133,-12.22576130900368,0.47874802858712573,0.7834068573171835,0.46620511865114456,-5.322696078856355,0.7514874754506623,-9.494185037295749,0.15155900947649492,2.899419134061862,0.07752421618568417,6.548428161547718,0.041232565530525456,0.13361836078574352,0.02543639242632778,-4.4447182162985275
-106.4997184276871,-90.41143467947995,4.94948274810009,12.545311882300975,7.98339026657775,3.504730705906489,12.444748648176551,6.516214301737135,8.359287292451324,0.052447416944471525,0.12454919036084133,-12.22576130900368,0.47874802858712573,0.7834068573171835,0.46620511865114456,-5.322696078856355,0.7514874754506623,-9.494185037295749,0.15155900947649492,2.899419134061862,0.07752421618568417,5.925511101001913,0.041232565530525456,0.13361836078574352,0.02543639242632778,-4.4447182162985275
-106.12598796996022,-90.41143467947995,4.94948274810009,12.545311882300975,8.28237463275926,3.504730705906489,12.444748648176551,6.75540179468234,8.359287292451324,0.052447416944471525,0.12454919036084133,-12.22576130900368,0.47874802858712573,0.7834068573171835,0.46620511865114456,-5.322696078856355,0.7514874754506623,-9.494185037295749,0.15155900947649492,2.899419134061862,0.07752421618568417,5.925511101001913,0.041232565530525456,0.13361836078574352,0.02543639242632778,-4.4447182162985275
-105.25986662509156,-90.41143467947995,4.94948274810009,12.545311882300975,8.975271708654184,3.504730705906489,12.999066308892493,6.75540179468234,8.359287292451324,0.052447416944471525,0.12454919036084133,-12.22576130900368,0.47874802858712573,0.7834068573171835,0.46620511865114456,-5.322696078856355,0.7514874754506623,-9.494185037295749,0.15155900947649492,2.899419134061862,0.07752421618568417,6.368965229574666,0.041232565530525456,0.13361836078574352,0.02543639242632778,-4.4447182162985275
-105.59825389483674,-90.68214449527609,4.94948274810009,12.545311882300975,8.975271708654184,3.504730705906489,12.999066308892493,6.75540179468234,8.359287292451324,0.052447416944471525,0.12454919036084133,-12.22576130900368,0.47874802858712573,0.7834068573171835,0.46620511865114456,-5.322696078856355,0.7514874754506623,-9.494185037295749,0.15155900947649492,2.899419134061862,0.07752421618568417,6.368965229574666,0.041232565530525456,0.13361836078574352,0.02543639242632778,-4.4447182162985275
-103.44463696785483,-90.68214449527609,4.94948274810009,14.268205423886506,8.975271708654184,3.504730705906489,12.999066308892493,8.133716627950768,8.359287292451324,0.052447416944471525,0.12454919036084133,-12.22576130900368,0.47874802858712573,0.7834068573171835,0.46620511865114456,-5.322696078856355,0.7514874754506623,-9.494185037295749,0.15155900947649492,2.899419134061862,0.07752421618568417,6.368965229574666,0.041232565530525456,0.13361836078574352,0.02543639242632778,-4.4447182162985275
-102.83009699695286,-90.68214449527609,4.94948274810009,14.759837400608085,8.975271708654184,3.504730705906489,12.999066308892493,8.527022209328031,8.359287292451324,0.052447416944471525,0.12454919036084133,-12.22576130900368,0.47874802858712573,0.7834068573171835,0.46620511865114456,-5.322696078856355,0.7514874754506623,-9.494185037295749,0.15155900947649492,2.899419134061862,0.07752421618568417,6.368965229574666,0.041232565530525456,0.13361836078574352,0.02543639242632778,-4.4447182162985275
-102.34023951139835,-90.29025850683249,4.94948274810009,14.759837400608085,8.975271708654184,3.504730705906489,12.999066308892493,8.527022209328031,8.359287292451324,0.052447416944471525,0.12454919036084133,-12.22576130900368,0.47874802858712573,0.7834068573171835,0.46620511865114456,-5.322696078856355,0.7514874754506623,-9.494185037295749,0.15155900947649492,2.899419134061862,0.07752421618568417,6.368965229574666,0.041232565530525456,0.13361836078574352,0.02543639242632778,-4.4447182162985275
-103.08497011456708,-90.88604298936747,4.94948274810009,14.759837400608085,8.975271708654184,3.504730705906489,12.999066308892493,8.527022209328031,8.359287292451324,0.052447416944471525,0.12454919036084133,-12.22576130900368,0.47874802858712573,0.7834068573171835,0.46620511865114456,-5.322696078856355,0.7514874754506623,-9.494185037295749,0.15155900947649492,2.899419134061862,0.07752421618568417,6.368965229574666,0.041232565530525456,0.13361836078574352,0.02543639242632778,-4.4447182162985275
-103.69564920916545,-91.37458626504616,4.94948274810009,14.759837400608085,8.975271708654184,3.504730705906489,12.999066308892493,8.527022209328031,8.359287292451324,0.052447416944471525,0.12454919036084133,-12.22576130900368,0.47874802858712573,0.7834068573171835,0.46620511865114456,-5.322696078856355,0.7514874754506623,-9.494185037295749,0.15155900947649492,2.899419134061862,0.07752421618568417,6.368965229574666,0.041232565530525456,0.13361836078574352,0.02543639242632778,-4.4447182162985275
-103.38414653746665,-91.37458626504616,4.94948274810009,14.759837400608085,9.224473846013229,3.504730705906489,12.999066308892493,8.726383919215273,8.359287292451324,0.052447416944471525,0.12454919036084133,-12.22576130900368,0.47874802858712573,0.7834068573171835,0.46620511865114456,-5.322696078856355,0.7514874754506623,-9.494185037295749,0.15155900947649492,2.899419134061862,0.07752421618568417,6.368965229574666,0.041232565530525456,0.13361836078574352,0.02543639242632778,-4.4447182162985275
-104.65634651885578,-91.37458626504616,4.94948274810009,13.742077415496773,9.224473846013229,3.504730705906489,12.999066308892493,7.912175931126221,8.359287292451324,0.052447416944471525,0.12454919036084133,-12.22576130900368,0.47874802858712573,0.7834068573171835,0.46620511865114456,-5.322696078856355,0.7514874754506623,-9.494185037295749,0.15155900947649492,2.899419134061862,0.07752421618568417,5.717598839103422,0.041232565530525456,0.13361836078574352,0.02543639242632778,-4.4447182162985275
-105.20370537558433,-91.812473350429,4.94948274810009,13.742077415496773,9.224473846013229,3.504730705906489,12.999066308892493,7.912175931126221,8.359287292451324,0.052447416944471525,0.12454919036084133,-12.22576130900368,0.47874802858712573,0.7834068573171835,0.46620511865114456,-5.322696078856355,0.7514874754506623,-9.494185037295749,0.15155900947649492,2.899419134061862,0.07752421618568417,5.717598839103422,0.041232565530525456,0.13361836078574352,0.02543639242632778,-4.4447182162985275
-105.0975562045789,-91.812473350429,4.94948274810009,13.742077415496773,9.309393182817585,3.504730705906489,12.999066308892493,7.980111400569702,8.359287292451324,0.052447416944471525,0.12454919036084133,-12.22576130900368,0.47874802858712573,0.7834068573171835,0.46620511865114456,-5.322696078856355,0.7514874754506623,-9.494185037295749,0.15155900947649492,2.899419134061862,0.07752421618568417,5.717598839103422,0.041232565530525456,0.13361836078574352,0.02543639242632778,-4.4447182162985275
-103.5884199108551,-90.60516431544995,4.94948274810009,13.742077415496773,9.309393182817585,3.504730705906489,12.999066308892493,7.980111400569702,8.359287292451324,0.052447416944471525,0.12454919036084133,-12.22576130900368,0.47874802858712573,0.7834068573171835,0.46620511865114456,-5.322696078856355,0.7514874754506623,-9.494185037295749,0.15155900947649492,2.899419134061862,0.07752421618568417,5.717598839103422,0.041232565530525456,0.13361836078574352,0.02543639242632778,-4.4447182162985275
-103.40975235379098,-90.60516431544995,4.94948274810009,13.742077415496773,9.452327228468876,3.504730705906489,13.113413545413525,7.980111400569702,8.359287292451324,0.052447416944471525,0.12454919036084133,-12.22576130900368,0.47874802858712573,0.7834068573171835,0.46620511865114456,-5.322696078856355,0.7514874754506623,-9.494185037295749,0.15155900947649492,2.899419134061862,0.07752421618568417,5.809076628320249,0.041232565530525456,0.13361836078574352,0.02543639242632778,-4.4447182162985275
-103.47241725253326,-90.60516431544995,4.94948274810009,13.742077415496773,9.402195309475049,3.504730705906489,13.113413545413525,7.94000586537464,8.359287292451324,0.052447416944471525,0.12454919036084133,-12.22576130900368,0.47874802858712573,0.7834068573171835,0.46620511865114456,-5.322696078856355,0.7514874754506623,-9.494185037295749,0.15155900947649492,2.899419134061862,0.07752421618568417,5.809076628320249,0.041232565530525456,0.13361836078574352,0.02543639242632778,-4.4447182162985275
-104.37960467784798,-90.60516431544995,4.94948274810009,13.01632747524499,9.402195309475049,3.504730705906489,13.113413545413525,7.359405913173215,8.359287292451324,0.052447416944471525,0.12454919036084133,-12.22576130900368,0.47874802858712573,0.7834068573171835,0.46620511865114456,-5.322696078856355,0.7514874754506623,-9.494185037295749,0.15155900947649492,2.899419134061862,0.07752421618568417,5.344596666559109,0.041232565530525456,0.13361836078574352,0.02543639242632778,-4.4447182162985275
-104.22949583496009,-90.60516431544995,4.94948274810009,13.01632747524499,9.52228238378536,3.504730705906489,13.113413545413525,7.455475572621465,8.359287292451324,0.052447416944471525,0.12454919036084133,-12.22576130900368,0.47874802858712573,0.7834068573171835,0.46620511865114456,-5.322696078856355,0.7514874754506623,-9.494185037295749,0.15155900947649492,2.899419134061862,0.07752421618568417,5.344596666559109,0.041232565530525456,0.13361836078574352,0.02543639242632778,-4.4447182162985275
-104.08496800525926,-90.60516431544995,4.94948274810009,13.01632747524499,9.637904647546021,3.504730705906489,13.205911356422057,7.455475572621465,8.359287292451324,0.052447416944471525,0.12454919036084133,-12.22576130900368,0.47874802858712573,0.7834068573171835,0.46620511865114456,-5.322696078856355,0.7514874754506623,-9.494185037295749,0.15155900947649492,2.899419134061862,0.07752421618568417,5.418594915365931,0.041232565530525456,0.13361836078574352,0.02543639242632778,-4.4447182162985275
-104.80542734243393,-91.1815317851897,4.94948274810009,13.01632747524499,9.637904647546021,3.504730705906489,13.205911356422057,7.455475572621465,8.359287292451324,0.052447416944471525,0.12454919036084133,-12.22576130900368,0.47874802858712573,0.7834068573171835,0.46620511865114456,-5.322696078856355,0.7514874754506623,-9.494185037295749,0.15155900947649492,2.899419134061862,0.07752421618568417,5.418594915365931,0.041232565530525456,0.13361836078574352,0.02543639242632778,-4.4447182162985275
-104.64076087413862,-91.1815317851897,4.94948274810009,13.01632747524499,9.769637822182263,3.504730705906489,13.205911356422057,7.560862112330458,8.359287292451324,0.052447416944471525,0.12454919036084133,-12.22576130900368,0.47874802858712573,0.7834068573171835,0.46620511865114456,-5.322696078856355,0.7514874754506623,-9.494185037295749,0.15155900947649492,2.899419134061862,0.07752421618568417,5.418594915365931,0.041232565530525456,0.13361836078574352,0.02543639242632778,-4.4447182162985275
-105.22761256903183,-91.1815317851897,4.94948274810009,12.546846119330418,9.769637822182263,3.504730705906489,13.205911356422057,7.185277027598802,8.359287292451324,0.052447416944471525,0.12454919036084133,-12.22576130900368,0.47874802858712573,0.7834068573171835,0.46620511865114456,-5.322696078856355,0.7514874754506623,-9.494185037295749,0.15155900947649492,2.899419134061862,0.07752421618568417,5.118126847580605,0.041232565530525456,0.13361836078574352,0.02543639242632778,-4.4447182162985275
-105.05718160289412,-91.1815317851897,4.94948274810009,12.546846119330418,9.905982595092432,3.504730705906489,13.205911356422057,7.294352845926938,8.359287292451324,0.052447416944471525,0.12454919036084133,-12.22576130900368,0.47874802858712573,0.7834068573171835,0.46620511865114456,-5.322696078856355,0.7514874754506623,-9.494185037295749,0.15155900947649492,2.899419134061862,0.07752421618568417,5.118126847580605,0.041232565530525456,0.13361836078574352,0.02543639242632778,-4.4447182162985275
-103.63832786996117,-90.04644879884334,4.94948274810009,12.546846119330418,9.905982595092432,3.504730705906489,13.205911356422057,7.294352845926938,8.359287292451324,0.052447416944471525,0.12454919036084133,-12.22576130900368,0.47874802858712573,0.7834068573171835,0.46620511865114456,-5.322696078856355,0.7514874754506623,-9.494185037295749,0.15155900947649492,2.899419134061862,0.07752421618568417,5.118126847580605,0.041232565530525456,0.13361836078574352,0.02543639242632778,-4.4447182162985275
-103.51550509299749,-90.04644879884334,4.94948274810009,12.546846119330418,10.004240816663382,3.504730705906489,13.284517933678817,7.294352845926938,8.359287292451324,0.052447416944471525,0.12454919036084133,-12.22576130900368,0.47874802858712573,0.7834068573171835,0.46620511865114456,-5.322696078856355,0.7514874754506623,-9.494185037295749,0.15155900947649492,2.899419134061862,0.07752421618568417,5.181012109386016,0.041232565530525456,0.13361836078574352,0.02543639242632778,-4.4447182162985275
-104.3221583721026,-90.69177142212745,4.94948274810009,12.546846119330418,10.004240816663382,3.504730705906489,13.284517933678817,7.294352845926938,8.359287292451324,0.052447416944471525,0.12454919036084133,-12.22576130900368,0.47874802858712573,0.7834068573171835,0.46620511865114456,-5.322696078856355,0.7514874754506623,-9.494185037295749,0.15155900947649492,2.899419134061862,0.07752421618568417,5.181012109386016,0.041232565530525456,0.13361836078574352,0.02543639242632778,-4.4447182162985275
-104.17087518242754,-90.69177142212745,4.94948274810009,12.546846119330418,10.125267368403435,3.504730705906489,13.284517933678817,7.391174087318979,8.359287292451324,0.052447416944471525,0.12454919036084133,-12.22576130900368,0.47874802858712573,0.7834068573171835,0.46620511865114456,-5.322696078856355,0.7514874754506623,-9.494185037295749,0.15155900947649492,2.899419134061862,0.07752421618568417,5.181012109386016,0.041232565530525456,0.13361836078574352,0.02543639242632778,-4.4447182162985275
-104.94356459370063,-90.69177142212745,4.94948274810009,12.546846119330418,9.507115839384964,3.504730705906489,12.789996710464042,7.391174087318979,8.359287292451324,0.052447416944471525,0.12454919036084133,-12.22576130900368,0.47874802858712573,0.7834068573171835,0.46620511865114456,-5.322696078856355,0.7514874754506623,-9.494185037295749,0.15155900947649492,2.899419134061862,0.07752421618568417,4.785395130814195,0.041232565530525456,0.13361836078574352,0.02543639242632778,-4.4447182162985275
-105.66464683059442,-91.26863721164247,4.94948274810009,12.546846119330418,9.507115839384964,3.504730705906489,12.789996710464042,7.391174087318979,8.359287292451324,0.052447416944471525,0.12454919036084133,-12.22576130900368,0.47874802858712573,0.7834068573171835,0.46620511865114456,-5.322696078856355,0.7514874754506623,-9.494185037295749,0.15155900947649492,2.899419134061862,0.07752421618568417,4.785395130814195,0.041232565530525456,0.13361836078574352,0.02543639242632778,-4.4447182162985275
-106.25593426484733,-91.7416671590448,4.94948274810009,12.546846119330418,9.507115839384964,3.504730705906489,12.789996710464042,7.391174087318979,8.359287292451324,0.052447416944471525,0.12454919036084133,-12.22576130900368,0.47874802858712573,0.7834068573171835,0.46620511865114456,-5.322696078856355,0.7514874754506623,-9.494185037295749,0.15155900947649492,2.899419134061862,0.07752421618568417,4.785395130814195,0.041232565530525456,0.13361836078574352,0.02543639242632778,-4.4447182162985275
-106.7407899609347,-92.1295517159147,4.94948274810009,12.546846119330418,9.507115839384964,3.504730705906489,12.789996710464042,7.391174087318979,8.359287292451324,0.052447416944471525,0.12454919036084133,-12.22576130900368,0.47874802858712573,0.7834068573171835,0.46620511865114456,-5.322696078856355,0.7514874754506623,-9.494185037295749,0.15155900947649492,2.899419134061862,0.07752421618568417,4.785395130814195,0.041232565530525456,0.13361836078574352,0.02543639242632778,-4.4447182162985275
-106.71078076453742,-92.1295517159147,4.94948274810009,12.546846119330418,9.531123196502788,3.504730705906489,12.789996710464042,7.410379973013239,8.359287292451324,0.052447416944471525,0.12454919036084133,-12.22576130900368,0.47874802858712573,0.7834068573171835,0.46620511865114456,-5.322696078856355,0.7514874754506623,-9.494185037295749,0.15155900947649492,2.899419134061862,0.07752421618568417,4.785395130814195,0.041232565530525456,0.13361836078574352,0.02543639242632778,-4.4447182162985275
-105.27148209926315,-90.97811278369528,4.94948274810009,12.546846119330418,9.531123196502788,3.504730705906489,12.789996710464042,7.410379973013239,8.359287292451324,0.052447416944471525,0.12454919036084133,-12.22576130900368,0.47874802858712573,0.7834068573171835,0.46620511865114456,-5.322696078856355,0.7514874754506623,-9.494185037295749,0.15155900947649492,2.899419134061862,0.07752421618568417,4.785395130814195,0.041232565530525456,0.13361836078574352,0.02543639242632778,-4.4447182162985275
-104.09125719373824,-90.03393285927535,4.94948274810009,12.546846119330418,9.531123196502788,3.504730705906489,12.789996710464042,7.410379973013239,8.359287292451324,0.052447416944471525,0.12454919036084133,-12.22576130900368,0.47874802858712573,0.7834068573171835,0.46620511865114456,-5.322696078856355,0.7514874754506623,-9.494185037295749,0.15155900947649492,2.899419134061862,0.07752421618568417,4.785395130814195,0.041232565530525456,0.13361836078574352,0.02543639242632778,-4.4447182162985275
-103.78126448690679,-90.03393285927535,4.94948274810009,12.546846119330418,9.779117361967943,3.504730705906489,12.988392042836166,7.410379973013239,8.359287292451324,0.052447416944471525,0.12454919036084133,-12.22576130900368,0.47874802858712573,0.7834068573171835,0.46620511865114456,-5.322696078856355,0.7514874754506623,-9.494185037295749,0.15155900947649492,2.899419134061862,0.07752421618568417,4.944111396711893,0.041232565530525456,0.13361836078574352,0.02543639242632778,-4.4447182162985275
-104.2612979161349,-90.03393285927535,4.94948274810009,12.546846119330418,9.39509061858546,3.504730705906489,12.988392042836166,7.103158578307253,8.359287292451324,0.052447416944471525,0.12454919036084133,-12.22576130900368,0.47874802858712573,0.7834068573171835,0.46620511865114456,-5.322696078856355,0.7514874754506623,-9.494185037295749,0.15155900947649492,2.899419134061862,0.07752421618568417,4.944111396711893,0.041232565530525456,0.13361836078574352,0.02543639242632778,-4.4447182162985275
-104.72521032124142,-90.03393285927535,4.94948274810009,12.175716195245194,9.39509061858546,3.504730705906489,12.988392042836166,6.806254639039077,8.359287292451324,0.052447416944471525,0.12454919036084133,-12.22576130900368,0.47874802858712573,0.7834068573171835,0.46620511865114456,-5.322696078856355,0.7514874754506623,-9.494185037295749,0.15155900947649492,2.899419134061862,0.07752421618568417,4.706588245297352,0.041232565530525456,0.13361836078574352,0.02543639242632778,-4.4447182162985275
-104.59476240313208,-90.03393285927535,4.94948274810009,12.175716195245194,9.499448953072928,3.504730705906489,12.988392042836166,6.889741306629052,8.359287292451324,0.052447416944471525,0.12454919036084133,-12.22576130900368,0.47874802858712573,0.7834068573171835,0.46620511865114456,-5.322696078856355,0.7514874754506623,-9.494185037295749,0.15155900947649492,2.899419134061862,0.07752421618568417,4.706588245297352,0.041232565530525456,0.13361836078574352,0.02543639242632778,-4.4447182162985275
-103.6010833197972,-89.23898959260745,4.94948274810009,12.175716195245194,9.499448953072928,3.504730705906489,12.988392042836166,6.889741306629052,8.359287292451324,0.052447416944471525,0.12454919036084133,-12.22576130900368,0.47874802858712573,0.7834068573171835,0.46620511865114456,-5.322696078856355,0.7514874754506623,-9.494185037295749,0.15155900947649492,2.899419134061862,0.07752421618568417,4.706588245297352,0.041232565530525456,0.13361836078574352,0.02543639242632778,-4.4447182162985275
-103.93341655608921,-89.23898959260745,4.94948274810009,11.909849606211576,9.499448953072928,3.504730705906489,12.988392042836166,6.677048035402158,8.359287292451324,0.052447416944471525,0.12454919036084133,-12.22576130900368,0.47874802858712573,0.7834068573171835,0.46620511865114456,-5.322696078856355,0.7514874754506623,-9.494185037295749,0.15155900947649492,2.899419134061862,0.07752421618568417,4.536433628315837,0.041232565530525456,0.13361836078574352,0.02543639242632778,-4.4447182162985275
-105.09518084852043,-90.16840102655243,4.94948274810009,11.909849606211576,9.499448953072928,3.504730705906489,12.988392042836166,6.677048035402158,8.359287292451324,0.052447416944471525,0.12454919036084133,-12.22576130900368,0.47874802858712573,0.7834068573171835,0.46620511865114456,-5.322696078856355,0.7514874754506623,-9.494185037295749,0.15155900947649492,2.899419134061862,0.07752421618568417,4.536433628315837,0.041232565530525456,0.13361836078574352,0.02543639242632778,-4.4447182162985275
-104.96420719688454,-90.16840102655243,4.94948274810009,11.909849606211576,9.60422787438163,3.504730705906489,12.988392042836166,6.760871172449118,8.359287292451324,0.052447416944471525,0.12454919036084133,-12.22576130900368,0.47874802858712573,0.7834068573171835,0.46620511865114456,-5.322696078856355,0.7514874754506623,-9.494185037295749,0.15155900947649492,2.899419134061862,0.07752421618568417,4.536433628315837,0.041232565530525456,0.13361836078574352,0.02543639242632778,-4.4447182162985275
-104.74501593362405,-90.16840102655243,4.94948274810009,11.909849606211576,9.779580884990029,3.504730705906489,13.128674451322887,6.760871172449118,8.359287292451324,0.052447416944471525,0.12454919036084133,-12.22576130900368,0.47874802858712573,0.7834068573171835,0.46620511865114456,-5.322696078856355,0.7514874754506623,-9.494185037295749,0.15155900947649492,2.899419134061862,0.07752421618568417,4.648659555105213,0.041232565530525456,0.13361836078574352,0.02543639242632778,-4.4447182162985275
-105.36071756636153,-90.16840102655243,4.94948274810009,11.909849606211576,9.287019578800042,3.504730705906489,13.128674451322887,6.366822127497128,8.359287292451324,0.052447416944471525,0.12454919036084133,-12.22576130900368,0.47874802858712573,0.7834068573171835,0.46620511865114456,-5.322696078856355,0.7514874754506623,-9.494185037295749,0.15155900947649492,2.899419134061862,0.07752421618568417,4.648659555105213,0.041232565530525456,0.13361836078574352,0.02543639242632778,-4.4447182162985275
-102.88218540384445,-90.16840102655243,4.94948274810009,11.909849606211576,9.287019578800042,3.504730705906489,15.111500181336556,6.366822127497128,8.359287292451324,0.052447416944471525,0.12454919036084133,-12.22576130900368,0.47874802858712573,0.7834068573171835,0.46620511865114456,-5.322696078856355,0.7514874754506623,-9.494185037295749,0.15155900947649492,2.899419134061862,0.07752421618568417,6.234920139116149,0.041232565530525456,0.13361836078574352,0.02543639242632778,-4.4447182162985275
-103.97316998332357,-91.04118869013574,4.94948274810009,11.909849606211576,9.287019578800042,3.504730705906489,15.111500181336556,6.366822127497128,8.359287292451324,0.052447416944471525,0.12454919036084133,-12.22576130900368,0.47874802858712573,0.7834068573171835,0.46620511865114456,-5.322696078856355,0.7514874754506623,-9.494185037295749,0.15155900947649492,2.899419134061862,0.07752421618568417,6.234920139116149,0.041232565530525456,0.13361836078574352,0.02543639242632778,-4.4447182162985275
-104.86777733849647,-91.75687457427405,4.94948274810009,11.909849606211576,9.287019578800042,3.504730705906489,15.111500181336556,6.366822127497128,8.359287292451324,0.052447416944471525,0.12454919036084133,-12.22576130900368,0.47874802858712573,0.7834068573171835,0.46620511865114456,-5.322696078856355,0.7514874754506623,-9.494185037295749,0.15155900947649492,2.899419134061862,0.07752421618568417,6.234920139116149,0.041232565530525456,0.13361836078574352,0.02543639242632778,-4.4447182162985275
-105.0891035958775,-91.75687457427405,4.94948274810009,11.909849606211576,9.109958572895218,3.504730705906489,15.111500181336556,6.225173322773268,8.359287292451324,0.052447416944471525,0.12454919036084133,-12.22576130900368,0.47874802858712573,0.7834068573171835,0.46620511865114456,-5.322696078856355,0.7514874754506623,-9.494185037295749,0.15155900947649492,2.899419134061862,0.07752421618568417,6.234920139116149,0.041232565530525456,0.13361836078574352,0.02543639242632778,-4.4447182162985275
-104.24935685684696,-91.08507718304962,4.94948274810009,11.909849606211576,9.109958572895218,3.504730705906489,15.111500181336556,6.225173322773268,8.359287292451324,0.052447416944471525,0.12454919036084133,-12.22576130900368,0.47874802858712573,0.7834068573171835,0.46620511865114456,-5.322696078856355,0.7514874754506623,-9.494185037295749,0.15155900947649492,2.899419134061862,0.07752421618568417,6.234920139116149,0.041232565530525456,0.13361836078574352,0.02543639242632778,-4.4447182162985275
-103.56076453084192,-90.53420332224559,4.94948274810009,11.909849606211576,9.109958572895218,3.504730705906489,15.111500181336556,6.225173322773268,8.359287292451324,0.052447416944471525,0.12454919036084133,-12.22576130900368,0.47874802858712573,0.7834068573171835,0.46620511865114456,-5.322696078856355,0.7514874754506623,-9.494185037295749,0.15155900947649492,2.899419134061862,0.07752421618568417,6.234920139116149,0.041232565530525456,0.13361836078574352,0.02543639242632778,-4.4447182162985275
-102.99611882351779,-90.08248675638629,4.94948274810009,11.909849606211576,9.109958572895218,3.504730705906489,15.111500181336556,6.225173322773268,8.359287292451324,0.052447416944471525,0.12454919036084133,-12.22576130900368,0.47874802858712573,0.7834068573171835,0.46620511865114456,-5.322696078856355,0.7514874754506623,-9.494185037295749,0.15155900947649492,2.899419134061862,0.07752421618568417,6.234920139116149,0.041232565530525456,0.13361836078574352,0.02543639242632778,-4.4447182162985275
-103.64986131944731,-90.08248675638629,4.94948274810009,11.386855609467965,9.109958572895218,3.504730705906489,15.111500181336556,5.806778125378382,8.359287292451324,0.052447416944471525,0.12454919036084133,-12.22576130900368,0.47874802858712573,0.7834068573171835,0.46620511865114456,-5.322696078856355,0.7514874754506623,-9.494185037295749,0.15155900947649492,2.899419134061862,0.07752421618568417,5.90020398120024,0.041232565530525456,0.13361836078574352,0.02543639242632778,-4.4447182162985275
-104.00332064382471,-90.08248675638629,4.94948274810009,11.386855609467965,8.827191113393306,3.504730705906489,15.111500181336556,5.580564157776853,8.359287292451324,0.052447416944471525,0.12454919036084133,-12.22576130900368,0.47874802858712573,0.7834068573171835,0.46620511865114456,-5.322696078856355,0.7514874754506623,-9.494185037295749,0.15155900947649492,2.899419134061862,0.07752421618568417,5.90020398120024,0.041232565530525456,0.13361836078574352,0.02543639242632778,-4.4447182162985275
-105.39428992648462,-90.08248675638629,4.94948274810009,10.27408018334004,8.827191113393306,3.504730705906489,15.111500181336556,4.690343816874515,8.359287292451324,0.052447416944471525,0.12454919036084133,-12.22576130900368,0.47874802858712573,0.7834068573171835,0.46620511865114456,-5.322696078856355,0.7514874754506623,-9.494185037295749,0.15155900947649492,2.899419134061862,0.07752421618568417,5.188027708478368,0.041232565530525456,0.13361836078574352,0.02543639242632778,-4.4447182162985275
-107.94609954422178,-90.08248675638629,6.990930442289827,10.27408018334004,7.194032958041515,3.504730705906489,15.111500181336556,3.3838172925930827,8.359287292451324,0.052447416944471525,0.12454919036084133,-12.22576130900368,0.47874802858712573,0.7834068573171835,0.46620511865114456,-5.322696078856355,0.7514874754506623,-9.494185037295749,0.15155900947649492,2.899419134061862,0.07752421618568417,5.188027708478368,0.041232565530525456,0.13361836078574352,0.02543639242632778,-4.4447182162985275
-111.11253093625962,-90.08248675638629,9.5240755559201,8.247564092435821,7.194032958041515,3.504730705906489,15.111500181336556,1.7626044198697066,8.359287292451324,0.052447416944471525,0.12454919036084133,-12.22576130900368,0.47874802858712573,0.7834068573171835,0.46620511865114456,-5.322696078856355,0.7514874754506623,-9.494185037295749,0.15155900947649492,2.899419134061862,0.07752421618568417,3.891057410299667,0.041232565530525456,0.13361836078574352,0.02543639242632778,-4.4447182162985275
-103.27436001805046,-90.08248675638629,9.5240755559201,8.247564092435821,7.194032958041515,9.775267440473812,15.111500181336556,1.7626044198697066,8.359287292451324,0.052447416944471525,0.12454919036084133,-12.22576130900368,0.47874802858712573,0.7834068573171835,0.46620511865114456,-5.322696078856355,0.7514874754506623,-9.494185037295749,0.15155900947649492,2.899419134061862,0.07752421618568417,3.891057410299667,0.041232565530525456,0.13361836078574352,0.02543639242632778,-4.4447182162985275
-98.81973799595248,-90.08248675638629,9.5240755559201,8.247564092435821,10.757730575719894,9.775267440473812,15.111500181336556,4.6135625140124095,10.640053767765485,0.052447416944471525,0.12454919036084133,-12.22576130900368,0.47874802858712573,0.7834068573171835,0.46620511865114456,-5.322696078856355,0.7514874754506623,-9.494185037295749,0.15155900947649492,2.899419134061862,0.07752421618568417,3.891057410299667,0.041232565530525456,0.13361836078574352,0.02543639242632778,-4.4447182162985275
-94.97140808535283,-90.08248675638629,9.5240755559201,8.247564092435821,10.757730575719894,9.775267440473812,18.19016410981628,4.6135625140124095,10.640053767765485,2.515378559728248,2.094894104587863,-12.22576130900368,0.47874802858712573,0.7834068573171835,0.46620511865114456,-5.322696078856355,0.7514874754506623,-9.494185037295749,0.15155900947649492,2.899419134061862,0.07752421618568417,5.467333341681283,0.041232565530525456,0.13361836078574352,0.02543639242632778,-4.4447182162985275
-104.81472129220921,-90.08248675638629,9.5240755559201,8.247564092435821,2.8830800102347895,9.775267440473812,18.19016410981628,-1.6861579383756746,10.640053767765485,2.515378559728248,2.094894104587863,-12.22576130900368,0.47874802858712573,-4.256369504593283,0.46620511865114456,-5.322696078856355,0.7514874754506623,-9.494185037295749,0.15155900947649492,2.899419134061862,0.07752421618568417,5.467333341681283,0.041232565530525456,0.13361836078574352,0.02543639242632778,-4.4447182162985275
-106.3720301684615,-90.08248675638629,9.5240755559201,8.247564092435821,2.8830800102347895,9.775267440473812,16.94431700881445,-1.6861579383756746,10.640053767765485,1.518700878926785,1.2975519599466936,-12.22576130900368,0.47874802858712573,-4.256369504593283,0.46620511865114456,-5.322696078856355,0.7514874754506623,-9.494185037295749,0.15155900947649492,2.899419134061862,0.07752421618568417,4.829459625968349,0.041232565530525456,0.13361836078574352,0.02543639242632778,-4.4447182162985275
-103.94019994889793,-90.08248675638629,9.5240755559201,8.247564092435821,2.8830800102347895,9.775267440473812,16.94431700881445,-1.6861579383756746,10.640053767765485,1.518700878926785,1.2975519599466936,-12.22576130900368,0.47874802858712573,-4.256369504593283,0.46620511865114456,-5.322696078856355,0.7514874754506623,-9.494185037295749,0.15155900947649492,2.899419134061862,0.07752421618568417,4.829459625968349,0.041232565530525456,0.13361836078574352,0.02543639242632778,-2.4992540406476667
-101.78150057003089,-90.08248675638629,9.5240755559201,8.247564092435821,4.61003951332842,9.775267440473812,16.94431700881445,-0.30459033590076934,10.640053767765485,1.518700878926785,1.2975519599466936,-12.22576130900368,0.47874802858712573,-4.256369504593283,0.46620511865114456,-5.322696078856355,0.7514874754506623,-9.494185037295749,0.15155900947649492,2.899419134061862,0.07752421618568417,4.829459625968349,0.041232565530525456,0.13361836078574352,0.02543639242632778,-2.4992540406476667
-97.4965159042316,-90.08248675638629,9.5240755559201,11.675551825075253,4.61003951332842,9.775267440473812,16.94431700881445,2.4377998502107747,10.640053767765485,1.518700878926785,1.2975519599466936,-12.22576130900368,0.47874802858712573,-4.256369504593283,0.46620511865114456,-5.322696078856355,0.7514874754506623,-9.494185037295749,0.15155900947649492,2.899419134061862,0.07752421618568417,7.0233717748575835,0.041232565530525456,0.13361836078574352,0.02543639242632778,-2.4992540406476667
-95.1143049252952,-88.17671797323717,9.5240755559201,11.675551825075253,4.61003951332842,9.775267440473812,16.94431700881445,2.4377998502107747,10.640053767765485,1.518700878926785,1.2975519599466936,-12.22576130900368,0.47874802858712573,-4.256369504593283,0.46620511865114456,-5.322696078856355,0.7514874754506623,-9.494185037295749,0.15155900947649492,2.899419134061862,0.07752421618568417,7.0233717748575835,0.041232565530525456,0.13361836078574352,0.02543639242632778,-2.4992540406476667
-93.5360567275129,-88.17671797323717,9.5240755559201,12.93815038330109,4.61003951332842,9.775267440473812,17.954395855395124,2.4377998502107747,10.640053767765485,1.518700878926785,1.2975519599466936,-12.22576130900368,0.47874802858712573,-4.256369504593283,0.46620511865114456,-5.322696078856355,0.7514874754506623,-9.494185037295749,0.15155900947649492,2.899419134061862,0.07752421618568417,7.831434852122121,0.041232565530525456,0.13361836078574352,0.02543639242632778,-2.4992540406476667
-92.72948329467532,-88.17671797323717,9.5240755559201,13.583409129571153,4.61003951332842,9.775267440473812,17.954395855395124,2.954006847226825,10.640053767765485,1.518700878926785,1.2975519599466936,-12.22576130900368,0.47874802858712573,-4.256369504593283,0.46620511865114456,-5.322696078856355,0.7514874754506623,-9.494185037295749,0.15155900947649492,2.899419134061862,0.07752421618568417,8.244400449734963,0.041232565530525456,0.13361836078574352,0.02543639242632778,-2.4992540406476667
-90.92705374575058,-88.17671797323717,9.5240755559201,13.583409129571153,6.0519831524682015,9.775267440473812,19.10795076670695,2.954006847226825,10.640053767765485,1.518700878926785,1.2975519599466936,-12.22576130900368,0.47874802858712573,-4.256369504593283,0.46620511865114456,-5.322696078856355,0.7514874754506623,-9.494185037295749,0.15155900947649492,2.899419134061862,0.07752421618568417,8.244400449734963,0.041232565530525456,0.13361836078574352,0.02543639242632778,-2.4992540406476667
-87.14127380849223,-88.17671797323717,9.5240755559201,13.583409129571153,9.08060710227489,9.775267440473812,19.10795076670695,5.376906007072176,10.640053767765485,1.518700878926785,1.2975519599466936,-12.22576130900368,0.47874802858712573,-4.256369504593283,0.46620511865114456,-5.322696078856355,0.7514874754506623,-9.494185037295749,0.15155900947649492,2.899419134061862,0.07752421618568417,8.244400449734963,0.041232565530525456,0.13361836078574352,0.02543639242632778,-2.4992540406476667
-85.68875159597691,-88.17671797323717,9.5240755559201,14.745426899583414,9.08060710227489,9.775267440473812,20.037564982716756,5.376906007072176,10.640053767765485,1.518700878926785,1.2975519599466936,-12.22576130900368,0.47874802858712573,-4.256369504593283,0.46620511865114456,-5.322696078856355,0.7514874754506623,-9.494185037295749,0.15155900947649492,2.899419134061862,0.07752421618568417,8.988091822542808,0.041232565530525456,0.13361836078574352,0.02543639242632778,-2.4992540406476667
-85.15579053459855,-88.17671797323717,9.5240755559201,15.171795748686097,9.08060710227489,9.775267440473812,20.037564982716756,5.718001086354324,10.640053767765485,1.518700878926785,1.2975519599466936,-12.22576130900368,0.47874802858712573,-4.256369504593283,0.46620511865114456,-5.322696078856355,0.7514874754506623,-9.494185037295749,0.15155900947649492,2.899419134061862,0.07752421618568417,9.260967885968528,0.041232565530525456,0.13361836078574352,0.02543639242632778,-2.4992540406476667
-84.39019347947755,-87.56424032914036,9.5240755559201,15.171795748686097,9.08060710227489,9.775267440473812,20.037564982716756,5.718001086354324,10.640053767765485,1.518700878926785,1.2975519599466936,-12.22576130900368,0.47874802858712573,-4.256369504593283,0.46620511865114456,-5.322696078856355,0.7514874754506623,-9.494185037295749,0.15155900947649492,2.899419134061862,0.07752421618568417,9.260967885968528,0.041232565530525456,0.13361836078574352,0.02543639242632778,-2.4992540406476667
-83.76240389427831,-87.06200866098098,9.5240755559201,15.171795748686097,9.08060710227489,9.775267440473812,20.037564982716756,5.718001086354324,10.640053767765485,1.518700878926785,1.2975519599466936,-12.22576130900368,0.47874802858712573,-4.256369504593283,0.46620511865114456,-5.322696078856355,0.7514874754506623,-9.494185037295749,0.15155900947649492,2.899419134061862,0.07752421618568417,9.260967885968528,0.041232565530525456,0.13361836078574352,0.02543639242632778,-2.4992540406476667
-83.24761643441494,-86.65017869309028,9.5240755559201,15.171795748686097,9.08060710227489,9.775267440473812,20.037564982716756,5.718001086354324,10.640053767765485,1.518700878926785,1.2975519599466936,-12.22576130900368,0.47874802858712573,-4.256369504593283,0.46620511865114456,-5.322696078856355,0.7514874754506623,-9.494185037295749,0.15155900947649492,2.899419134061862,0.07752421618568417,9.260967885968528,0.041232565530525456,0.13361836078574352,0.02543639242632778,-2.4992540406476667
-82.78567940014682,-86.65017869309028,9.5240755559201,15.541345376100594,9.08060710227489,9.775267440473812,20.037564982716756,6.01364078828592,10.640053767765485,1.518700878926785,1.2975519599466936,-12.22576130900368,0.47874802858712573,-4.256369504593283,0.46620511865114456,-5.322696078856355,0.7514874754506623,-9.494185037295749,0.15155900947649492,2.899419134061862,0.07752421618568417,9.497479647513805,0.041232565530525456,0.13361836078574352,0.02543639242632778,-2.4992540406476667
-82.21048622738377,-86.19002415487984,9.5240755559201,15.541345376100594,9.08060710227489,9.775267440473812,20.037564982716756,6.01364078828592,10.640053767765485,1.518700878926785,1.2975519599466936,-12.22576130900368,0.47874802858712573,-4.256369504593283,0.46620511865114456,-5.322696078856355,0.7514874754506623,-9.494185037295749,0.15155900947649492,2.899419134061862,0.07752421618568417,9.497479647513805,0.041232565530525456,0.13361836078574352,0.02543639242632778,-2.4992540406476667
-84.65980504491522,-86.19002415487984,9.5240755559201,13.581890322075441,9.08060710227489,9.775267440473812,20.037564982716756,4.446076745065796,10.640053767765485,1.518700878926785,1.2975519599466936,-12.22576130900368,0.47874802858712573,-4.256369504593283,0.46620511865114456,-5.322696078856355,0.7514874754506623,-9.494185037295749,0.15155900947649492,2.899419134061862,0.07752421618568417,8.243428412937707,0.041232565530525456,0.13361836078574352,0.02543639242632778,-2.4992540406476667
-87.29380102051961,-88.29722093536336,9.5240755559201,13.581890322075441,9.08060710227489,9.775267440473812,20.037564982716756,4.446076745065796,10.640053767765485,1.518700878926785,1.2975519599466936,-12.22576130900368,0.47874802858712573,-4.256369504593283,0.46620511865114456,-5.322696078856355,0.7514874754506623,-9.494185037295749,0.15155900947649492,2.899419134061862,0.07752421618568417,8.243428412937707,0.041232565530525456,0.13361836078574352,0.02543639242632778,-2.4992540406476667
-89.45367772051522,-90.02512229535984,9.5240755559201,13.581890322075441,9.08060710227489,9.775267440473812,20.037564982716756,4.446076745065796,10.640053767765485,1.518700878926785,1.2975519599466936,-12.22576130900368,0.47874802858712573,-4.256369504593283,0.46620511865114456,-5.322696078856355,0.7514874754506623,-9.494185037295749,0.15155900947649492,2.899419134061862,0.07752421618568417,8.243428412937707,0.041232565530525456,0.13361836078574352,0.02543639242632778,-2.4992540406476667
-91.22477661451163,-91.44200141055695,9.5240755559201,13.581890322075441,9.08060710227489,9.775267440473812,20.037564982716756,4.446076745065796,10.640053767765485,1.518700878926785,1.2975519599466936,-12.22576130900368,0.47874802858712573,-4.256369504593283,0.46620511865114456,-5.322696078856355,0.7514874754506623,-9.494185037295749,0.15155900947649492,2.899419134061862,0.07752421618568417,8.243428412937707,0.041232565530525456,0.13361836078574352,0.02543639242632778,-2.4992540406476667
-91.1932605932599,-91.41678859355557,9.5240755559201,13.581890322075441,9.08060710227489,9.775267440473812,20.037564982716756,4.446076745065796,10.640053767765485,1.518700878926785,1.2975519599466936,-12.22576130900368,0.47874802858712573,-4.256369504593283,0.46620511865114456,-5.322696078856355,0.7514874754506623,-9.494185037295749,0.15155900947649492,2.899419134061862,0.07752421618568417,8.243428412937707,0.041232565530525456,0.13361836078574352,0.02543639242632778,-2.4992540406476667
-91.16741745583347,-91.39611408361444,9.5240755559201,13.581890322075441,9.08060710227489,9.775267440473812,20.037564982716756,4.446076745065796,10.640053767765485,1.518700878926785,1.2975519599466936,-12.22576130900368,0.47874802858712573,-4.256369504593283,0.46620511865114456,-5.322696078856355,0.7514874754506623,-9.494185037295749,0.15155900947649492,2.899419134061862,0.07752421618568417,8.243428412937707,0.041232565530525456,0.13361836078574352,0.02543639242632778,-2.4992540406476667
-91.1462260831438,-91.3791609854627,9.5240755559201,13.581890322075441,9.08060710227489,9.775267440473812,20.037564982716756,4.446076745065796,10.640053767765485,1.518700878926785,1.2975519599466936,-12.22576130900368,0.47874802858712573,-4.256369504593283,0.46620511865114456,-5.322696078856355,0.7514874754506623,-9.494185037295749,0.15155900947649492,2.899419134061862,0.07752421618568417,8.243428412937707,0.041232565530525456,0.13361836078574352,0.02543639242632778,-2.4992540406476667
-91.12884915753827,-91.36525944497828,9.5240755559201,13.581890322075441,9.08060710227489,9.775267440473812,20.037564982716756,4.446076745065796,10.640053767765485,1.518700878926785,1.2975519599466936,-12.22576130900368,0.47874802858712573,-4.256369504593283,0.46620511865114456,-5.322696078856355,0.7514874754506623,-9.494185037295749,0.15155900947649492,2.899419134061862,0.07752421618568417,8.243428412937707,0.041232565530525456,0.13361836078574352,0.02543639242632778,-2.4992540406476667
-91.11460007854174,-91.35386018178106,9.5240755559201,13.581890322075441,9.08060710227489,9.775267440473812,20.037564982716756,4.446076745065796,10.640053767765485,1.518700878926785,1.2975519599466936,-12.22576130900368,0.47874802858712573,-4.256369504593283,0.46620511865114456,-5.322696078856355,0.7514874754506623,-9.494185037295749,0.15155900947649492,2.899419134061862,0.07752421618568417,8.243428412937707,0.041232565530525456,0.13361836078574352,0.02543639242632778,-2.4992540406476667
-93.40129645694117,-91.35386018178106,9.5240755559201,13.581890322075441,7.251249999555354,9.775267440473812,20.037564982716756,2.982591062890166,10.640053767765485,1.518700878926785,1.2975519599466936,-12.22576130900368,0.47874802858712573,-4.256369504593283,0.46620511865114456,-5.322696078856355,0.7514874754506623,-9.494185037295749,0.15155900947649492,2.899419134061862,0.07752421618568417,7.072639867197203,0.041232565530525456,0.13361836078574352,0.02543639242632778,-2.4992540406476667
-94.20407541355527,-91.35386018178106,9.5240755559201,12.939667156784157,7.251249999555354,9.775267440473812,20.037564982716756,2.468812530657139,10.640053767765485,1.518700878926785,1.2975519599466936,-12.22576130900368,0.47874802858712573,-4.256369504593283,0.46620511865114456,-5.322696078856355,0.7514874754506623,-9.494185037295749,0.15155900947649492,2.899419134061862,0.07752421618568417,7.072639867197203,0.041232565530525456,0.13361836078574352,0.02543639242632778,-2.4992540406476667
-83.42573130298003,-91.35386018178106,9.5240755559201,12.939667156784157,7.251249999555354,18.397942728934005,20.037564982716756,2.468812530657139,10.640053767765485,1.518700878926785,1.2975519599466936,-12.22576130900368,0.47874802858712573,-4.256369504593283,0.46620511865114456,-5.322696078856355,0.7514874754506623,-9.494185037295749,0.15155900947649492,2.899419134061862,6.975664446953837,7.072639867197203,0.041232565530525456,0.13361836078574352,0.02543639242632778,-2.4992540406476667
-79.76441900287999,-91.35386018178106,9.5240755559201,12.939667156784157,10.180299839635387,18.397942728934005,20.037564982716756,4.812052402721167,12.514645665416706,1.518700878926785,1.2975519599466936,-12.22576130900368,0.47874802858712573,-4.256369504593283,0.46620511865114456,-5.322696078856355,0.7514874754506623,-9.494185037295749,0.15155900947649492,2.899419134061862,6.975664446953837,7.072639867197203,0.041232565530525456,0.13361836078574352,0.02543639242632778,-2.4992540406476667
-78.94709896306699,-90.70000414993066,9.5240755559201,12.939667156784157,10.180299839635387,18.397942728934005,20.037564982716756,4.812052402721167,12.514645665416706,1.518700878926785,1.2975519599466936,-12.22576130900368,0.47874802858712573,-4.256369504593283,0.46620511865114456,-5.322696078856355,0.7514874754506623,-9.494185037295749,0.15155900947649492,2.899419134061862,6.975664446953837,7.072639867197203,0.041232565530525456,0.13361836078574352,0.02543639242632778,-2.4992540406476667
-72.77770467756191,-90.70000414993066,9.5240755559201,12.939667156784157,15.115815268039452,18.397942728934005,20.037564982716756,8.76046474544442,15.673375539595307,1.518700878926785,1.2975519599466936,-12.22576130900368,0.47874802858712573,-4.256369504593283,0.46620511865114456,-5.322696078856355,0.7514874754506623,-9.494185037295749,0.15155900947649492,2.899419134061862,6.975664446953837,7.072639867197203,0.041232565530525456,0.13361836078574352,0.02543639242632778,-2.4992540406476667
-34.42618860817827,-61.67121193234254,9.5240755559201,14.592087794702955,15.115815268039452,18.397942728934005,20.037564982716756,10.082401255779459,15.673375539595307,1.518700878926785,1.2975519599466936,-12.22576130900368,0.47874802858712573,-4.256369504593283,0.46620511865114456,-4.265146870588324,0.7514874754506623,-9.494185037295749,0.15155900947649492,26.12245290813236,6.975664446953837,7.918679233811629,0.041232565530525456,0.13361836078574352,0.02543639242632778,-2.4992540406476667
-47.316283339964556,-71.98328771777156,9.5240755559201,14.592087794702955,15.115815268039452,18.397942728934005,20.037564982716756,10.082401255779459,15.673375539595307,1.518700878926785,1.2975519599466936,-12.22576130900368,0.47874802858712573,-4.256369504593283,0.46620511865114456,-4.265146870588324,0.7514874754506623,-9.494185037295749,0.15155900947649492,17.872792279789138,6.975664446953837,7.918679233811629,0.041232565530525456,0.13361836078574352,0.02543639242632778,-2.4992540406476667
-42.213506395784606,-71.98328771777156,9.5240755559201,14.592087794702955,15.115815268039452,22.48016428427796,20.037564982716756,10.082401255779459,15.673375539595307,1.518700878926785,1.2975519599466936,-12.22576130900368,0.47874802858712573,-4.256369504593283,0.46620511865114456,-4.265146870588324,0.7514874754506623,-9.494185037295749,0.15155900947649492,17.872792279789138,6.975664446953837,7.918679233811629,0.041232565530525456,0.13361836078574352,0.02543639242632778,-2.4992540406476667
-38.42871348296889,-71.98328771777156,9.5240755559201,14.592087794702955,15.115815268039452,22.48016428427796,20.037564982716756,13.110235586032035,18.09564300379737,1.518700878926785,1.2975519599466936,-12.22576130900368,0.47874802858712573,-4.256369504593283,0.46620511865114456,-4.265146870588324,0.7514874754506623,-9.494185037295749,0.15155900947649492,17.872792279789138,6.975664446953837,7.918679233811629,0.041232565530525456,0.13361836078574352,0.02543639242632778,-2.4992540406476667
-51.001663293081414,-82.04164756586158,9.5240755559201,14.592087794702955,15.115815268039452,22.48016428427796,20.037564982716756,13.110235586032035,18.09564300379737,1.518700878926785,1.2975519599466936,-12.22576130900368,0.47874802858712573,-4.256369504593283,0.46620511865114456,-4.265146870588324,0.7514874754506623,-9.494185037295749,-7.895128868995522,17.872792279789138,6.975664446953837,7.918679233811629,0.041232565530525456,0.13361836078574352,0.02543639242632778,-2.4992540406476667
-50.386057483873145,-82.04164756586158,9.5240755559201,14.592087794702955,15.115815268039452,22.48016428427796,20.037564982716756,13.602720233398653,18.09564300379737,1.9126885968200789,1.6127421342613297,-12.22576130900368,0.47874802858712573,-4.256369504593283,0.46620511865114456,-4.265146870588324,0.7514874754506623,-9.494185037295749,-7.895128868995522,17.872792279789138,6.975664446953837,8.170831373263338,0.041232565530525456,0.13361836078574352,0.02543639242632778,-2.4992540406476667
-35.51067760050952,-56.2535543573761,9.5240755559201,14.592087794702955,1.2280259662448731,22.48016428427796,20.037564982716756,2.492488791962991,18.09564300379737,1.9126885968200789,1.6127421342613297,-12.22576130900368,0.47874802858712573,-4.256369504593283,-8.421980034497382,-4.265146870588324,0.7514874754506623,-9.494185037295749,-7.895128868995522,38.50326684657752,6.975664446953837,8.170831373263338,0.041232565530525456,0.13361836078574352,0.02543639242632778,-2.4992540406476667
-32.39063318211805,-56.2535543573761,9.5240755559201,14.592087794702955,1.2280259662448731,24.97619981899113,20.037564982716756,2.492488791962991,18.09564300379737,1.9126885968200789,1.6127421342613297,-12.22576130900368,0.47874802858712573,-4.256369504593283,-8.421980034497382,-4.265146870588324,0.7514874754506623,-9.494185037295749,-7.895128868995522,38.50326684657752,6.975664446953837,8.170831373263338,0.041232565530525456,0.13361836078574352,0.02543639242632778,-2.4992540406476667
-40.7862459237636,-62.97004455069255,9.5240755559201,14.592087794702955,1.2280259662448731,24.97619981899113,20.037564982716756,2.492488791962991,18.09564300379737,1.9126885968200789,1.6127421342613297,-12.22576130900368,0.47874802858712573,-4.256369504593283,-8.421980034497382,-4.265146870588324,0.7514874754506623,-9.494185037295749,-7.895128868995522,38.50326684657752,6.975664446953837,8.170831373263338,0.041232565530525456,0.13361836078574352,0.02543639242632778,-2.4992540406476667
-37.39948565348908,-62.97004455069255,9.5240755559201,14.592087794702955,1.2280259662448731,24.97619981899113,20.037564982716756,5.201897008182611,20.263169576773066,1.9126885968200789,1.6127421342613297,-12.22576130900368,0.47874802858712573,-4.256369504593283,-8.421980034497382,-4.265146870588324,0.7514874754506623,-9.494185037295749,-7.895128868995522,38.50326684657752,6.975664446953837,8.170831373263338,0.041232565530525456,0.13361836078574352,0.02543639242632778,-2.4992540406476667
-50.17245835274722,-62.97004455069255,9.5240755559201,14.592087794702955,1.2280259662448731,24.97619981899113,9.81918682331024,5.201897008182611,20.263169576773066,1.9126885968200789,1.6127421342613297,-12.22576130900368,0.47874802858712573,-4.256369504593283,-8.421980034497382,-12.439849398113534,0.7514874754506623,-9.494185037295749,-14.43489089101569,38.50326684657752,6.975664446953837,2.9390217556472047,0.041232565530525456,0.13361836078574352,0.02543639242632778,-2.4992540406476667
-48.665382823879995,-62.97004455069255,9.5240755559201,14.592087794702955,1.2280259662448731,24.97619981899113,9.81918682331024,6.40755743127639,20.263169576773066,2.8772169352951034,2.384364805041349,-12.22576130900368,0.47874802858712573,-4.256369504593283,-8.421980034497382,-12.439849398113534,0.7514874754506623,-9.494185037295749,-14.43489089101569,38.50326684657752,6.975664446953837,2.9390217556472047,0.041232565530525456,0.13361836078574352,0.02543639242632778,-2.4992540406476667
-37.79035370357553,-43.25993958553914,9.5240755559201,3.582006125793118,1.2280259662448731,24.97619981899113,9.81918682331024,-2.400507903851479,20.263169576773066,2.8772169352951034,2.384364805041349,-12.22576130900368,-6.56770423951517,-4.256369504593283,-8.421980034497382,-12.439849398113534,0.7514874754506623,-9.494185037295749,-14.43489089101569,54.27135081870024,6.975664446953837,2.9390217556472047,0.041232565530525456,0.13361836078574352,0.02543639242632778,-2.4992540406476667
-35.08548357615987,-43.25993958553914,9.5240755559201,3.582006125793118,1.2280259662448731,27.140095920923663,9.81918682331024,-2.400507903851479,20.263169576773066,2.8772169352951034,2.384364805041349,-12.22576130900368,-6.56770423951517,-4.256369504593283,-8.421980034497382,-12.439849398113534,0.7514874754506623,-9.494185037295749,-14.43489089101569,54.27135081870024,6.975664446953837,2.9390217556472047,0.041232565530525456,0.13361836078574352,0.02543639242632778,-2.4992540406476667
-30.900548332877527,-43.25993958553914,9.5240755559201,3.582006125793118,1.2280259662448731,27.140095920923663,9.81918682331024,0.9474402907743924,22.941528132473763,2.8772169352951034,2.384364805041349,-12.22576130900368,-6.56770423951517,-4.256369504593283,-8.421980034497382,-12.439849398113534,0.7514874754506623,-9.494185037295749,-14.43489089101569,54.27135081870024,6.975664446953837,5.081708600207763,0.041232565530525456,0.13361836078574352,0.02543639242632778,-2.4992540406476667
-31.964898526307447,-43.25993958553914,9.5240755559201,3.582006125793118,1.2280259662448731,27.140095920923663,8.967706668566304,0.9474402907743924,22.941528132473763,2.196032811499954,1.839417506005229,-12.22576130900368,-6.56770423951517,-4.256369504593283,-8.421980034497382,-12.439849398113534,0.7514874754506623,-9.494185037295749,-14.43489089101569,54.27135081870024,6.975664446953837,4.645750760978868,0.041232565530525456,0.13361836078574352,0.02543639242632778,-2.4992540406476667
-32.075615474968345,-43.25993958553914,9.5240755559201,3.582006125793118,1.2280259662448731,27.140095920923663,8.967706668566304,0.9474402907743924,22.941528132473763,2.196032811499954,1.839417506005229,-12.22576130900368,-6.56770423951517,-4.256369504593283,-8.421980034497382,-12.439849398113534,0.7514874754506623,-9.494185037295749,-14.43489089101569,54.27135081870024,6.975664446953837,4.645750760978868,0.041232565530525456,0.13361836078574352,0.02543639242632778,-2.587827599576386
-27.1179048726233,-29.198475816897098,9.5240755559201,3.582006125793118,1.2280259662448731,27.140095920923663,8.967706668566304,-9.147854995991615,22.941528132473763,2.196032811499954,1.839417506005229,-12.22576130900368,-6.56770423951517,-4.256369504593283,-16.498216263910187,-12.439849398113534,0.7514874754506623,-9.494185037295749,-14.43489089101569,65.52052183361388,6.975664446953837,-1.8152382225513746,0.041232565530525456,0.13361836078574352,0.02543639242632778,-2.587827599576386
-39.85063434602515,-39.384659395618584,9.5240755559201,3.582006125793118,1.2280259662448731,27.140095920923663,8.967706668566304,-9.147854995991615,22.941528132473763,2.196032811499954,1.839417506005229,-12.22576130900368,-6.56770423951517,-4.256369504593283,-16.498216263910187,-12.439849398113534,0.7514874754506623,-9.494185037295749,-14.43489089101569,65.52052183361388,6.975664446953837,-1.8152382225513746,0.041232565530525456,0.13361836078574352,0.02543639242632778,-2.587827599576386
-38.798779678722596,-39.384659395618584,9.5240755559201,3.582006125793118,1.2280259662448731,27.98157965476571,8.967706668566304,-9.147854995991615,22.941528132473763,2.196032811499954,1.839417506005229,-12.22576130900368,-6.56770423951517,-4.256369504593283,-16.498216263910187,-12.439849398113534,0.7514874754506623,-9.494185037295749,-14.43489089101569,65.52052183361388,6.975664446953837,-1.8152382225513746,0.041232565530525456,0.13361836078574352,0.02543639242632778,-2.587827599576386
-61.013308536547775,-57.15628248187873,9.5240755559201,3.582006125793118,1.2280259662448731,27.98157965476571,8.967706668566304,-9.147854995991615,22.941528132473763,2.196032811499954,1.839417506005229,-12.22576130900368,-6.56770423951517,-4.256369504593283,-16.498216263910187,-12.439849398113534,-13.46581099355745,-9.494185037295749,-14.43489089101569,65.52052183361388,6.975664446953837,-1.8152382225513746,0.041232565530525456,0.13361836078574352,0.02543639242632778,-2.587827599576386
-55.87362992247647,-57.15628248187873,9.5240755559201,3.582006125793118,1.2280259662448731,27.98157965476571,8.967706668566304,-5.036112104734573,26.230922445479397,2.196032811499954,1.839417506005229,-12.22576130900368,-6.56770423951517,-4.256369504593283,-16.498216263910187,-12.439849398113534,-13.46581099355745,-9.494185037295749,-14.43489089101569,65.52052183361388,6.975664446953837,-1.8152382225513746,0.041232565530525456,0.13361836078574352,0.02543639242632778,-2.587827599576386
-43.70212053155044,-57.15628248187873,9.5240755559201,3.582006125793118,1.2280259662448731,27.98157965476571,8.967706668566304,4.701095408006245,34.02068845567205,8.427845619654079,1.839417506005229,-12.22576130900368,-6.56770423951517,-4.256369504593283,-16.498216263910187,-12.439849398113534,-13.46581099355745,-9.494185037295749,-14.43489089101569,65.52052183361388,6.975664446953837,-1.8152382225513746,0.041232565530525456,0.13361836078574352,0.02543639242632778,-2.587827599576386
-40.48401475919716,-57.15628248187873,9.5240755559201,6.156490743675747,1.2280259662448731,27.98157965476571,11.027294362872407,4.701095408006245,34.02068845567205,8.427845619654079,1.839417506005229,-12.22576130900368,-6.56770423951517,-4.256369504593283,-16.498216263910187,-12.439849398113534,-13.46581099355745,-9.494185037295749,-14.43489089101569,65.52052183361388,6.975664446953837,-0.16756806710649208,0.041232565530525456,0.13361836078574352,0.02543639242632778,-2.587827599576386
-40.87005628718767,-57.15628248187873,9.5240755559201,5.847657521283336,1.2280259662448731,27.98157965476571,11.027294362872407,4.454028830092317,34.02068845567205,8.427845619654079,1.839417506005229,-12.22576130900368,-6.56770423951517,-4.256369504593283,-16.498216263910187,-12.439849398113534,-13.46581099355745,-9.494185037295749,-14.43489089101569,65.52052183361388,6.975664446953837,-0.16756806710649208,0.041232565530525456,0.13361836078574352,0.02543639242632778,-2.587827599576386
-36.83352127598825,-57.15628248187873,9.5240755559201,5.847657521283336,4.457253975204411,27.98157965476571,13.610676770040039,4.454028830092317,34.02068845567205,8.427845619654079,1.839417506005229,-12.22576130900368,-6.56770423951517,-4.256369504593283,-16.498216263910187,-12.439849398113534,-13.46581099355745,-9.494185037295749,-14.43489089101569,65.52052183361388,6.975664446953837,1.8991378586276135,0.041232565530525456,0.13361836078574352,0.02543639242632778,-2.587827599576386
-38.256224651759005,-57.15628248187873,10.662238256536707,4.9371273607900505,4.457253975204411,27.98157965476571,13.610676770040039,3.725604701697688,34.02068845567205,8.427845619654079,1.839417506005229,-12.22576130900368,-6.56770423951517,-4.256369504593283,-16.498216263910187,-12.439849398113534,-13.46581099355745,-9.494185037295749,-14.43489089101569,65.52052183361388,6.975664446953837,1.8991378586276135,0.041232565530525456,0.13361836078574352,0.02543639242632778,-2.587827599576386
-36.9512466088029,-57.15628248187873,10.662238256536707,5.981109795154938,4.457253975204411,27.98157965476571,13.610676770040039,4.560790649189599,34.02068845567205,8.427845619654079,1.839417506005229,-12.22576130900368,-6.56770423951517,-4.256369504593283,-16.498216263910187,-12.439849398113534,-13.46581099355745,-9.494185037295749,-14.43489089101569,65.52052183361388,6.975664446953837,2.5672866166211414,0.041232565530525456,0.13361836078574352,0.02543639242632778,-2.587827599576386
-36.11146870053992,-57.15628248187873,10.662238256536707,5.981109795154938,5.129076301814791,27.98157965476571,14.148134631328341,4.560790649189599,34.02068845567205,8.427845619654079,1.839417506005229,-12.22576130900368,-6.56770423951517,-4.256369504593283,-16.498216263910187,-12.439849398113534,-13.46581099355745,-9.494185037295749,-14.43489089101569,65.52052183361388,6.975664446953837,2.5672866166211414,0.041232565530525456,0.13361836078574352,0.02543639242632778,-2.587827599576386
-44.02597327119581,-63.48788613840344,10.662238256536707,5.981109795154938,5.129076301814791,27.98157965476571,14.148134631328341,4.560790649189599,34.02068845567205,8.427845619654079,1.839417506005229,-12.22576130900368,-6.56770423951517,-4.256369504593283,-16.498216263910187,-12.439849398113534,-13.46581099355745,-9.494185037295749,-14.43489089101569,65.52052183361388,6.975664446953837,2.5672866166211414,0.041232565530525456,0.13361836078574352,0.02543639242632778,-2.587827599576386
-41.87766897786692,-63.48788613840344,10.662238256536707,5.981109795154938,6.847719736477902,27.98157965476571,15.52304937905883,4.560790649189599,34.02068845567205,8.427845619654079,1.839417506005229,-12.22576130900368,-6.56770423951517,-4.256369504593283,-16.498216263910187,-12.439849398113534,-13.46581099355745,-9.494185037295749,-14.43489089101569,65.52052183361388,6.975664446953837,3.6672184148055322,0.041232565530525456,0.13361836078574352,0.02543639242632778,-2.587827599576386
-47.305854032771066,-67.83043418232675,10.662238256536707,5.981109795154938,6.847719736477902,27.98157965476571,15.52304937905883,4.560790649189599,34.02068845567205,8.427845619654079,1.839417506005229,-12.22576130900368,-6.56770423951517,-4.256369504593283,-16.498216263910187,-12.439849398113534,-13.46581099355745,-9.494185037295749,-14.43489089101569,65.52052183361388,6.975664446953837,3.6672184148055322,0.041232565530525456,0.13361836078574352,0.02543639242632778,-2.587827599576386
-51.756965777792466,-71.39132357834387,10.662238256536707,5.981109795154938,6.847719736477902,27.98157965476571,15.52304937905883,4.560790649189599,34.02068845567205,8.427845619654079,1.839417506005229,-12.22576130900368,-6.56770423951517,-4.256369504593283,-16.498216263910187,-12.439849398113534,-13.46581099355745,-9.494185037295749,-14.43489089101569,65.52052183361388,6.975664446953837,3.6672184148055322,0.041232565530525456,0.13361836078574352,0.02543639242632778,-2.587827599576386
-45.09687639118677,-71.39132357834387,10.662238256536707,5.981109795154938,6.847719736477902,33.309651164050265,15.52304937905883,4.560790649189599,34.02068845567205,8.427845619654079,1.839417506005229,-12.22576130900368,-6.56770423951517,-4.256369504593283,-16.498216263910187,-12.439849398113534,-13.46581099355745,-9.494185037295749,-14.43489089101569,65.52052183361388,6.975664446953837,3.6672184148055322,0.041232565530525456,0.13361836078574352,0.02543639242632778,-2.587827599576386
-40.28619064136336,-71.39132357834387,10.662238256536707,9.829658395013661,6.847719736477902,33.309651164050265,15.52304937905883,7.6396295290765766,36.483759559581635,8.427845619654079,1.839417506005229,-12.22576130900368,-6.56770423951517,-4.256369504593283,-16.498216263910187,-12.439849398113534,-13.46581099355745,-9.494185037295749,-14.43489089101569,65.52052183361388,6.975664446953837,3.6672184148055322,0.041232565530525456,0.13361836078574352,0.02543639242632778,-2.587827599576386
-39.49065356580638,-70.75489391789829,10.662238256536707,9.829658395013661,6.847719736477902,33.309651164050265,15.52304937905883,7.6396295290765766,36.483759559581635,8.427845619654079,1.839417506005229,-12.22576130900368,-6.56770423951517,-4.256369504593283,-16.498216263910187,-12.439849398113534,-13.46581099355745,-9.494185037295749,-14.43489089101569,65.52052183361388,6.975664446953837,3.6672184148055322,0.041232565530525456,0.13361836078574352,0.02543639242632778,-2.587827599576386
-34.813971242918306,-70.75489391789829,10.662238256536707,13.571004253324121,6.847719736477902,33.309651164050265,15.52304937905883,10.632706215724944,38.87822090890033,8.427845619654079,1.839417506005229,-12.22576130900368,-6.56770423951517,-4.256369504593283,-16.498216263910187,-12.439849398113534,-13.46581099355745,-9.494185037295749,-14.43489089101569,65.52052183361388,6.975664446953837,3.6672184148055322,0.041232565530525456,0.13361836078574352,0.02543639242632778,-2.587827599576386
-20.275478130968366,-70.75489391789829,10.662238256536707,25.201798742884073,6.847719736477902,33.309651164050265,15.52304937905883,10.632706215724944,48.18285650054829,15.871554092972445,1.839417506005229,-12.22576130900368,-6.56770423951517,-4.256369504593283,-16.498216263910187,-12.439849398113534,-13.46581099355745,-9.494185037295749,-14.43489089101569,65.52052183361388,6.975664446953837,3.6672184148055322,0.041232565530525456,6.088585139440437,0.02543639242632778,-2.587827599576386
-18.076708034447172,-70.75489391789829,10.662238256536707,26.960814820101028,6.847719736477902,33.309651164050265,16.930262240832395,10.632706215724944,48.18285650054829,15.871554092972445,1.839417506005229,-12.22576130900368,-6.56770423951517,-4.256369504593283,-16.498216263910187,-12.439849398113534,-13.46581099355745,-9.494185037295749,-14.43489089101569,65.52052183361388,6.975664446953837,3.6672184148055322,1.1670028549493767,6.088585139440437,0.02543639242632778,-2.587827599576386
-21.56845788064952,-73.54829379486017,10.662238256536707,26.960814820101028,6.847719736477902,33.309651164050265,16.930262240832395,10.632706215724944,48.18285650054829,15.871554092972445,1.839417506005229,-12.22576130900368,-6.56770423951517,-4.256369504593283,-16.498216263910187,-12.439849398113534,-13.46581099355745,-9.494185037295749,-14.43489089101569,65.52052183361388,6.975664446953837,3.6672184148055322,1.1670028549493767,6.088585139440437,0.02543639242632778,-2.587827599576386
