14.454557237186533,11.337719673166074,0.06420746023184143,0.7848867975945334,0.4952359561390899,0.30431727119453233,0.8100284790202817,0.9338641489162224,0.626315696873361,0.695479689636361,0.33755837827536617,0.4694845514064482,0.12791199927150287,0.08491203861847252,0.1986550900541345,0.26787705138296036,0.4448822189480046,0.26897498900204575,0.844118221770957,9.675148152191499,0.6280536202974287,0.5554246557950513,0.8820453145911927,0.4459270734808092,0.9817495225825349,0.6466900982148887
-10.061288301020523,-8.274956757399568,0.06420746023184143,0.7848867975945334,0.4952359561390899,0.30431727119453233,0.8100284790202817,0.9338641489162224,0.626315696873361,0.695479689636361,0.33755837827536617,0.4694845514064482,0.12791199927150287,0.08491203861847252,0.1986550900541345,0.26787705138296036,0.4448822189480046,0.26897498900204575,0.844118221770957,9.675148152191499,0.6280536202974287,0.5554246557950513,0.8820453145911927,0.4459270734808092,0.9817495225825349,0.6466900982148887
-11.978763379935328,-8.274956757399568,0.06420746023184143,0.7848867975945334,0.4952359561390899,0.30431727119453233,0.8100284790202817,-0.6001159142156217,0.626315696873361,0.695479689636361,0.33755837827536617,0.4694845514064482,0.12791199927150287,0.08491203861847252,0.1986550900541345,0.26787705138296036,0.4448822189480046,0.26897498900204575,0.844118221770957,9.675148152191499,0.6280536202974287,0.5554246557950513,0.8820453145911927,0.4459270734808092,0.9817495225825349,0.6466900982148887
-10.384789590461999,-8.274956757399568,0.06420746023184143,0.7848867975945334,0.4952359561390899,0.30431727119453233,2.085207510598946,-0.6001159142156217,0.626315696873361,0.695479689636361,0.33755837827536617,0.4694845514064482,0.12791199927150287,0.08491203861847252,0.1986550900541345,0.26787705138296036,0.4448822189480046,0.26897498900204575,0.844118221770957,9.675148152191499,0.6280536202974287,0.5554246557950513,0.8820453145911927,0.4459270734808092,0.9817495225825349,0.6466900982148887
-10.990027600617056,-8.274956757399568,0.06420746023184143,0.7848867975945334,0.4952359561390899,0.30431727119453233,2.085207510598946,-0.6001159142156217,0.626315696873361,0.695479689636361,0.33755837827536617,0.4694845514064482,0.12791199927150287,0.08491203861847252,0.1986550900541345,0.26787705138296036,0.4448822189480046,0.26897498900204575,0.844118221770957,9.675148152191499,0.6280536202974287,0.5554246557950513,0.8820453145911927,0.4459270734808092,0.9817495225825349,0.1624996900908422
-7.498167785570093,-8.274956757399568,0.06420746023184143,0.7848867975945334,0.4952359561390899,3.0978051232321038,2.085207510598946,-0.6001159142156217,0.626315696873361,0.695479689636361,0.33755837827536617,0.4694845514064482,0.12791199927150287,0.08491203861847252,0.1986550900541345,0.26787705138296036,0.4448822189480046,0.26897498900204575,0.844118221770957,9.675148152191499,0.6280536202974287,0.5554246557950513,0.8820453145911927,0.4459270734808092,0.9817495225825349,0.1624996900908422
-23.36297362066686,-8.274956757399568,0.06420746023184143,0.7848867975945334,0.4952359561390899,3.0978051232321038,2.085207510598946,-0.6001159142156217,0.626315696873361,0.695479689636361,0.33755837827536617,-12.222360116670966,0.12791199927150287,0.08491203861847252,0.1986550900541345,0.26787705138296036,0.4448822189480046,-9.884500745459885,0.844118221770957,9.675148152191499,0.6280536202974287,0.5554246557950513,0.8820453145911927,0.4459270734808092,0.9817495225825349,0.1624996900908422
-19.783248733327248,-8.274956757399568,0.06420746023184143,0.7848867975945334,3.359015866010778,3.0978051232321038,2.085207510598946,1.690908013681729,2.4591348391912424,0.695479689636361,0.33755837827536617,-12.222360116670966,0.12791199927150287,0.08491203861847252,0.1986550900541345,0.26787705138296036,0.4448822189480046,-9.884500745459885,0.844118221770957,9.675148152191499,0.6280536202974287,0.5554246557950513,0.8820453145911927,0.4459270734808092,0.9817495225825349,0.1624996900908422
-31.678334043403552,-8.274956757399568,0.06420746023184143,-8.731181450466512,3.359015866010778,3.0978051232321038,-5.52764708784989,1.690908013681729,2.4591348391912424,0.695479689636361,0.33755837827536617,-12.222360116670966,0.12791199927150287,0.08491203861847252,0.1986550900541345,-5.8224066273761075,0.4448822189480046,-9.884500745459885,-4.028108721236298,9.675148152191499,0.6280536202974287,-3.3423568986107517,0.8820453145911927,0.4459270734808092,0.9817495225825349,0.1624996900908422
-28.945598964822366,-8.274956757399568,0.06420746023184143,-6.544993387601564,3.359015866010778,3.0978051232321038,-5.52764708784989,3.439858463973688,2.4591348391912424,2.0946400498699282,1.4568866664622202,-12.222360116670966,0.12791199927150287,0.08491203861847252,0.1986550900541345,-5.8224066273761075,0.4448822189480046,-9.884500745459885,-4.028108721236298,9.675148152191499,0.6280536202974287,-2.446894268061269,0.8820453145911927,0.4459270734808092,0.9817495225825349,0.1624996900908422
-29.169936979327737,-8.274956757399568,0.06420746023184143,-6.544993387601564,3.359015866010778,3.0978051232321038,-5.52764708784989,3.439858463973688,2.4591348391912424,2.0946400498699282,1.4568866664622202,-12.222360116670966,0.12791199927150287,0.08491203861847252,0.1986550900541345,-5.8224066273761075,0.4448822189480046,-9.884500745459885,-4.028108721236298,9.675148152191499,0.6280536202974287,-2.446894268061269,0.8820453145911927,0.4459270734808092,0.9817495225825349,-0.01697072151345358
-28.825539173256715,-8.274956757399568,0.06420746023184143,-6.544993387601564,3.359015866010778,3.0978051232321038,-5.52764708784989,3.439858463973688,2.4591348391912424,2.0946400498699282,1.4568866664622202,-12.222360116670966,0.12791199927150287,0.08491203861847252,0.1986550900541345,-5.8224066273761075,0.4448822189480046,-9.884500745459885,-4.028108721236298,9.675148152191499,0.6280536202974287,-2.446894268061269,0.8820453145911927,0.4459270734808092,0.9817495225825349,0.2585475233433656
-26.225310397887622,-8.274956757399568,0.06420746023184143,-6.544993387601564,3.359015866010778,5.177988143527377,-5.52764708784989,3.439858463973688,2.4591348391912424,2.0946400498699282,1.4568866664622202,-12.222360116670966,0.12791199927150287,0.08491203861847252,0.1986550900541345,-5.8224066273761075,0.4448822189480046,-9.884500745459885,-4.028108721236298,9.675148152191499,0.6280536202974287,-2.446894268061269,0.8820453145911927,0.4459270734808092,0.9817495225825349,0.2585475233433656
-19.861911093903323,-8.274956757399568,0.06420746023184143,-1.4542739444141253,3.359015866010778,5.177988143527377,-5.52764708784989,7.5124340185236385,5.717195282831204,2.0946400498699282,1.4568866664622202,-12.222360116670966,0.12791199927150287,0.08491203861847252,0.1986550900541345,-5.8224066273761075,0.4448822189480046,-9.884500745459885,-4.028108721236298,9.675148152191499,0.6280536202974287,0.1595540868506995,0.8820453145911927,0.4459270734808092,0.9817495225825349,0.2585475233433656
-4.898437624590002,-8.274956757399568,0.06420746023184143,10.516504831036531,3.359015866010778,5.177988143527377,-5.52764708784989,17.089057038884164,13.378493699119623,8.223678782900663,1.4568866664622202,-12.222360116670966,0.12791199927150287,0.08491203861847252,0.1986550900541345,-5.8224066273761075,0.4448822189480046,-9.884500745459885,-4.028108721236298,9.675148152191499,0.6280536202974287,5.062785073275288,0.8820453145911927,0.4459270734808092,0.9817495225825349,0.2585475233433656
-12.738372364261958,-8.274956757399568,0.06420746023184143,10.516504831036531,-2.9129319257267854,5.177988143527377,-5.52764708784989,12.071498805494112,13.378493699119623,8.223678782900663,1.4568866664622202,-12.222360116670966,0.12791199927150287,-3.9291345480935678,0.1986550900541345,-5.8224066273761075,0.4448822189480046,-9.884500745459885,-4.028108721236298,9.675148152191499,0.6280536202974287,5.062785073275288,0.8820453145911927,0.4459270734808092,0.9817495225825349,0.2585475233433656
-5.044634575152268,-8.274956757399568,0.06420746023184143,16.671495062324283,-2.9129319257267854,5.177988143527377,-5.52764708784989,16.995490990524313,17.317687447143783,11.375033781319992,1.4568866664622202,-12.222360116670966,0.12791199927150287,-3.9291345480935678,0.1986550900541345,-5.8224066273761075,0.4448822189480046,-9.884500745459885,-4.028108721236298,9.675148152191499,0.6280536202974287,7.583869072010751,0.8820453145911927,0.4459270734808092,0.9817495225825349,0.2585475233433656
5.605451371458684,-8.274956757399568,0.06420746023184143,25.191563819613044,-2.9129319257267854,5.177988143527377,1.288407917981118,16.995490990524313,17.317687447143783,11.375033781319992,1.4568866664622202,-12.222360116670966,0.12791199927150287,-3.9291345480935678,0.1986550900541345,-5.8224066273761075,0.4448822189480046,-9.884500745459885,-4.028108721236298,9.675148152191499,0.6280536202974287,13.036713076675559,0.8820453145911927,4.808202277212654,0.9817495225825349,0.2585475233433656
5.665849569573412,-8.274956757399568,0.06420746023184143,25.239882378104827,-2.9129319257267854,5.177988143527377,1.288407917981118,17.03414583731774,17.317687447143783,11.375033781319992,1.4568866664622202,-12.222360116670966,0.12791199927150287,-3.9291345480935678,0.1986550900541345,-5.8224066273761075,0.4448822189480046,-9.884500745459885,-4.028108721236298,9.675148152191499,0.6280536202974287,13.067636954110299,0.9067844165389843,4.808202277212654,0.9817495225825349,0.2585475233433656
5.859226665613346,-8.274956757399568,0.06420746023184143,25.394584054936775,-2.9129319257267854,5.177988143527377,1.288407917981118,17.1579071787833,17.317687447143783,11.375033781319992,1.4568866664622202,-12.222360116670966,0.12791199927150287,-3.9291345480935678,0.1986550900541345,-5.8224066273761075,0.4448822189480046,-9.884500745459885,-4.028108721236298,9.675148152191499,0.6280536202974287,13.067636954110299,0.9067844165389843,4.808202277212654,0.9817495225825349,0.2585475233433656
4.029639568544472,-8.274956757399568,0.06420746023184143,23.930914377281677,-2.9129319257267854,5.177988143527377,1.288407917981118,15.986971436659221,17.317687447143783,11.375033781319992,1.4568866664622202,-12.222360116670966,0.12791199927150287,-3.9291345480935678,0.1986550900541345,-5.8224066273761075,0.4448822189480046,-9.884500745459885,-4.028108721236298,9.675148152191499,0.6280536202974287,12.130888360411037,0.9067844165389843,4.808202277212654,0.9817495225825349,0.2585475233433656
0.2958928449861631,-8.274956757399568,0.06420746023184143,20.94391699843503,-2.9129319257267854,5.177988143527377,1.288407917981118,13.597373533581901,17.317687447143783,11.375033781319992,1.4568866664622202,-12.222360116670966,0.12791199927150287,-3.9291345480935678,0.1986550900541345,-5.8224066273761075,0.4448822189480046,-9.884500745459885,-4.028108721236298,9.675148152191499,0.6280536202974287,10.219210037949182,0.9067844165389843,4.808202277212654,0.9817495225825349,0.2585475233433656
4.500206612129844,-8.274956757399568,0.06420746023184143,24.307368012149972,-2.9129319257267854,5.177988143527377,1.288407917981118,13.597373533581901,17.317687447143783,11.375033781319992,1.4568866664622202,-12.222360116670966,0.12791199927150287,-3.9291345480935678,0.1986550900541345,-5.8224066273761075,0.4448822189480046,-9.884500745459885,-4.028108721236298,9.675148152191499,0.6280536202974287,12.909970848921137,0.9067844165389843,6.960810925990217,0.9817495225825349,0.2585475233433656
13.074344471806546,-8.274956757399568,0.06420746023184143,31.166678299891334,-2.9129319257267854,5.177988143527377,6.775856148174208,13.597373533581901,17.317687447143783,11.375033781319992,1.4568866664622202,-12.222360116670966,0.12791199927150287,-3.9291345480935678,0.1986550900541345,-5.8224066273761075,0.4448822189480046,-9.884500745459885,-4.028108721236298,9.675148152191499,0.6280536202974287,17.29992943307561,4.418751283862561,6.960810925990217,0.9817495225825349,0.2585475233433656
10.971577957039436,-8.274956757399568,0.06420746023184143,29.48446508807765,-2.9129319257267854,5.177988143527377,6.775856148174208,12.251602964130953,17.317687447143783,11.375033781319992,1.4568866664622202,-12.222360116670966,0.12791199927150287,-3.9291345480935678,0.1986550900541345,-5.8224066273761075,0.4448822189480046,-9.884500745459885,-4.028108721236298,9.675148152191499,0.6280536202974287,16.22331297751485,4.418751283862561,6.960810925990217,0.9817495225825349,0.2585475233433656
0.24123097886670664,-8.274956757399568,0.06420746023184143,20.900187505539463,-2.9129319257267854,5.177988143527377,6.775856148174208,5.384180898100406,17.317687447143783,11.375033781319992,1.4568866664622202,-12.222360116670966,0.12791199927150287,-3.9291345480935678,0.1986550900541345,-5.8224066273761075,0.4448822189480046,-9.884500745459885,-4.028108721236298,9.675148152191499,0.6280536202974287,10.729375324690414,4.418751283862561,6.960810925990217,0.9817495225825349,0.2585475233433656
5.962817286097029,-8.274956757399568,0.06420746023184143,20.900187505539463,-2.9129319257267854,9.755257189311635,6.775856148174208,5.384180898100406,17.317687447143783,11.375033781319992,1.4568866664622202,-12.222360116670966,0.12791199927150287,-3.9291345480935678,0.1986550900541345,-5.8224066273761075,0.4448822189480046,-9.884500745459885,-4.028108721236298,9.675148152191499,0.6280536202974287,10.729375324690414,4.418751283862561,6.960810925990217,0.9817495225825349,0.2585475233433656
9.900214334643358,-8.274956757399568,0.06420746023184143,20.900187505539463,0.23698571311027772,9.755257189311635,6.775856148174208,7.904115009170058,19.333634735999503,11.375033781319992,1.4568866664622202,-12.222360116670966,0.12791199927150287,-3.9291345480935678,0.1986550900541345,-5.8224066273761075,0.4448822189480046,-9.884500745459885,-4.028108721236298,9.675148152191499,0.6280536202974287,10.729375324690414,4.418751283862561,6.960810925990217,0.9817495225825349,0.2585475233433656
1.2279846237100145,-8.274956757399568,0.06420746023184143,13.96240373679279,0.23698571311027772,9.755257189311635,6.775856148174208,2.3538879941727178,19.333634735999503,11.375033781319992,1.4568866664622202,-12.222360116670966,0.12791199927150287,-3.9291345480935678,0.1986550900541345,-10.26258823937398,0.4448822189480046,-9.884500745459885,-4.028108721236298,9.675148152191499,0.6280536202974287,7.1772300350921165,4.418751283862561,6.960810925990217,0.9817495225825349,0.2585475233433656
5.880541131569866,-8.274956757399568,0.06420746023184143,13.96240373679279,3.95903091939816,9.755257189311635,9.753492313204513,2.3538879941727178,21.715743668023748,11.375033781319992,1.4568866664622202,-12.222360116670966,0.12791199927150287,-3.9291345480935678,0.1986550900541345,-10.26258823937398,0.4448822189480046,-9.884500745459885,-4.028108721236298,9.675148152191499,0.6280536202974287,7.1772300350921165,4.418751283862561,6.960810925990217,0.9817495225825349,0.2585475233433656
16.944634396275937,4.081790448471606,0.06420746023184143,13.96240373679279,0.4535583252918416,9.755257189311635,9.753492313204513,-0.45049008111233757,19.472241207795705,11.375033781319992,1.4568866664622202,-12.222360116670966,0.12791199927150287,-3.9291345480935678,0.1986550900541345,-10.26258823937398,0.4448822189480046,-9.884500745459885,-4.028108721236298,19.560545916888437,0.6280536202974287,7.1772300350921165,4.418751283862561,6.960810925990217,0.9817495225825349,0.2585475233433656
21.278605473291098,4.081790448471606,0.06420746023184143,13.96240373679279,0.4535583252918416,13.222434050923763,9.753492313204513,-0.45049008111233757,19.472241207795705,11.375033781319992,1.4568866664622202,-12.222360116670966,0.12791199927150287,-3.9291345480935678,0.1986550900541345,-10.26258823937398,0.4448822189480046,-9.884500745459885,-4.028108721236298,19.560545916888437,0.6280536202974287,7.1772300350921165,4.418751283862561,6.960810925990217,0.9817495225825349,0.2585475233433656
24.36924201080576,4.081790448471606,0.06420746023184143,13.96240373679279,0.4535583252918416,13.222434050923763,9.753492313204513,2.022019148899392,21.45024859180509,11.375033781319992,1.4568866664622202,-12.222360116670966,0.12791199927150287,-3.9291345480935678,0.1986550900541345,-10.26258823937398,0.4448822189480046,-9.884500745459885,-4.028108721236298,19.560545916888437,0.6280536202974287,7.1772300350921165,4.418751283862561,6.960810925990217,0.9817495225825349,0.2585475233433656
19.41034552495979,4.081790448471606,0.06420746023184143,13.96240373679279,0.4535583252918416,13.222434050923763,9.753492313204513,-1.9450980397773838,21.45024859180509,8.20134003037857,-1.0820683342909174,-12.222360116670966,0.12791199927150287,-3.9291345480935678,0.1986550900541345,-10.26258823937398,0.4448822189480046,-9.884500745459885,-4.028108721236298,19.560545916888437,0.6280536202974287,5.146066034489607,4.418751283862561,6.960810925990217,0.9817495225825349,0.2585475233433656
-5.05949719450884,-15.4940837271033,0.06420746023184143,13.96240373679279,0.4535583252918416,13.222434050923763,9.753492313204513,-1.9450980397773838,21.45024859180509,8.20134003037857,-1.0820683342909174,-12.222360116670966,0.12791199927150287,-3.9291345480935678,0.1986550900541345,-10.26258823937398,0.4448822189480046,-9.884500745459885,-4.028108721236298,19.560545916888437,0.6280536202974287,5.146066034489607,4.418751283862561,6.960810925990217,0.9817495225825349,0.2585475233433656
-8.274226233899888,-2.651446816174934,0.06420746023184143,13.96240373679279,0.4535583252918416,13.222434050923763,9.753492313204513,-17.359518182218586,21.45024859180509,8.20134003037857,-1.0820683342909174,-12.222360116670966,0.12791199927150287,-3.9291345480935678,-12.132881023898827,-10.26258823937398,0.4448822189480046,-9.884500745459885,-4.028108721236298,29.834655445631128,0.6280536202974287,-4.719162856672764,4.418751283862561,6.960810925990217,0.9817495225825349,0.2585475233433656
-6.816897045681073,-2.651446816174934,0.06420746023184143,13.96240373679279,0.4535583252918416,14.388297401498814,9.753492313204513,-17.359518182218586,21.45024859180509,8.20134003037857,-1.0820683342909174,-12.222360116670966,0.12791199927150287,-3.9291345480935678,-12.132881023898827,-10.26258823937398,0.4448822189480046,-9.884500745459885,-4.028108721236298,29.834655445631128,0.6280536202974287,-4.719162856672764,4.418751283862561,6.960810925990217,0.9817495225825349,0.2585475233433656
-1.486132507491038,-2.651446816174934,0.06420746023184143,13.96240373679279,0.4535583252918416,14.388297401498814,9.753492313204513,-13.094906551666558,24.86193789624671,8.20134003037857,-1.0820683342909174,-12.222360116670966,0.12791199927150287,-3.9291345480935678,-12.132881023898827,-10.26258823937398,0.4448822189480046,-9.884500745459885,-4.028108721236298,29.834655445631128,0.6280536202974287,-4.719162856672764,4.418751283862561,6.960810925990217,0.9817495225825349,0.2585475233433656
10.10554448404385,-2.651446816174934,0.06420746023184143,13.96240373679279,0.4535583252918416,14.388297401498814,9.753492313204513,-3.821564958438648,32.28061117082904,14.136278650044435,-1.0820683342909174,-12.222360116670966,0.12791199927150287,-3.9291345480935678,-12.132881023898827,-10.26258823937398,0.4448822189480046,-9.884500745459885,-4.028108721236298,29.834655445631128,0.6280536202974287,-4.719162856672764,4.418751283862561,6.960810925990217,0.9817495225825349,0.2585475233433656
9.399273685923877,-2.651446816174934,0.06420746023184143,13.96240373679279,0.4535583252918416,14.388297401498814,9.188475674708533,-3.821564958438648,32.28061117082904,14.136278650044435,-1.0820683342909174,-12.222360116670966,0.12791199927150287,-3.9291345480935678,-12.132881023898827,-10.26258823937398,0.4448822189480046,-9.884500745459885,-4.028108721236298,29.834655445631128,0.6280536202974287,-4.719162856672764,4.418751283862561,6.960810925990217,0.9817495225825349,0.2585475233433656
10.184929687640471,-2.651446816174934,0.06420746023184143,13.96240373679279,0.4535583252918416,14.388297401498814,9.188475674708533,-3.821564958438648,32.28061117082904,14.136278650044435,-1.0820683342909174,-12.222360116670966,0.12791199927150287,-3.9291345480935678,-12.132881023898827,-10.26258823937398,0.4448822189480046,-9.884500745459885,-4.028108721236298,29.834655445631128,0.6280536202974287,-4.719162856672764,4.418751283862561,6.960810925990217,0.9817495225825349,0.8870723247166419
10.070772318085975,-2.651446816174934,0.06420746023184143,13.871077841149194,0.4535583252918416,14.388297401498814,9.188475674708533,-3.8946256749535264,32.28061117082904,14.136278650044435,-1.0820683342909174,-12.222360116670966,0.12791199927150287,-3.9291345480935678,-12.132881023898827,-10.26258823937398,0.4448822189480046,-9.884500745459885,-4.028108721236298,29.834655445631128,0.6280536202974287,-4.719162856672764,4.418751283862561,6.960810925990217,0.9817495225825349,0.8870723247166419
11.79117227215705,-2.651446816174934,0.06420746023184143,15.247397804406054,0.4535583252918416,14.388297401498814,10.28953164531402,-3.8946256749535264,32.28061117082904,14.136278650044435,-1.0820683342909174,-12.222360116670966,0.12791199927150287,-3.9291345480935678,-12.132881023898827,-10.26258823937398,0.4448822189480046,-9.884500745459885,-4.028108721236298,29.834655445631128,0.6280536202974287,-3.8383180801883747,4.418751283862561,6.960810925990217,0.9817495225825349,0.8870723247166419
17.068807234224273,-2.651446816174934,0.06420746023184143,15.247397804406054,0.4535583252918416,18.61040537115259,10.28953164531402,-3.8946256749535264,32.28061117082904,14.136278650044435,-1.0820683342909174,-12.222360116670966,0.12791199927150287,-3.9291345480935678,-12.132881023898827,-10.26258823937398,0.4448822189480046,-9.884500745459885,-4.028108721236298,29.834655445631128,0.6280536202974287,-3.8383180801883747,4.418751283862561,6.960810925990217,0.9817495225825349,0.8870723247166419
18.55064021311644,-2.651446816174934,0.06420746023184143,15.247397804406054,1.639024708405576,18.61040537115259,10.28953164531402,-2.9462525684625387,33.03930965602183,14.136278650044435,-1.0820683342909174,-12.222360116670966,0.12791199927150287,-3.9291345480935678,-12.132881023898827,-10.26258823937398,0.4448822189480046,-9.884500745459885,-4.028108721236298,29.834655445631128,0.6280536202974287,-3.8383180801883747,4.418751283862561,6.960810925990217,0.9817495225825349,0.8870723247166419
19.944985772934817,-2.651446816174934,0.06420746023184143,15.247397804406054,2.7545011562602753,18.61040537115259,10.28953164531402,-2.05387141017878,33.75321458264884,14.136278650044435,-1.0820683342909174,-12.222360116670966,0.12791199927150287,-3.9291345480935678,-12.132881023898827,-10.26258823937398,0.4448822189480046,-9.884500745459885,-4.028108721236298,29.834655445631128,0.6280536202974287,-3.8383180801883747,4.418751283862561,6.960810925990217,0.9817495225825349,0.8870723247166419
23.801539327909513,-2.651446816174934,0.06420746023184143,15.247397804406054,5.839744000240032,18.61040537115259,10.28953164531402,0.41432286500502524,35.72777000279588,14.136278650044435,-1.0820683342909174,-12.222360116670966,0.12791199927150287,-3.9291345480935678,-12.132881023898827,-10.26258823937398,0.4448822189480046,-9.884500745459885,-4.028108721236298,29.834655445631128,0.6280536202974287,-3.8383180801883747,4.418751283862561,6.960810925990217,0.9817495225825349,0.8870723247166419
28.430659644118826,-2.651446816174934,0.06420746023184143,15.247397804406054,9.543040253207483,18.61040537115259,10.28953164531402,3.3769598673789836,38.097879604695045,16.032366331563768,-1.0820683342909174,-12.222360116670966,0.12791199927150287,-3.9291345480935678,-12.132881023898827,-10.26258823937398,0.4448822189480046,-9.884500745459885,-4.028108721236298,29.834655445631128,0.6280536202974287,-3.8383180801883747,4.418751283862561,6.960810925990217,0.9817495225825349,0.8870723247166419
16.767974408114604,8.059554277089218,0.06420746023184143,-4.793751477661472,9.543040253207483,18.61040537115259,-5.743387780339999,3.3769598673789836,38.097879604695045,16.032366331563768,-1.0820683342909174,-12.222360116670966,-12.698423541251714,-3.9291345480935678,-12.132881023898827,-10.26258823937398,0.4448822189480046,-9.884500745459885,-4.028108721236298,38.40345632024245,0.6280536202974287,-14.099386512606946,4.418751283862561,6.960810925990217,0.9817495225825349,0.8870723247166419
23.37600495069512,8.059554277089218,0.06420746023184143,-4.793751477661472,9.543040253207483,23.896829805217003,-5.743387780339999,3.3769598673789836,38.097879604695045,16.032366331563768,-1.0820683342909174,-12.222360116670966,-12.698423541251714,-3.9291345480935678,-12.132881023898827,-10.26258823937398,0.4448822189480046,-9.884500745459885,-4.028108721236298,38.40345632024245,0.6280536202974287,-14.099386512606946,4.418751283862561,6.960810925990217,0.9817495225825349,0.8870723247166419
19.13917715731994,8.059554277089218,0.06420746023184143,-4.793751477661472,9.543040253207483,23.896829805217003,-5.743387780339999,-0.012502367321162389,35.386309816934926,16.032366331563768,-1.0820683342909174,-12.222360116670966,-12.698423541251714,-3.9291345480935678,-12.132881023898827,-10.26258823937398,0.4448822189480046,-9.884500745459885,-4.028108721236298,38.40345632024245,0.6280536202974287,-14.099386512606946,4.418751283862561,6.960810925990217,0.9817495225825349,0.8870723247166419
-13.324235296943524,-17.91117568632155,0.06420746023184143,-4.793751477661472,9.543040253207483,23.896829805217003,-5.743387780339999,-0.012502367321162389,35.386309816934926,16.032366331563768,-1.0820683342909174,-12.222360116670966,-12.698423541251714,-3.9291345480935678,-12.132881023898827,-10.26258823937398,0.4448822189480046,-9.884500745459885,-24.804692691964913,38.40345632024245,0.6280536202974287,-14.099386512606946,4.418751283862561,6.960810925990217,0.9817495225825349,0.8870723247166419
-9.119582313420839,-17.91117568632155,0.06420746023184143,-4.793751477661472,9.543040253207483,23.896829805217003,-2.379665393521851,-0.012502367321162389,35.386309816934926,18.723344241018285,1.0707139932726972,-12.222360116670966,-12.698423541251714,-3.9291345480935678,-12.132881023898827,-10.26258823937398,0.4448822189480046,-9.884500745459885,-24.804692691964913,38.40345632024245,0.6280536202974287,-12.377160650556053,4.418751283862561,6.960810925990217,0.9817495225825349,0.8870723247166419
-9.754932113646754,-17.91117568632155,0.06420746023184143,-4.793751477661472,9.543040253207483,23.896829805217003,-2.379665393521851,-0.012502367321162389,35.386309816934926,18.723344241018285,1.0707139932726972,-12.222360116670966,-12.698423541251714,-3.9291345480935678,-12.132881023898827,-10.26258823937398,0.4448822189480046,-9.884500745459885,-24.804692691964913,38.40345632024245,0.6280536202974287,-12.377160650556053,4.418751283862561,6.960810925990217,0.9817495225825349,0.37879248453590875
-8.720095148821464,-17.91117568632155,0.06420746023184143,-4.793751477661472,9.543040253207483,23.896829805217003,-2.379665393521851,-0.012502367321162389,35.386309816934926,18.723344241018285,1.0707139932726972,-12.222360116670966,-12.698423541251714,-3.9291345480935678,-12.132881023898827,-10.26258823937398,0.4448822189480046,-9.884500745459885,-24.804692691964913,38.40345632024245,0.6280536202974287,-12.377160650556053,4.418751283862561,6.960810925990217,0.9817495225825349,1.2066620563961417
-9.750371458083238,-17.91117568632155,0.06420746023184143,-4.793751477661472,8.718819205798063,23.896829805217003,-2.379665393521851,-0.6718792052486979,35.386309816934926,18.723344241018285,1.0707139932726972,-12.222360116670966,-12.698423541251714,-3.9291345480935678,-12.132881023898827,-10.26258823937398,0.4448822189480046,-9.884500745459885,-24.804692691964913,38.40345632024245,0.6280536202974287,-12.377160650556053,4.418751283862561,6.960810925990217,0.9817495225825349,1.2066620563961417
-5.749007745840518,-17.91117568632155,0.06420746023184143,-4.793751477661472,8.718819205798063,27.09792077501118,-2.379665393521851,-0.6718792052486979,35.386309816934926,18.723344241018285,1.0707139932726972,-12.222360116670966,-12.698423541251714,-3.9291345480935678,-12.132881023898827,-10.26258823937398,0.4448822189480046,-9.884500745459885,-24.804692691964913,38.40345632024245,0.6280536202974287,-12.377160650556053,4.418751283862561,6.960810925990217,0.9817495225825349,1.2066620563961417
-3.6603300907042917,-17.91117568632155,0.06420746023184143,-3.1228093535524906,8.718819205798063,27.09792077501118,-2.379665393521851,0.6648744940384863,36.45571277636467,18.723344241018285,1.0707139932726972,-12.222360116670966,-12.698423541251714,-3.9291345480935678,-12.132881023898827,-10.26258823937398,0.4448822189480046,-9.884500745459885,-24.804692691964913,38.40345632024245,0.6280536202974287,-12.377160650556053,4.418751283862561,6.960810925990217,0.9817495225825349,1.2066620563961417
0.061238085549867094,-17.91117568632155,0.06420746023184143,-0.1455548125491637,8.718819205798063,27.09792077501118,-2.379665393521851,3.046678126841148,38.3611556826068,18.723344241018285,1.0707139932726972,-12.222360116670966,-12.698423541251714,-3.9291345480935678,-12.132881023898827,-10.26258823937398,0.4448822189480046,-9.884500745459885,-24.804692691964913,38.40345632024245,0.6280536202974287,-10.852806325562351,4.418751283862561,6.960810925990217,0.9817495225825349,1.2066620563961417
0.023444888346181608,-17.91117568632155,0.06420746023184143,-0.1757893703121125,8.718819205798063,27.09792077501118,-2.4038530397322098,3.046678126841148,38.3611556826068,18.70399412405,1.0552338996980677,-12.222360116670966,-12.698423541251714,-3.9291345480935678,-12.132881023898827,-10.26258823937398,0.4448822189480046,-9.884500745459885,-24.804692691964913,38.40345632024245,0.6280536202974287,-10.852806325562351,4.418751283862561,6.960810925990217,0.9817495225825349,1.2066620563961417
-0.8011572505486647,-17.91117568632155,0.06420746023184143,-0.1757893703121125,8.718819205798063,27.09792077501118,-2.4038530397322098,3.046678126841148,38.3611556826068,18.70399412405,1.0552338996980677,-12.222360116670966,-12.698423541251714,-3.9291345480935678,-12.132881023898827,-10.26258823937398,0.4448822189480046,-9.884500745459885,-24.804692691964913,38.40345632024245,0.6280536202974287,-10.852806325562351,4.418751283862561,6.960810925990217,0.9817495225825349,0.5469803452802644
0.4232593452813135,-17.91117568632155,0.06420746023184143,-0.1757893703121125,8.718819205798063,27.09792077501118,-2.4038530397322098,3.046678126841148,38.3611556826068,18.70399412405,1.0552338996980677,-12.222360116670966,-12.698423541251714,-3.9291345480935678,-12.132881023898827,-10.26258823937398,0.4448822189480046,-9.884500745459885,-24.804692691964913,38.40345632024245,0.6280536202974287,-10.852806325562351,4.418751283862561,6.960810925990217,0.9817495225825349,1.526513621944247
-0.6606795686501429,-17.91117568632155,0.06420746023184143,-0.1757893703121125,7.851668074652897,27.09792077501118,-2.4038530397322098,2.3529572219250157,38.3611556826068,18.70399412405,1.0552338996980677,-12.222360116670966,-12.698423541251714,-3.9291345480935678,-12.132881023898827,-10.26258823937398,0.4448822189480046,-9.884500745459885,-24.804692691964913,38.40345632024245,0.6280536202974287,-10.852806325562351,4.418751283862561,6.960810925990217,0.9817495225825349,1.526513621944247
4.429848103880171,-17.91117568632155,0.06420746023184143,-0.1757893703121125,7.851668074652897,31.17034291303543,-2.4038530397322098,2.3529572219250157,38.3611556826068,18.70399412405,1.0552338996980677,-12.222360116670966,-12.698423541251714,-3.9291345480935678,-12.132881023898827,-10.26258823937398,0.4448822189480046,-9.884500745459885,-24.804692691964913,38.40345632024245,0.6280536202974287,-10.852806325562351,4.418751283862561,6.960810925990217,0.9817495225825349,1.526513621944247
8.330484671118173,-17.91117568632155,0.06420746023184143,2.9447198834782884,7.851668074652897,31.17034291303543,-2.4038530397322098,4.849364624957337,40.35828160503266,18.70399412405,1.0552338996980677,-12.222360116670966,-12.698423541251714,-3.9291345480935678,-12.132881023898827,-10.26258823937398,0.4448822189480046,-9.884500745459885,-24.804692691964913,38.40345632024245,0.6280536202974287,-10.852806325562351,4.418751283862561,6.960810925990217,0.9817495225825349,1.526513621944247
13.36140824618834,-17.91117568632155,0.06420746023184143,6.969458743534423,7.851668074652897,31.17034291303543,-2.4038530397322098,8.069155713002242,42.93411447546858,18.70399412405,1.0552338996980677,-12.222360116670966,-12.698423541251714,-3.9291345480935678,-12.132881023898827,-10.26258823937398,0.4448822189480046,-9.884500745459885,-24.804692691964913,38.40345632024245,0.6280536202974287,-10.852806325562351,4.418751283862561,6.960810925990217,0.9817495225825349,1.526513621944247
24.113665997990978,-17.91117568632155,0.06420746023184143,15.571264944976537,7.851668074652897,31.17034291303543,4.477591921421483,8.069155713002242,48.43927044439154,23.10811889918836,1.0552338996980677,-12.222360116670966,-12.698423541251714,-3.9291345480935678,-12.132881023898827,-10.26258823937398,0.4448822189480046,-9.884500745459885,-24.804692691964913,38.40345632024245,0.6280536202974287,-7.329506505451663,4.418751283862561,9.779450782078767,0.9817495225825349,1.526513621944247
31.859048067505555,-17.91117568632155,0.06420746023184143,21.767570600588197,7.851668074652897,31.17034291303543,9.43463644591081,8.069155713002242,48.43927044439154,23.10811889918836,1.0552338996980677,-12.222360116670966,-12.698423541251714,-3.9291345480935678,-12.132881023898827,-10.26258823937398,0.4448822189480046,-9.884500745459885,-24.804692691964913,38.40345632024245,0.6280536202974287,-3.3638708858602016,7.591259779535732,9.779450782078767,0.9817495225825349,1.526513621944247
29.425132579883634,-17.91117568632155,0.06420746023184143,19.820438210490664,7.851668074652897,31.17034291303543,9.43463644591081,6.511449800924213,48.43927044439154,23.10811889918836,1.0552338996980677,-12.222360116670966,-12.698423541251714,-3.9291345480935678,-12.132881023898827,-10.26258823937398,0.4448822189480046,-9.884500745459885,-24.804692691964913,38.40345632024245,0.6280536202974287,-3.3638708858602016,7.591259779535732,9.779450782078767,0.9817495225825349,1.526513621944247
25.48178713970445,-17.91117568632155,0.06420746023184143,16.66576185834732,7.851668074652897,31.17034291303543,9.43463644591081,3.9877087192095377,48.43927044439154,23.10811889918836,1.0552338996980677,-12.222360116670966,-12.698423541251714,-3.9291345480935678,-12.132881023898827,-10.26258823937398,0.4448822189480046,-9.884500745459885,-24.804692691964913,38.40345632024245,0.6280536202974287,-3.3638708858602016,7.591259779535732,9.779450782078767,0.9817495225825349,1.526513621944247
25.232515196757856,-17.91117568632155,0.06420746023184143,16.66576185834732,7.65225052029562,31.17034291303543,9.275102402424988,3.9877087192095377,48.43927044439154,23.10811889918836,1.0552338996980677,-12.222360116670966,-12.698423541251714,-3.9291345480935678,-12.132881023898827,-10.26258823937398,0.4448822189480046,-9.884500745459885,-24.804692691964913,38.40345632024245,0.6280536202974287,-3.3638708858602016,7.591259779535732,9.779450782078767,0.9817495225825349,1.526513621944247
22.397007911813844,-17.91117568632155,0.06420746023184143,14.39735603039211,7.65225052029562,31.17034291303543,9.275102402424988,2.1729840568453715,48.43927044439154,23.10811889918836,1.0552338996980677,-12.222360116670966,-12.698423541251714,-3.9291345480935678,-12.132881023898827,-10.26258823937398,0.4448822189480046,-9.884500745459885,-24.804692691964913,38.40345632024245,0.6280536202974287,-3.3638708858602016,7.591259779535732,9.779450782078767,0.9817495225825349,1.526513621944247
22.446761003747056,-17.91117568632155,0.06420746023184143,14.43715850393868,7.65225052029562,31.17034291303543,9.275102402424988,2.1729840568453715,48.43927044439154,23.10811889918836,1.0552338996980677,-12.222360116670966,-12.698423541251714,-3.9291345480935678,-12.132881023898827,-10.26258823937398,0.4448822189480046,-9.884500745459885,-24.804692691964913,38.40345632024245,0.6280536202974287,-3.3638708858602016,7.591259779535732,9.779450782078767,0.9817495225825349,1.526513621944247
21.795494974777057,-17.91117568632155,0.06420746023184143,13.916145680762678,7.65225052029562,31.17034291303543,9.275102402424988,1.7561737983045693,48.43927044439154,23.10811889918836,1.0552338996980677,-12.222360116670966,-12.698423541251714,-3.9291345480935678,-12.132881023898827,-10.26258823937398,0.4448822189480046,-9.884500745459885,-24.804692691964913,38.40345632024245,0.6280536202974287,-3.6973190926928425,7.591259779535732,9.779450782078767,0.9817495225825349,1.526513621944247
21.021038016827106,-17.91117568632155,0.06420746023184143,13.916145680762678,7.032684953935658,31.17034291303543,8.779449949337018,1.7561737983045693,48.43927044439154,23.10811889918836,1.0552338996980677,-12.222360116670966,-12.698423541251714,-3.9291345480935678,-12.132881023898827,-10.26258823937398,0.4448822189480046,-9.884500745459885,-24.804692691964913,38.40345632024245,0.6280536202974287,-3.6973190926928425,7.591259779535732,9.779450782078767,0.9817495225825349,1.526513621944247
23.048852000182407,-17.91117568632155,0.06420746023184143,13.916145680762678,8.654936140619897,31.17034291303543,10.07725089868441,1.7561737983045693,48.43927044439154,23.10811889918836,1.0552338996980677,-12.222360116670966,-12.698423541251714,-3.9291345480935678,-12.132881023898827,-10.26258823937398,0.4448822189480046,-9.884500745459885,-24.804692691964913,38.40345632024245,0.6280536202974287,-3.6973190926928425,7.591259779535732,9.779450782078767,0.9817495225825349,1.526513621944247
30.428375127109547,-17.91117568632155,0.06420746023184143,13.916145680762678,8.654936140619897,37.07396141457714,10.07725089868441,1.7561737983045693,48.43927044439154,23.10811889918836,1.0552338996980677,-12.222360116670966,-12.698423541251714,-3.9291345480935678,-12.132881023898827,-10.26258823937398,0.4448822189480046,-9.884500745459885,-24.804692691964913,38.40345632024245,0.6280536202974287,-3.6973190926928425,7.591259779535732,9.779450782078767,0.9817495225825349,1.526513621944247
34.01152220795204,-17.91117568632155,0.06420746023184143,16.782663345436667,8.654936140619897,37.07396141457714,10.07725089868441,4.049387930043763,50.27384174978289,23.10811889918836,1.0552338996980677,-12.222360116670966,-12.698423541251714,-3.9291345480935678,-12.132881023898827,-10.26258823937398,0.4448822189480046,-9.884500745459885,-24.804692691964913,38.40345632024245,0.6280536202974287,-2.229662048379757,7.591259779535732,9.779450782078767,0.9817495225825349,1.526513621944247
40.784338718701356,-17.91117568632155,0.06420746023184143,22.200916554036116,8.654936140619897,37.07396141457714,10.07725089868441,8.383990496923323,53.74152380328654,23.10811889918836,1.0552338996980677,-12.222360116670966,-12.698423541251714,-3.9291345480935678,-12.132881023898827,-10.26258823937398,0.4448822189480046,-9.884500745459885,-24.804692691964913,38.40345632024245,0.6280536202974287,0.5444835944231614,7.591259779535732,9.779450782078767,0.9817495225825349,1.526513621944247
45.31802170340054,-17.91117568632155,0.06420746023184143,25.827862941795463,8.654936140619897,37.07396141457714,10.07725089868441,8.383990496923323,56.64308091349402,25.42936458735434,1.0552338996980677,-12.222360116670966,-12.698423541251714,-3.9291345480935678,-12.132881023898827,-10.26258823937398,0.4448822189480046,-9.884500745459885,-24.804692691964913,38.40345632024245,0.6280536202974287,2.4014801449559458,7.591259779535732,9.779450782078767,0.9817495225825349,1.526513621944247
49.55127912120749,-17.91117568632155,0.06420746023184143,29.214468876041025,8.654936140619897,37.07396141457714,12.78653564608086,8.383990496923323,56.64308091349402,25.42936458735434,1.0552338996980677,-12.222360116670966,-12.698423541251714,-3.9291345480935678,-12.132881023898827,-10.26258823937398,0.4448822189480046,-9.884500745459885,-24.804692691964913,38.40345632024245,0.6280536202974287,4.568907942873105,7.591259779535732,11.513393020412492,0.9817495225825349,1.526513621944247
47.090396471032,-17.91117568632155,0.06420746023184143,27.245762755900635,8.654936140619897,37.07396141457714,12.78653564608086,6.809025600811008,56.64308091349402,25.42936458735434,1.0552338996980677,-12.222360116670966,-12.698423541251714,-3.9291345480935678,-12.132881023898827,-10.26258823937398,0.4448822189480046,-9.884500745459885,-24.804692691964913,38.40345632024245,0.6280536202974287,3.308936025983252,6.583282246023849,11.513393020412492,0.9817495225825349,1.526513621944247
48.52397736795964,-17.91117568632155,0.06420746023184143,27.245762755900635,9.801800858162009,37.07396141457714,13.70402742011455,6.809025600811008,56.64308091349402,25.42936458735434,1.0552338996980677,-12.222360116670966,-12.698423541251714,-3.9291345480935678,-12.132881023898827,-10.26258823937398,0.4448822189480046,-9.884500745459885,-24.804692691964913,38.40345632024245,0.6280536202974287,4.042929445210203,6.583282246023849,11.513393020412492,0.9817495225825349,1.526513621944247
46.19154346456201,-17.91117568632155,0.06420746023184143,25.37981563318253,9.801800858162009,37.07396141457714,13.70402742011455,5.316267902636527,56.64308091349402,25.42936458735434,1.0552338996980677,-12.222360116670966,-12.698423541251714,-3.9291345480935678,-12.132881023898827,-10.26258823937398,0.4448822189480046,-9.884500745459885,-24.804692691964913,38.40345632024245,0.6280536202974287,2.8487232866706194,6.583282246023849,11.513393020412492,0.9817495225825349,1.526513621944247
46.691603976251315,-17.91117568632155,0.06420746023184143,25.779864042533973,9.801800858162009,37.07396141457714,13.70402742011455,5.63630663011768,56.64308091349402,25.42936458735434,1.0552338996980677,-12.222360116670966,-12.698423541251714,-3.9291345480935678,-12.132881023898827,-10.26258823937398,0.4448822189480046,-9.884500745459885,-24.804692691964913,38.40345632024245,0.6280536202974287,3.104754268655543,6.583282246023849,11.513393020412492,0.9817495225825349,1.526513621944247
52.17433333717973,-17.91117568632155,0.06420746023184143,30.16604753127671,9.801800858162009,37.07396141457714,17.212974211108737,5.63630663011768,56.64308091349402,25.42936458735434,1.0552338996980677,-12.222360116670966,-12.698423541251714,-3.9291345480935678,-12.132881023898827,-10.26258823937398,0.4448822189480046,-9.884500745459885,-24.804692691964913,38.40345632024245,0.6280536202974287,5.9119117014508955,8.829008192260131,11.513393020412492,0.9817495225825349,1.526513621944247
52.78017139784073,-17.91117568632155,0.06420746023184143,30.65071797980551,9.801800858162009,37.07396141457714,17.600710569931774,5.63630663011768,56.64308091349402,25.42936458735434,1.0552338996980677,-12.222360116670966,-12.698423541251714,-3.9291345480935678,-12.132881023898827,-10.26258823937398,0.4448822189480046,-9.884500745459885,-24.804692691964913,38.40345632024245,0.6280536202974287,6.222100788509326,9.077159461906875,11.513393020412492,0.9817495225825349,1.526513621944247
61.684446540630084,-17.91117568632155,0.06420746023184143,30.65071797980551,9.801800858162009,44.19738152880862,17.600710569931774,5.63630663011768,56.64308091349402,25.42936458735434,1.0552338996980677,-12.222360116670966,-12.698423541251714,-3.9291345480935678,-12.132881023898827,-10.26258823937398,0.4448822189480046,-9.884500745459885,-24.804692691964913,38.40345632024245,0.6280536202974287,6.222100788509326,9.077159461906875,11.513393020412492,0.9817495225825349,1.526513621944247
54.8293868907994,-17.91117568632155,0.06420746023184143,30.65071797980551,4.317753138297454,44.19738152880862,17.600710569931774,1.249068454226041,53.133290372780706,25.42936458735434,1.0552338996980677,-12.222360116670966,-12.698423541251714,-3.9291345480935678,-12.132881023898827,-10.26258823937398,-2.3629502136226446,-9.884500745459885,-24.804692691964913,38.40345632024245,0.6280536202974287,3.9758348424528065,9.077159461906875,11.513393020412492,0.9817495225825349,1.526513621944247
39.69456708605376,-17.91117568632155,0.06420746023184143,30.65071797980551,-7.790102705499067,44.19738152880862,7.91442589489456,1.249068454226041,45.38426263275093,25.42936458735434,1.0552338996980677,-12.222360116670966,-12.698423541251714,-3.9291345480935678,-12.132881023898827,-10.26258823937398,-8.56217240564646,-9.884500745459885,-24.804692691964913,38.40345632024245,0.6280536202974287,-0.983542911166245,9.077159461906875,11.513393020412492,0.9817495225825349,1.526513621944247
32.823590520371155,-17.91117568632155,0.06420746023184143,25.15393672725943,-7.790102705499067,44.19738152880862,7.91442589489456,-3.148356547810822,45.38426263275093,25.42936458735434,1.0552338996980677,-12.222360116670966,-12.698423541251714,-3.9291345480935678,-12.132881023898827,-13.780528241003468,-8.56217240564646,-9.884500745459885,-24.804692691964913,38.40345632024245,0.6280536202974287,-0.983542911166245,9.077159461906875,11.513393020412492,0.9817495225825349,1.526513621944247
23.522668917660074,-17.91117568632155,0.06420746023184143,25.15393672725943,-21.513303335398447,44.19738152880862,-3.0641346090249435,-3.148356547810822,36.60141422961533,25.42936458735434,1.0552338996980677,-5.93989676894045,-12.698423541251714,-3.9291345480935678,-12.132881023898827,-13.780528241003468,-15.588451128154944,-4.858530067275471,-24.804692691964913,38.40345632024245,0.6280536202974287,-0.983542911166245,9.077159461906875,11.513393020412492,0.9817495225825349,1.526513621944247
7.2681840760311935,-17.91117568632155,0.06420746023184143,25.15393672725943,-21.513303335398447,44.19738152880862,-3.0641346090249435,-3.148356547810822,36.60141422961533,25.42936458735434,1.0552338996980677,-18.943484642243554,-12.698423541251714,-3.9291345480935678,-12.132881023898827,-13.780528241003468,-15.588451128154944,-15.261400365917957,-24.804692691964913,38.40345632024245,0.6280536202974287,-0.983542911166245,9.077159461906875,11.513393020412492,0.9817495225825349,1.526513621944247
-0.6320993131082453,-17.91117568632155,0.06420746023184143,25.15393672725943,-21.513303335398447,44.19738152880862,-3.0641346090249435,-3.148356547810822,36.60141422961533,25.42936458735434,1.0552338996980677,-18.943484642243554,-12.698423541251714,-3.9291345480935678,-12.132881023898827,-20.10075495231502,-15.588451128154944,-15.261400365917957,-24.804692691964913,38.40345632024245,0.6280536202974287,-0.983542911166245,9.077159461906875,11.513393020412492,0.9817495225825349,-3.5296677471049946
-20.90715419513042,-17.91117568632155,0.06420746023184143,25.15393672725943,-21.513303335398447,44.19738152880862,-3.0641346090249435,-19.368400453428563,36.60141422961533,25.42936458735434,-11.920801224796124,-18.943484642243554,-12.698423541251714,-3.9291345480935678,-12.132881023898827,-20.10075495231502,-25.9692792277503,-15.261400365917957,-24.804692691964913,38.40345632024245,0.6280536202974287,-0.983542911166245,9.077159461906875,11.513393020412492,0.9817495225825349,-3.5296677471049946
-24.396584820478644,-30.900242905289232,0.06420746023184143,25.15393672725943,-21.513303335398447,44.19738152880862,-3.0641346090249435,-19.368400453428563,36.60141422961533,25.42936458735434,-11.920801224796124,-8.745961923554447,-12.698423541251714,-3.9291345480935678,-12.132881023898827,-20.10075495231502,-25.9692792277503,-7.103382190966672,-24.804692691964913,38.40345632024245,0.6280536202974287,-0.983542911166245,9.077159461906875,11.513393020412492,0.9817495225825349,-3.5296677471049946
-33.260180368870316,-30.900242905289232,0.06420746023184143,25.15393672725943,-21.513303335398447,44.19738152880862,-3.0641346090249435,-26.459276892141897,30.928713078644662,25.42936458735434,-11.920801224796124,-8.745961923554447,-12.698423541251714,-3.9291345480935678,-12.132881023898827,-20.10075495231502,-30.507440148526833,-7.103382190966672,-24.804692691964913,34.77292758362122,0.6280536202974287,-3.8879659004632274,9.077159461906875,11.513393020412492,0.9817495225825349,-3.5296677471049946
-35.34169318623264,-30.900242905289232,0.06420746023184143,25.15393672725943,-21.513303335398447,44.19738152880862,-4.729344862914806,-26.459276892141897,29.596544875532775,25.42936458735434,-11.920801224796124,-8.745961923554447,-12.698423541251714,-3.9291345480935678,-12.132881023898827,-20.10075495231502,-31.573174711016343,-7.103382190966672,-24.804692691964913,34.77292758362122,0.6280536202974287,-4.740553550454837,9.077159461906875,11.513393020412492,0.9817495225825349,-3.5296677471049946
-50.31787244021756,-30.900242905289232,0.06420746023184143,25.15393672725943,-21.513303335398447,44.19738152880862,-4.729344862914806,-26.459276892141897,29.596544875532775,25.42936458735434,-11.920801224796124,-20.726905326742386,-12.698423541251714,-3.9291345480935678,-12.132881023898827,-20.10075495231502,-31.573174711016343,-16.688136913517024,-24.804692691964913,34.77292758362122,0.6280536202974287,-4.740553550454837,9.077159461906875,11.513393020412492,0.9817495225825349,-3.5296677471049946
-32.765839665810375,-30.900242905289232,0.06420746023184143,25.15393672725943,-21.513303335398447,44.19738152880862,-4.729344862914806,-26.459276892141897,29.596544875532775,25.42936458735434,-11.920801224796124,-12.117006329558654,-12.698423541251714,-3.9291345480935678,-12.132881023898827,-14.66902772997301,-31.573174711016343,-9.800217715770039,-24.804692691964913,34.77292758362122,0.6280536202974287,-4.740553550454837,9.077159461906875,11.513393020412492,0.9817495225825349,0.815714030768615
-39.83345659851008,-30.900242905289232,0.06420746023184143,25.15393672725943,-21.513303335398447,44.19738152880862,-4.729344862914806,-26.459276892141897,29.596544875532775,25.42936458735434,-11.920801224796124,-12.117006329558654,-12.698423541251714,-3.9291345480935678,-12.132881023898827,-20.323121276132774,-31.573174711016343,-9.800217715770039,-24.804692691964913,34.77292758362122,0.6280536202974287,-4.740553550454837,9.077159461906875,11.513393020412492,0.9817495225825349,-3.707560806159198
-45.903747867065896,-30.900242905289232,0.06420746023184143,25.15393672725943,-21.513303335398447,44.19738152880862,-9.585577877759453,-26.459276892141897,29.596544875532775,25.42936458735434,-15.805787636671843,-12.117006329558654,-12.698423541251714,-3.9291345480935678,-12.132881023898827,-20.323121276132774,-31.573174711016343,-9.800217715770039,-24.804692691964913,34.77292758362122,0.6280536202974287,-7.848542679955412,9.077159461906875,11.513393020412492,0.9817495225825349,-3.707560806159198
-60.547328428818005,-30.900242905289232,0.06420746023184143,25.15393672725943,-21.513303335398447,44.19738152880862,-9.585577877759453,-26.459276892141897,29.596544875532775,25.42936458735434,-15.805787636671843,-23.831870778960344,-12.698423541251714,-3.9291345480935678,-12.132881023898827,-20.323121276132774,-31.573174711016343,-19.17210927529139,-24.804692691964913,34.77292758362122,0.6280536202974287,-7.848542679955412,9.077159461906875,11.513393020412492,0.9817495225825349,-3.707560806159198
-36.94586794058222,-30.900242905289232,0.06420746023184143,25.15393672725943,-21.513303335398447,44.19738152880862,2.1631088310515825,-26.459276892141897,29.596544875532775,25.42936458735434,-15.805787636671843,-23.831870778960344,-12.698423541251714,-3.9291345480935678,-12.132881023898827,-13.190639594355176,-31.573174711016343,-19.17210927529139,-24.804692691964913,44.17187695067005,0.6280536202974287,-0.329383186316349,9.077159461906875,11.513393020412492,0.9817495225825349,1.9984245392628779
-37.04691907255583,-30.900242905289232,0.06420746023184143,25.15393672725943,-21.513303335398447,44.19738152880862,2.1631088310515825,-26.459276892141897,29.596544875532775,25.42936458735434,-15.805787636671843,-23.831870778960344,-12.698423541251714,-3.9291345480935678,-12.132881023898827,-13.190639594355176,-31.573174711016343,-19.17210927529139,-24.804692691964913,44.17187695067005,0.6280536202974287,-0.329383186316349,9.077159461906875,11.513393020412492,0.9817495225825349,1.917583633683988
-37.144332363778396,-30.900242905289232,0.06420746023184143,25.15393672725943,-21.513303335398447,44.19738152880862,2.1631088310515825,-26.459276892141897,29.596544875532775,25.42936458735434,-15.805787636671843,-23.831870778960344,-12.698423541251714,-3.9291345480935678,-12.132881023898827,-13.190639594355176,-31.573174711016343,-19.17210927529139,-24.804692691964913,44.17187695067005,0.6280536202974287,-0.329383186316349,9.077159461906875,11.513393020412492,0.9817495225825349,1.8396530007059368
-37.238238776516944,-30.900242905289232,0.06420746023184143,25.15393672725943,-21.513303335398447,44.19738152880862,2.1631088310515825,-26.459276892141897,29.596544875532775,25.42936458735434,-15.805787636671843,-23.831870778960344,-12.698423541251714,-3.9291345480935678,-12.132881023898827,-13.190639594355176,-31.573174711016343,-19.17210927529139,-24.804692691964913,44.17187695067005,0.6280536202974287,-0.329383186316349,9.077159461906875,11.513393020412492,0.9817495225825349,1.7645278705150957
-26.9046904547481,-30.900242905289232,0.06420746023184143,25.15393672725943,-21.513303335398447,44.19738152880862,10.42994748846666,-26.459276892141897,29.596544875532775,25.42936458735434,-15.805787636671843,-23.831870778960344,-12.698423541251714,-3.9291345480935678,-12.132881023898827,-13.190639594355176,-31.573174711016343,-19.17210927529139,-24.804692691964913,44.17187695067005,0.6280536202974287,6.284087739615711,9.077159461906875,11.513393020412492,0.9817495225825349,1.7645278705150957
-26.913656103497807,-30.900242905289232,0.06420746023184143,25.15393672725943,-21.513303335398447,44.190209009808854,10.42994748846666,-26.459276892141897,29.596544875532775,25.42936458735434,-15.805787636671843,-23.831870778960344,-12.698423541251714,-3.9291345480935678,-12.132881023898827,-13.190639594355176,-31.573174711016343,-19.17210927529139,-24.804692691964913,44.17187695067005,0.6280536202974287,6.284087739615711,9.077159461906875,11.513393020412492,0.9817495225825349,1.7645278705150957
-22.141207075640857,-30.900242905289232,0.06420746023184143,28.97189594954499,-21.513303335398447,44.190209009808854,10.42994748846666,-23.40490951431345,32.04003877779553,25.42936458735434,-15.805787636671843,-23.831870778960344,-12.698423541251714,-3.9291345480935678,-12.132881023898827,-13.190639594355176,-31.573174711016343,-19.17210927529139,-24.804692691964913,44.17187695067005,0.6280536202974287,6.284087739615711,9.077159461906875,11.513393020412492,0.9817495225825349,1.7645278705150957
-15.595212306768508,-30.900242905289232,0.06420746023184143,34.20869176464287,-21.513303335398447,44.190209009808854,10.42994748846666,-19.215472862235146,35.391588099458176,25.42936458735434,-15.805787636671843,-23.831870778960344,-12.698423541251714,-3.9291345480935678,-12.132881023898827,-13.190639594355176,-31.573174711016343,-19.17210927529139,-24.804692691964913,44.17187695067005,0.6280536202974287,6.284087739615711,9.077159461906875,11.513393020412492,0.9817495225825349,1.7645278705150957
-22.618136284698824,-30.900242905289232,0.06420746023184143,28.590352582298618,-21.513303335398447,44.190209009808854,5.935276142591254,-19.215472862235146,35.391588099458176,21.833627510654015,-18.6823772980321,-23.831870778960344,-12.698423541251714,-3.9291345480935678,-12.132881023898827,-13.190639594355176,-31.573174711016343,-19.17210927529139,-24.804692691964913,44.17187695067005,0.6280536202974287,6.284087739615711,9.077159461906875,11.513393020412492,0.9817495225825349,1.7645278705150957
-23.00106411641515,-30.900242905289232,0.06420746023184143,28.590352582298618,-21.513303335398447,44.190209009808854,5.935276142591254,-19.215472862235146,35.391588099458176,21.833627510654015,-18.6823772980321,-23.831870778960344,-12.698423541251714,-3.9291345480935678,-12.132881023898827,-13.190639594355176,-31.573174711016343,-19.17210927529139,-24.804692691964913,44.17187695067005,0.6280536202974287,6.284087739615711,9.077159461906875,11.513393020412492,0.9817495225825349,1.4581856051420352
-23.37020654618969,-30.900242905289232,0.06420746023184143,28.590352582298618,-21.513303335398447,44.190209009808854,5.935276142591254,-19.215472862235146,35.391588099458176,21.833627510654015,-18.6823772980321,-23.831870778960344,-12.698423541251714,-3.9291345480935678,-12.132881023898827,-13.190639594355176,-31.573174711016343,-19.17210927529139,-24.804692691964913,44.17187695067005,0.6280536202974287,6.284087739615711,9.077159461906875,11.513393020412492,0.9817495225825349,1.1628716613224048
-15.98113912576478,-30.900242905289232,0.06420746023184143,28.590352582298618,-21.513303335398447,44.190209009808854,5.935276142591254,-19.215472862235146,35.391588099458176,21.833627510654015,-18.6823772980321,-23.831870778960344,-12.698423541251714,-3.9291345480935678,-12.132881023898827,-13.190639594355176,-31.573174711016343,-19.17210927529139,-24.804692691964913,44.17187695067005,0.6280536202974287,6.284087739615711,9.077159461906875,11.513393020412492,0.9817495225825349,7.07412559766233
-22.260252002882833,-30.900242905289232,0.06420746023184143,28.590352582298618,-21.513303335398447,39.16691870811441,5.935276142591254,-19.215472862235146,35.391588099458176,21.833627510654015,-18.6823772980321,-23.831870778960344,-12.698423541251714,-3.9291345480935678,-12.132881023898827,-13.190639594355176,-31.573174711016343,-19.17210927529139,-24.804692691964913,44.17187695067005,0.6280536202974287,6.284087739615711,9.077159461906875,11.513393020412492,0.9817495225825349,7.07412559766233
-6.359592183758473,-30.900242905289232,0.06420746023184143,28.590352582298618,-8.79277548009896,39.16691870811441,5.935276142591254,-9.039050577995555,43.53272592684985,21.833627510654015,-18.6823772980321,-23.831870778960344,-12.698423541251714,-3.9291345480935678,-12.132881023898827,-13.190639594355176,-31.573174711016343,-19.17210927529139,-24.804692691964913,44.17187695067005,0.6280536202974287,6.284087739615711,9.077159461906875,11.513393020412492,0.9817495225825349,7.07412559766233
-4.896697067670137,-30.900242905289232,0.06420746023184143,29.760668675169285,-8.79277548009896,39.16691870811441,5.935276142591254,-8.102797703699022,44.28172822628708,22.432829350203797,-18.6823772980321,-23.831870778960344,-12.698423541251714,-3.9291345480935678,-12.132881023898827,-13.190639594355176,-31.573174711016343,-19.17210927529139,-24.804692691964913,44.17187695067005,0.6280536202974287,6.284087739615711,9.077159461906875,11.513393020412492,0.9817495225825349,7.07412559766233
-0.7015207166088118,-30.900242905289232,0.06420746023184143,33.11680975601834,-8.79277548009896,39.16691870811441,5.935276142591254,-5.417884839019773,44.28172822628708,22.432829350203797,-18.6823772980321,-23.831870778960344,-12.698423541251714,-3.9291345480935678,-12.132881023898827,-13.190639594355176,-31.573174711016343,-19.17210927529139,-24.804692691964913,44.17187695067005,0.6280536202974287,6.284087739615711,9.077159461906875,11.513393020412492,0.9817495225825349,7.07412559766233
4.536996324019599,-30.900242905289232,0.06420746023184143,37.30762338852107,-8.79277548009896,39.16691870811441,9.287927048593437,-5.417884839019773,44.28172822628708,22.432829350203797,-18.6823772980321,-23.831870778960344,-12.698423541251714,-3.9291345480935678,-12.132881023898827,-13.190639594355176,-31.573174711016343,-19.17210927529139,-24.804692691964913,44.17187695067005,0.6280536202974287,8.966208464417457,9.077159461906875,13.65908960025389,0.9817495225825349,7.07412559766233
4.658625663761673,-30.900242905289232,0.06420746023184143,37.40492686031473,-8.79277548009896,39.16691870811441,9.365769826028364,-5.417884839019773,44.28172822628708,22.432829350203797,-18.6823772980321,-23.831870778960344,-12.698423541251714,-3.9291345480935678,-12.132881023898827,-13.190639594355176,-31.573174711016343,-19.17210927529139,-24.804692691964913,44.17187695067005,0.6280536202974287,9.028482686365399,9.12697883946523,13.65908960025389,0.9817495225825349,7.07412559766233
2.7257123100605396,-30.900242905289232,0.06420746023184143,35.858596177353824,-8.79277548009896,39.16691870811441,9.365769826028364,-6.6549493853884965,44.28172822628708,22.432829350203797,-18.6823772980321,-23.831870778960344,-12.698423541251714,-3.9291345480935678,-12.132881023898827,-13.190639594355176,-31.573174711016343,-19.17210927529139,-24.804692691964913,44.17187695067005,0.6280536202974287,9.028482686365399,9.12697883946523,13.65908960025389,0.9817495225825349,7.07412559766233
3.7101429009357245,-30.900242905289232,0.06420746023184143,36.64614065005397,-8.79277548009896,39.16691870811441,9.365769826028364,-6.024913807228378,44.28172822628708,22.432829350203797,-18.6823772980321,-23.831870778960344,-12.698423541251714,-3.9291345480935678,-12.132881023898827,-13.190639594355176,-31.573174711016343,-19.17210927529139,-24.804692691964913,44.17187695067005,0.6280536202974287,9.028482686365399,9.12697883946523,13.65908960025389,0.9817495225825349,7.07412559766233
1.612836207341743,-30.900242905289232,0.06420746023184143,34.968295295178784,-8.79277548009896,39.16691870811441,9.365769826028364,-6.024913807228378,44.28172822628708,22.432829350203797,-18.6823772980321,-23.831870778960344,-12.698423541251714,-3.9291345480935678,-12.132881023898827,-13.190639594355176,-31.573174711016343,-19.17210927529139,-24.804692691964913,44.17187695067005,0.6280536202974287,7.686206402465251,9.12697883946523,13.65908960025389,0.9817495225825349,7.07412559766233
2.5720349074221143,-30.900242905289232,0.06420746023184143,35.735654255243084,-8.79277548009896,39.16691870811441,9.365769826028364,-5.411026639176941,44.28172822628708,22.432829350203797,-18.6823772980321,-23.831870778960344,-12.698423541251714,-3.9291345480935678,-12.132881023898827,-13.190639594355176,-31.573174711016343,-19.17210927529139,-24.804692691964913,44.17187695067005,0.6280536202974287,7.686206402465251,9.12697883946523,13.65908960025389,0.9817495225825349,7.07412559766233
4.018565727648243,-30.900242905289232,0.06420746023184143,36.892878911423985,-8.79277548009896,39.16691870811441,10.291549550973086,-5.411026639176941,44.28172822628708,22.432829350203797,-18.6823772980321,-23.831870778960344,-12.698423541251714,-3.9291345480935678,-12.132881023898827,-13.190639594355176,-31.573174711016343,-19.17210927529139,-24.804692691964913,44.17187695067005,0.6280536202974287,7.686206402465251,9.12697883946523,13.65908960025389,0.9817495225825349,7.07412559766233
3.9513540880764575,-30.900242905289232,0.06420746023184143,36.83910959976656,-8.79277548009896,39.16691870811441,10.248534101647143,-5.411026639176941,44.28172822628708,22.432829350203797,-18.6823772980321,-23.831870778960344,-12.698423541251714,-3.9291345480935678,-12.132881023898827,-13.190639594355176,-31.573174711016343,-19.17210927529139,-24.804692691964913,44.17187695067005,0.6280536202974287,7.686206402465251,9.12697883946523,13.65908960025389,0.9817495225825349,7.07412559766233
12.866709278329854,-30.900242905289232,0.06420746023184143,36.83910959976656,-8.79277548009896,46.29920286031712,10.248534101647143,-5.411026639176941,44.28172822628708,22.432829350203797,-18.6823772980321,-23.831870778960344,-12.698423541251714,-3.9291345480935678,-12.132881023898827,-13.190639594355176,-31.573174711016343,-19.17210927529139,-24.804692691964913,44.17187695067005,0.6280536202974287,7.686206402465251,9.12697883946523,13.65908960025389,0.9817495225825349,7.07412559766233
15.895178869025722,-30.900242905289232,0.06420746023184143,39.261885272323255,-8.79277548009896,46.29920286031712,10.248534101647143,-3.4728061011315843,45.832304656723366,22.432829350203797,-18.6823772980321,-23.831870778960344,-12.698423541251714,-3.9291345480935678,-12.132881023898827,-13.190639594355176,-31.573174711016343,-19.17210927529139,-24.804692691964913,44.17187695067005,0.6280536202974287,7.686206402465251,9.12697883946523,13.65908960025389,0.9817495225825349,7.07412559766233
22.782756898123594,-30.900242905289232,0.06420746023184143,44.77194769560155,-8.79277548009896,46.29920286031712,10.248534101647143,0.9352438374910497,49.358744607621475,22.432829350203797,-18.6823772980321,-23.831870778960344,-12.698423541251714,-3.9291345480935678,-12.132881023898827,-13.190639594355176,-31.573174711016343,-19.17210927529139,-24.804692691964913,44.17187695067005,0.6280536202974287,7.686206402465251,9.12697883946523,13.65908960025389,0.9817495225825349,7.07412559766233
21.854643137934218,-30.900242905289232,0.06420746023184143,44.02945668745004,-8.79277548009896,46.29920286031712,10.248534101647143,0.3412510309698523,48.88355036240451,22.052673954030226,-18.6823772980321,-23.831870778960344,-12.698423541251714,-3.9291345480935678,-12.132881023898827,-13.190639594355176,-31.573174711016343,-19.17210927529139,-24.804692691964913,44.17187695067005,0.6280536202974287,7.686206402465251,9.12697883946523,13.65908960025389,0.9817495225825349,7.07412559766233
12.616751339070774,-30.900242905289232,0.06420746023184143,36.63914324835929,-8.79277548009896,46.29920286031712,10.248534101647143,-5.570999720302752,48.88355036240451,22.052673954030226,-18.6823772980321,-23.831870778960344,-12.698423541251714,-3.9291345480935678,-12.132881023898827,-13.190639594355176,-31.573174711016343,-19.17210927529139,-24.804692691964913,44.17187695067005,0.6280536202974287,7.686206402465251,9.12697883946523,13.65908960025389,0.9817495225825349,7.07412559766233
11.422933800336112,-30.900242905289232,0.06420746023184143,36.63914324835929,-8.79277548009896,46.29920286031712,10.248534101647143,-5.570999720302752,48.88355036240451,22.052673954030226,-18.6823772980321,-23.831870778960344,-12.698423541251714,-3.9291345480935678,-12.132881023898827,-13.190639594355176,-31.573174711016343,-19.17210927529139,-24.804692691964913,44.17187695067005,0.6280536202974287,7.686206402465251,9.12697883946523,13.65908960025389,0.9817495225825349,6.1190715666746005
17.504517325851552,-30.900242905289232,0.06420746023184143,36.63914324835929,-8.79277548009896,46.29920286031712,10.248534101647143,-5.570999720302752,48.88355036240451,22.052673954030226,-18.6823772980321,-23.831870778960344,-12.698423541251714,-3.9291345480935678,-12.132881023898827,-13.190639594355176,-31.573174711016343,-19.17210927529139,-24.804692691964913,44.17187695067005,0.6280536202974287,7.686206402465251,9.12697883946523,13.65908960025389,0.9817495225825349,10.984338387086954
17.3081459364316,-30.900242905289232,0.06420746023184143,36.63914324835929,-8.79277548009896,46.14210574878116,10.248534101647143,-5.570999720302752,48.88355036240451,22.052673954030226,-18.6823772980321,-23.831870778960344,-12.698423541251714,-3.9291345480935678,-12.132881023898827,-13.190639594355176,-31.573174711016343,-19.17210927529139,-24.804692691964913,44.17187695067005,0.6280536202974287,7.686206402465251,9.12697883946523,13.65908960025389,0.9817495225825349,10.984338387086954
20.055104666906658,-30.900242905289232,0.06420746023184143,36.63914324835929,-6.595208495718914,46.14210574878116,10.248534101647143,-3.8129461327987153,50.289993232407745,22.052673954030226,-18.6823772980321,-23.831870778960344,-12.698423541251714,-3.9291345480935678,-12.132881023898827,-13.190639594355176,-31.573174711016343,-19.17210927529139,-24.804692691964913,44.17187695067005,0.6280536202974287,7.686206402465251,9.12697883946523,13.65908960025389,0.9817495225825349,10.984338387086954
35.98537274130119,-30.900242905289232,0.06420746023184143,36.63914324835929,6.149005963796711,46.14210574878116,10.248534101647143,6.382425434813785,58.446290486497745,22.052673954030226,-18.6823772980321,-23.831870778960344,-12.698423541251714,-3.9291345480935678,-12.132881023898827,-13.190639594355176,-31.573174711016343,-19.17210927529139,-24.804692691964913,44.17187695067005,0.6280536202974287,14.21124420573725,9.12697883946523,13.65908960025389,0.9817495225825349,10.984338387086954
36.9438939672547,-30.900242905289232,0.06420746023184143,37.4059602291221,6.149005963796711,46.14210574878116,10.861987686257388,6.382425434813785,58.93705335418594,22.445284248180783,-18.6823772980321,-23.831870778960344,-12.698423541251714,-3.9291345480935678,-12.132881023898827,-13.190639594355176,-31.573174711016343,-19.17210927529139,-24.804692691964913,44.17187695067005,0.6280536202974287,14.52533244105769,9.12697883946523,13.65908960025389,0.9817495225825349,10.984338387086954
36.98690556417633,-30.900242905289232,0.06420746023184143,37.44036950665941,6.149005963796711,46.14210574878116,10.889515108287231,6.382425434813785,58.93705335418594,22.445284248180783,-18.6823772980321,-23.831870778960344,-12.698423541251714,-3.9291345480935678,-12.132881023898827,-13.190639594355176,-31.573174711016343,-19.17210927529139,-24.804692691964913,44.17187695067005,0.6280536202974287,14.547354378681566,9.12697883946523,13.65908960025389,0.9817495225825349,10.984338387086954
36.8817498251163,-30.900242905289232,0.06420746023184143,37.35624491541139,6.149005963796711,46.14210574878116,10.889515108287231,6.315125761815369,58.93705335418594,22.445284248180783,-18.6823772980321,-23.831870778960344,-12.698423541251714,-3.9291345480935678,-12.132881023898827,-13.190639594355176,-31.573174711016343,-19.17210927529139,-24.804692691964913,44.17187695067005,0.6280536202974287,14.547354378681566,9.12697883946523,13.605249861855158,0.9817495225825349,10.984338387086954
41.73006170880775,-30.900242905289232,0.06420746023184143,41.23489442236455,6.149005963796711,46.14210574878116,10.889515108287231,9.418045367377896,58.93705335418594,22.445284248180783,-18.6823772980321,-23.831870778960344,-12.698423541251714,-3.9291345480935678,-12.132881023898827,-13.190639594355176,-31.573174711016343,-19.17210927529139,-24.804692691964913,44.17187695067005,0.6280536202974287,14.547354378681566,11.60931452391525,13.605249861855158,0.9817495225825349,10.984338387086954
41.756773950135525,-30.900242905289232,0.06420746023184143,41.25626421542676,6.149005963796711,46.14210574878116,10.906610942737004,9.418045367377896,58.93705335418594,22.445284248180783,-18.6823772980321,-23.831870778960344,-12.698423541251714,-3.9291345480935678,-12.132881023898827,-13.190639594355176,-31.573174711016343,-19.17210927529139,-24.804692691964913,44.17187695067005,0.6280536202974287,14.561031046241384,11.620255857963103,13.605249861855158,0.9817495225825349,10.984338387086954
39.633889701672146,-30.900242905289232,0.06420746023184143,39.55795681665606,6.149005963796711,46.14210574878116,10.906610942737004,8.059399448361335,58.93705335418594,22.445284248180783,-18.6823772980321,-23.831870778960344,-12.698423541251714,-3.9291345480935678,-12.132881023898827,-13.190639594355176,-31.573174711016343,-19.17210927529139,-24.804692691964913,44.17187695067005,0.6280536202974287,14.561031046241384,11.620255857963103,13.605249861855158,0.9817495225825349,10.984338387086954
41.32202212007341,-30.900242905289232,0.06420746023184143,40.90846275137707,6.149005963796711,46.14210574878116,10.906610942737004,8.059399448361335,58.93705335418594,22.445284248180783,-18.6823772980321,-23.831870778960344,-12.698423541251714,-3.9291345480935678,-12.132881023898827,-13.190639594355176,-31.573174711016343,-19.17210927529139,-24.804692691964913,44.17187695067005,0.6280536202974287,15.641435794018198,11.620255857963103,13.605249861855158,0.9817495225825349,10.984338387086954
38.818494975998405,-30.900242905289232,0.06420746023184143,38.90564103611707,6.149005963796711,46.14210574878116,9.304353570528997,8.059399448361335,58.93705335418594,22.445284248180783,-18.6823772980321,-23.831870778960344,-12.698423541251714,-3.9291345480935678,-12.132881023898827,-13.190639594355176,-31.573174711016343,-19.17210927529139,-24.804692691964913,44.17187695067005,0.6280536202974287,14.359629896251791,11.620255857963103,13.605249861855158,0.9817495225825349,10.984338387086954
38.71164939010437,-30.900242905289232,0.06420746023184143,38.82016456740184,6.149005963796711,46.14210574878116,9.304353570528997,7.991018273389155,58.93705335418594,22.445284248180783,-18.6823772980321,-23.831870778960344,-12.698423541251714,-3.9291345480935678,-12.132881023898827,-13.190639594355176,-31.573174711016343,-19.17210927529139,-24.804692691964913,44.17187695067005,0.6280536202974287,14.359629896251791,11.620255857963103,13.605249861855158,0.9817495225825349,10.984338387086954
36.74616583024636,-30.900242905289232,0.06420746023184143,37.24777771951543,6.149005963796711,46.14210574878116,8.046444092219875,7.991018273389155,58.93705335418594,22.445284248180783,-18.6823772980321,-23.831870778960344,-12.698423541251714,-3.9291345480935678,-12.132881023898827,-13.190639594355176,-31.573174711016343,-19.17210927529139,-24.804692691964913,44.17187695067005,0.6280536202974287,13.353302313604495,11.620255857963103,13.605249861855158,0.9817495225825349,10.984338387086954
43.13669533033213,-30.900242905289232,0.06420746023184143,37.24777771951543,6.149005963796711,51.25452934884977,8.046444092219875,7.991018273389155,58.93705335418594,22.445284248180783,-18.6823772980321,-23.831870778960344,-12.698423541251714,-3.9291345480935678,-12.132881023898827,-13.190639594355176,-31.573174711016343,-19.17210927529139,-24.804692691964913,44.17187695067005,0.6280536202974287,13.353302313604495,11.620255857963103,13.605249861855158,0.9817495225825349,10.984338387086954
43.21241987189805,-30.900242905289232,0.06420746023184143,37.24777771951543,6.209585597049445,51.25452934884977,8.046444092219875,8.039481979991344,58.9758243194677,22.445284248180783,-18.6823772980321,-23.831870778960344,-12.698423541251714,-3.9291345480935678,-12.132881023898827,-13.190639594355176,-31.573174711016343,-19.17210927529139,-24.804692691964913,44.17187695067005,0.6280536202974287,13.353302313604495,11.620255857963103,13.605249861855158,0.9817495225825349,10.984338387086954
51.4635926268479,-30.900242905289232,0.06420746023184143,37.24777771951543,12.810523801009325,51.25452934884977,8.046444092219875,13.320232543159246,63.200424770002016,22.445284248180783,-18.6823772980321,-23.831870778960344,-12.698423541251714,-3.9291345480935678,-12.132881023898827,-13.190639594355176,-31.573174711016343,-19.17210927529139,-24.804692691964913,44.17187695067005,0.6280536202974287,13.353302313604495,11.620255857963103,13.605249861855158,0.9817495225825349,10.984338387086954
53.412177769332466,-30.900242905289232,0.06420746023184143,38.80664583350308,12.810523801009325,51.25452934884977,8.046444092219875,13.320232543159246,64.44751926119214,23.442959841132883,-18.6823772980321,-23.831870778960344,-12.698423541251714,-3.9291345480935678,-12.132881023898827,-13.190639594355176,-31.573174711016343,-19.17210927529139,-24.804692691964913,44.17187695067005,0.6280536202974287,13.353302313604495,11.620255857963103,13.605249861855158,0.9817495225825349,10.984338387086954
52.685493873879544,-30.900242905289232,0.06420746023184143,38.22529871714075,12.810523801009325,51.25452934884977,7.581366399130011,13.320232543159246,64.44751926119214,23.442959841132883,-18.6823772980321,-23.831870778960344,-12.698423541251714,-3.9291345480935678,-12.132881023898827,-13.190639594355176,-31.573174711016343,-19.17210927529139,-24.804692691964913,44.17187695067005,0.6280536202974287,12.9812401591326,11.620255857963103,13.605249861855158,0.9817495225825349,10.984338387086954
49.40087337119595,-30.900242905289232,0.06420746023184143,35.59760231499388,12.810523801009325,51.25452934884977,7.581366399130011,11.218075421441746,64.44751926119214,23.442959841132883,-18.6823772980321,-23.831870778960344,-12.698423541251714,-3.9291345480935678,-12.132881023898827,-13.190639594355176,-31.573174711016343,-19.17210927529139,-24.804692691964913,44.17187695067005,0.6280536202974287,12.9812401591326,11.620255857963103,13.605249861855158,0.9817495225825349,10.984338387086954
48.36818840347667,-30.900242905289232,0.06420746023184143,34.771454340818465,12.810523801009325,51.25452934884977,7.581366399130011,10.55715704210141,64.44751926119214,23.442959841132883,-18.6823772980321,-23.831870778960344,-12.698423541251714,-3.9291345480935678,-12.132881023898827,-13.190639594355176,-31.573174711016343,-19.17210927529139,-24.804692691964913,44.17187695067005,0.6280536202974287,12.9812401591326,11.620255857963103,13.605249861855158,0.9817495225825349,10.984338387086954
49.17118214906514,-30.900242905289232,0.06420746023184143,35.413849337289236,12.810523801009325,51.25452934884977,7.581366399130011,11.071073039278026,64.44751926119214,23.442959841132883,-18.6823772980321,-23.831870778960344,-12.698423541251714,-3.9291345480935678,-12.132881023898827,-13.190639594355176,-31.573174711016343,-19.17210927529139,-24.804692691964913,44.17187695067005,0.6280536202974287,12.9812401591326,12.031388655704397,13.605249861855158,0.9817495225825349,10.984338387086954
49.218282609766426,-30.900242905289232,0.06420746023184143,35.45152970585027,12.810523801009325,51.25452934884977,7.611510693978835,11.071073039278026,64.44751926119214,23.442959841132883,-18.6823772980321,-23.831870778960344,-12.698423541251714,-3.9291345480935678,-12.132881023898827,-13.190639594355176,-31.573174711016343,-19.17210927529139,-24.804692691964913,44.17187695067005,0.6280536202974287,13.00535559501166,12.031388655704397,13.605249861855158,0.9817495225825349,10.984338387086954
59.42321599316955,-30.900242905289232,0.06420746023184143,35.45152970585027,12.810523801009325,59.41847605557227,7.611510693978835,11.071073039278026,64.44751926119214,23.442959841132883,-18.6823772980321,-23.831870778960344,-12.698423541251714,-3.9291345480935678,-12.132881023898827,-13.190639594355176,-31.573174711016343,-19.17210927529139,-24.804692691964913,44.17187695067005,0.6280536202974287,13.00535559501166,12.031388655704397,13.605249861855158,0.9817495225825349,10.984338387086954
59.20806223937633,-30.900242905289232,0.06420746023184143,35.45152970585027,12.638400797974757,59.41847605557227,7.611510693978835,10.933374636850363,64.33736053925001,23.442959841132883,-18.6823772980321,-23.831870778960344,-12.698423541251714,-3.9291345480935678,-12.132881023898827,-13.190639594355176,-31.573174711016343,-19.17210927529139,-24.804692691964913,44.17187695067005,0.6280536202974287,12.917228617457964,12.031388655704397,13.605249861855158,0.9817495225825349,10.984338387086954
65.00836852643722,-30.900242905289232,0.06420746023184143,35.45152970585027,17.27864582762347,59.41847605557227,7.611510693978835,14.645570660569332,67.30711735822518,23.442959841132883,-18.6823772980321,-23.831870778960344,-12.698423541251714,-3.9291345480935678,-12.132881023898827,-13.190639594355176,-31.573174711016343,-19.17210927529139,-24.804692691964913,44.17187695067005,0.6280536202974287,15.2930340726381,12.031388655704397,13.605249861855158,0.9817495225825349,10.984338387086954
58.09011291472218,-30.900242905289232,0.06420746023184143,29.916925216478234,17.27864582762347,59.41847605557227,7.611510693978835,10.217887069071704,63.764970485027085,20.609242342574404,-18.6823772980321,-23.831870778960344,-12.698423541251714,-3.9291345480935678,-12.132881023898827,-13.190639594355176,-31.573174711016343,-19.17210927529139,-24.804692691964913,44.17187695067005,0.6280536202974287,15.2930340726381,12.031388655704397,13.605249861855158,0.9817495225825349,10.984338387086954
61.79963581881017,-30.900242905289232,0.06420746023184143,32.88454353974863,17.27864582762347,59.41847605557227,9.985605352595151,10.217887069071704,63.764970485027085,20.609242342574404,-18.6823772980321,-23.831870778960344,-12.698423541251714,-3.9291345480935678,-12.132881023898827,-13.190639594355176,-31.573174711016343,-19.17210927529139,-24.804692691964913,44.17187695067005,0.6280536202974287,15.2930340726381,12.031388655704397,13.605249861855158,0.9817495225825349,10.984338387086954
58.753923099839014,-30.900242905289232,0.06420746023184143,30.447973364571702,17.27864582762347,59.41847605557227,9.985605352595151,8.268630928930166,63.764970485027085,20.609242342574404,-18.6823772980321,-23.831870778960344,-12.698423541251714,-3.9291345480935678,-12.132881023898827,-13.190639594355176,-31.573174711016343,-19.17210927529139,-24.804692691964913,44.17187695067005,0.6280536202974287,13.733629160524874,12.031388655704397,13.605249861855158,0.9817495225825349,10.984338387086954
59.4955004802884,-30.900242905289232,0.06420746023184143,31.041235268931207,17.27864582762347,59.41847605557227,10.460214876082755,8.268630928930166,63.764970485027085,20.609242342574404,-18.6823772980321,-23.831870778960344,-12.698423541251714,-3.9291345480935678,-12.132881023898827,-13.190639594355176,-31.573174711016343,-19.17210927529139,-24.804692691964913,44.17187695067005,0.6280536202974287,14.113316779314957,12.031388655704397,13.605249861855158,0.9817495225825349,10.984338387086954
60.193295132196056,-30.900242905289232,0.06420746023184143,31.59947099045733,17.27864582762347,59.41847605557227,10.906803453303652,8.268630928930166,63.764970485027085,20.609242342574404,-18.6823772980321,-23.831870778960344,-12.698423541251714,-3.9291345480935678,-12.132881023898827,-13.190639594355176,-31.573174711016343,-19.17210927529139,-24.804692691964913,44.17187695067005,0.6280536202974287,14.470587641091674,12.031388655704397,13.605249861855158,0.9817495225825349,10.984338387086954
61.40243215423815,-30.900242905289232,0.06420746023184143,32.56678060809101,17.27864582762347,59.41847605557227,11.680651147410591,8.268630928930166,63.764970485027085,20.609242342574404,-18.6823772980321,-23.831870778960344,-12.698423541251714,-3.9291345480935678,-12.132881023898827,-13.190639594355176,-31.573174711016343,-19.17210927529139,-24.804692691964913,44.17187695067005,0.6280536202974287,15.089665796377227,12.031388655704397,13.605249861855158,0.9817495225825349,10.984338387086954
74.19314633994813,-30.900242905289232,0.06420746023184143,32.56678060809101,17.27864582762347,69.65104740414026,11.680651147410591,8.268630928930166,63.764970485027085,20.609242342574404,-18.6823772980321,-23.831870778960344,-12.698423541251714,-3.9291345480935678,-12.132881023898827,-13.190639594355176,-31.573174711016343,-19.17210927529139,-24.804692691964913,44.17187695067005,8.814110699151819,15.089665796377227,12.031388655704397,13.605249861855158,0.9817495225825349,10.984338387086954
75.4172757727082,-30.900242905289232,0.06420746023184143,33.546084154299066,17.27864582762347,69.65104740414026,11.680651147410591,9.052073765896614,64.39172475460023,20.609242342574404,-18.6823772980321,-23.831870778960344,-12.698423541251714,-3.9291345480935678,-12.132881023898827,-13.190639594355176,-31.573174711016343,-19.17210927529139,-24.804692691964913,44.17187695067005,8.814110699151819,15.089665796377227,12.031388655704397,13.605249861855158,0.9817495225825349,10.984338387086954
76.95664092099557,-30.900242905289232,0.06420746023184143,34.777576272928975,17.27864582762347,69.65104740414026,11.680651147410591,10.03726746080054,65.17987971052338,20.609242342574404,-18.6823772980321,-23.831870778960344,-12.698423541251714,-3.9291345480935678,-12.132881023898827,-13.190639594355176,-31.573174711016343,-19.17210927529139,-24.804692691964913,44.17187695067005,8.814110699151819,15.089665796377227,12.031388655704397,13.605249861855158,0.9817495225825349,10.984338387086954
70.36724284813508,-30.900242905289232,0.06420746023184143,34.777576272928975,17.27864582762347,69.65104740414026,11.680651147410591,4.765749002512148,60.96266494389266,17.23547052926983,-18.6823772980321,-23.831870778960344,-12.698423541251714,-3.9291345480935678,-12.132881023898827,-13.190639594355176,-31.573174711016343,-19.17210927529139,-24.804692691964913,44.17187695067005,8.814110699151819,12.39064834573357,12.031388655704397,13.605249861855158,0.9817495225825349,10.984338387086954
78.61858483565477,-30.900242905289232,0.06420746023184143,34.777576272928975,17.27864582762347,69.65104740414026,11.680651147410591,4.765749002512148,60.96266494389266,17.23547052926983,-18.6823772980321,-23.831870778960344,-12.698423541251714,-3.9291345480935678,-12.132881023898827,-13.190639594355176,-31.573174711016343,-19.17210927529139,-24.804692691964913,44.17187695067005,8.814110699151819,12.39064834573357,12.031388655704397,13.605249861855158,0.9817495225825349,17.58541197710271
45.85702902172003,-30.900242905289232,0.06420746023184143,34.777576272928975,-19.029709543325545,69.65104740414026,11.680651147410591,-24.280935294247065,37.7253175064853,17.23547052926983,-18.6823772980321,-13.732760059159123,-31.28830149117761,-3.9291345480935678,-12.132881023898827,-13.190639594355176,-31.573174711016343,-11.092820699450414,-24.804692691964913,44.17187695067005,8.814110699151819,12.39064834573357,12.031388655704397,13.605249861855158,0.9817495225825349,17.58541197710271
36.85199299363068,-30.900242905289232,0.06420746023184143,34.777576272928975,-19.029709543325545,69.65104740414026,11.680651147410591,-24.280935294247065,37.7253175064853,17.23547052926983,-18.6823772980321,-13.732760059159123,-31.28830149117761,-3.9291345480935678,-12.132881023898827,-20.394668416826658,-31.573174711016343,-11.092820699450414,-24.804692691964913,44.17187695067005,8.814110699151819,12.39064834573357,12.031388655704397,13.605249861855158,0.9817495225825349,11.822188919125523
28.28640272371209,-30.900242905289232,0.06420746023184143,34.777576272928975,-19.029709543325545,69.65104740414026,11.680651147410591,-24.280935294247065,37.7253175064853,17.23547052926983,-18.6823772980321,-13.732760059159123,-31.28830149117761,-3.9291345480935678,-12.132881023898827,-27.247140632761532,-31.573174711016343,-11.092820699450414,-24.804692691964913,44.17187695067005,8.814110699151819,12.39064834573357,12.031388655704397,13.605249861855158,0.9817495225825349,6.340211146377625
31.38665278094383,-30.900242905289232,0.06420746023184143,34.777576272928975,-19.029709543325545,69.65104740414026,11.680651147410591,-21.80073524846167,39.709477543113614,17.23547052926983,-18.6823772980321,-13.732760059159123,-31.28830149117761,-3.9291345480935678,-12.132881023898827,-27.247140632761532,-29.985846681713692,-11.092820699450414,-24.804692691964913,44.17187695067005,8.814110699151819,12.39064834573357,12.031388655704397,13.605249861855158,0.9817495225825349,6.340211146377625
25.77816357809516,-30.900242905289232,0.06420746023184143,34.777576272928975,-19.029709543325545,69.65104740414026,0.29159784573252345,-21.80073524846167,30.59823490177116,17.23547052926983,-18.6823772980321,-6.830498119759992,-31.28830149117761,-3.9291345480935678,-12.132881023898827,-27.247140632761532,-37.27484079478765,-5.571011147931109,-24.804692691964913,44.17187695067005,8.814110699151819,6.5594530552744,12.031388655704397,13.605249861855158,0.9817495225825349,6.340211146377625
9.510630491887078,-30.900242905289232,0.06420746023184143,34.777576272928975,-19.029709543325545,69.65104740414026,0.29159784573252345,-21.80073524846167,30.59823490177116,17.23547052926983,-18.6823772980321,-19.844524588726454,-31.28830149117761,-3.9291345480935678,-12.132881023898827,-27.247140632761532,-37.27484079478765,-15.98223232310428,-24.804692691964913,44.17187695067005,8.814110699151819,6.5594530552744,12.031388655704397,13.605249861855158,0.9817495225825349,6.340211146377625
1.7385564717770148,-30.900242905289232,0.06420746023184143,34.777576272928975,-19.029709543325545,69.65104740414026,0.29159784573252345,-21.80073524846167,30.59823490177116,17.23547052926983,-18.6823772980321,-19.844524588726454,-31.28830149117761,-3.9291345480935678,-12.132881023898827,-33.46479984884958,-37.27484079478765,-15.98223232310428,-24.804692691964913,44.17187695067005,8.814110699151819,6.5594530552744,12.031388655704397,13.605249861855158,0.9817495225825349,1.3660837735071834
1.3187630610205043,-30.900242905289232,0.06420746023184143,34.777576272928975,-19.029709543325545,69.65104740414026,0.29159784573252345,-22.136569977066877,30.329567118886995,17.23547052926983,-18.6823772980321,-19.844524588726454,-31.28830149117761,-3.9291345480935678,-12.132881023898827,-33.46479984884958,-37.489775021094985,-15.98223232310428,-24.804692691964913,44.17187695067005,8.814110699151819,6.387505674228533,12.031388655704397,13.605249861855158,0.9817495225825349,1.3660837735071834
11.561231060884626,-30.900242905289232,0.06420746023184143,34.777576272928975,-19.029709543325545,69.65104740414026,-0.802427542871248,-22.136569977066877,29.45434680800398,17.23547052926983,-18.6823772980321,-10.556524800231385,-31.28830149117761,-3.9291345480935678,-12.132881023898827,-33.46479984884958,-38.1899512698014,-8.551832492308225,-24.804692691964913,44.17187695067005,8.814110699151819,5.827364675263402,12.031388655704397,13.605249861855158,0.9817495225825349,1.3660837735071834
-4.287826414482273,-30.900242905289232,0.06420746023184143,34.777576272928975,-19.029709543325545,69.65104740414026,-0.802427542871248,-22.136569977066877,29.45434680800398,17.23547052926983,-18.6823772980321,-23.235770780524906,-31.28830149117761,-3.9291345480935678,-12.132881023898827,-33.46479984884958,-38.1899512698014,-18.695229276543042,-24.804692691964913,44.17187695067005,8.814110699151819,5.827364675263402,12.031388655704397,13.605249861855158,0.9817495225825349,1.3660837735071834
-13.667152640964023,-30.900242905289232,0.06420746023184143,34.777576272928975,-19.029709543325545,69.65104740414026,-8.305888524056646,-22.136569977066877,29.45434680800398,17.23547052926983,-24.68514608298042,-23.235770780524906,-31.28830149117761,-3.9291345480935678,-12.132881023898827,-33.46479984884958,-38.1899512698014,-18.695229276543042,-24.804692691964913,44.17187695067005,8.814110699151819,5.827364675263402,12.031388655704397,13.605249861855158,0.9817495225825349,1.3660837735071834
-36.775804730038956,-49.38716457654918,0.06420746023184143,34.777576272928975,-19.029709543325545,69.65104740414026,-8.305888524056646,-22.136569977066877,29.45434680800398,17.23547052926983,-24.68514608298042,-23.235770780524906,-31.28830149117761,-3.9291345480935678,-12.132881023898827,-33.46479984884958,-38.1899512698014,-18.695229276543042,-24.804692691964913,44.17187695067005,8.814110699151819,5.827364675263402,12.031388655704397,13.605249861855158,0.9817495225825349,1.3660837735071834
-25.807396511332744,-49.38716457654918,0.06420746023184143,34.777576272928975,-19.029709543325545,69.65104740414026,-8.305888524056646,-22.136569977066877,29.45434680800398,17.23547052926983,-24.68514608298042,-19.080967534420953,-31.28830149117761,-3.9291345480935678,-12.132881023898827,-28.844876519988567,-38.1899512698014,-15.371386679659881,-24.804692691964913,44.17187695067005,8.814110699151819,5.827364675263402,12.031388655704397,13.605249861855158,0.9817495225825349,5.062022436595997
-32.815591499438234,-49.38716457654918,0.06420746023184143,34.777576272928975,-19.029709543325545,69.65104740414026,-8.305888524056646,-22.136569977066877,29.45434680800398,17.23547052926983,-24.68514608298042,-19.080967534420953,-31.28830149117761,-3.9291345480935678,-12.132881023898827,-34.45143251047296,-38.1899512698014,-15.371386679659881,-24.804692691964913,44.17187695067005,8.814110699151819,5.827364675263402,12.031388655704397,13.605249861855158,0.9817495225825349,0.5767776442084811
-39.48178657212418,-49.38716457654918,0.06420746023184143,34.777576272928975,-19.029709543325545,69.65104740414026,-8.305888524056646,-22.136569977066877,29.45434680800398,17.23547052926983,-24.68514608298042,-19.080967534420953,-31.28830149117761,-3.9291345480935678,-12.132881023898827,-39.78438856862172,-38.1899512698014,-15.371386679659881,-24.804692691964913,44.17187695067005,8.814110699151819,5.827364675263402,12.031388655704397,13.605249861855158,0.9817495225825349,-3.6895872023105243
-54.00310375640008,-49.38716457654918,0.06420746023184143,34.777576272928975,-19.029709543325545,69.65104740414026,-8.305888524056646,-22.136569977066877,29.45434680800398,17.23547052926983,-24.68514608298042,-30.698021281841672,-31.28830149117761,-3.9291345480935678,-12.132881023898827,-39.78438856862172,-38.1899512698014,-24.665029677596454,-24.804692691964913,44.17187695067005,8.814110699151819,5.827364675263402,12.031388655704397,13.605249861855158,0.9817495225825349,-3.6895872023105243
-20.267860579790618,-49.38716457654918,0.06420746023184143,34.777576272928975,-19.029709543325545,69.65104740414026,-8.305888524056646,-22.136569977066877,29.45434680800398,17.23547052926983,-24.68514608298042,-12.906159464927274,-31.28830149117761,-3.9291345480935678,-12.132881023898827,-30.58805584424855,-38.1899512698014,-10.431540224064937,-24.804692691964913,44.17187695067005,8.814110699151819,5.827364675263402,12.031388655704397,13.605249861855158,0.9817495225825349,3.667478977188013
-24.559781588452825,-49.38716457654918,0.06420746023184143,34.777576272928975,-19.029709543325545,69.65104740414026,-8.305888524056646,-25.570106783996643,26.70751736246017,17.23547052926983,-24.68514608298042,-12.906159464927274,-31.28830149117761,-3.9291345480935678,-12.132881023898827,-30.58805584424855,-38.1899512698014,-10.431540224064937,-24.804692691964913,41.974413394235,8.814110699151819,4.069393830115362,12.031388655704397,13.605249861855158,0.9817495225825349,3.667478977188013
-26.65350765918685,-49.38716457654918,0.06420746023184143,34.777576272928975,-19.029709543325545,69.65104740414026,-8.305888524056646,-27.24508764058386,25.367532677190393,17.23547052926983,-24.68514608298042,-12.906159464927274,-31.28830149117761,-3.9291345480935678,-12.132881023898827,-30.58805584424855,-38.1899512698014,-10.431540224064937,-24.804692691964913,41.974413394235,8.814110699151819,2.997406081899541,12.031388655704397,13.605249861855158,0.9817495225825349,3.667478977188013
-19.92133865125038,-49.38716457654918,0.06420746023184143,34.777576272928975,-19.029709543325545,69.65104740414026,-8.305888524056646,-21.859352434234687,25.367532677190393,21.544058694349168,-21.238275550916946,-12.906159464927274,-31.28830149117761,-3.9291345480935678,-12.132881023898827,-30.58805584424855,-38.1899512698014,-10.431540224064937,-24.804692691964913,41.974413394235,8.814110699151819,2.997406081899541,12.031388655704397,13.605249861855158,0.9817495225825349,3.667478977188013
-20.396261457769132,-49.38716457654918,0.06420746023184143,34.777576272928975,-19.029709543325545,69.65104740414026,-8.305888524056646,-21.859352434234687,25.367532677190393,21.544058694349168,-21.238275550916946,-12.906159464927274,-31.28830149117761,-3.9291345480935678,-12.132881023898827,-30.58805584424855,-38.1899512698014,-10.431540224064937,-24.804692691964913,41.974413394235,8.814110699151819,2.997406081899541,12.031388655704397,13.605249861855158,0.9817495225825349,3.2875407319730106
-19.12056408404338,-49.38716457654918,0.06420746023184143,34.777576272928975,-19.029709543325545,69.65104740414026,-8.305888524056646,-21.859352434234687,25.367532677190393,21.544058694349168,-21.238275550916946,-12.906159464927274,-31.28830149117761,-3.9291345480935678,-12.132881023898827,-30.58805584424855,-38.1899512698014,-10.431540224064937,-24.804692691964913,41.974413394235,8.814110699151819,2.997406081899541,12.031388655704397,13.605249861855158,0.9817495225825349,4.308098630953612
-9.984609037356124,-49.38716457654918,0.06420746023184143,42.08634031027878,-19.029709543325545,69.65104740414026,-8.305888524056646,-16.012341204354843,25.367532677190393,21.544058694349168,-21.238275550916946,-12.906159464927274,-31.28830149117761,-3.9291345480935678,-12.132881023898827,-30.58805584424855,-38.1899512698014,-10.431540224064937,-24.804692691964913,41.974413394235,8.814110699151819,2.997406081899541,12.031388655704397,13.605249861855158,0.9817495225825349,4.308098630953612
-16.93951304476709,-49.38716457654918,0.06420746023184143,42.08634031027878,-19.029709543325545,64.08712419821148,-8.305888524056646,-16.012341204354843,25.367532677190393,21.544058694349168,-21.238275550916946,-12.906159464927274,-31.28830149117761,-3.9291345480935678,-12.132881023898827,-30.58805584424855,-38.1899512698014,-10.431540224064937,-24.804692691964913,41.974413394235,8.814110699151819,2.997406081899541,12.031388655704397,13.605249861855158,0.9817495225825349,4.308098630953612
-30.174412386412534,-49.38716457654918,0.06420746023184143,31.498420836962424,-19.029709543325545,64.08712419821148,-8.305888524056646,-24.482676783007925,25.367532677190393,21.544058694349168,-28.014544013839412,-12.906159464927274,-31.28830149117761,-3.9291345480935678,-12.132881023898827,-30.58805584424855,-38.1899512698014,-10.431540224064937,-24.804692691964913,41.974413394235,8.814110699151819,-2.4236086884384314,7.694576839434021,13.605249861855158,0.9817495225825349,4.308098630953612
-45.104170144904444,-49.38716457654918,0.06420746023184143,31.498420836962424,-19.029709543325545,64.08712419821148,-8.305888524056646,-24.482676783007925,25.367532677190393,21.544058694349168,-28.014544013839412,-24.849965671720803,-31.28830149117761,-3.9291345480935678,-12.132881023898827,-30.58805584424855,-38.1899512698014,-19.98658518949976,-24.804692691964913,41.974413394235,8.814110699151819,-2.4236086884384314,7.694576839434021,13.605249861855158,0.9817495225825349,4.308098630953612
-51.676487597740454,-49.38716457654918,0.06420746023184143,31.498420836962424,-19.029709543325545,64.08712419821148,-8.305888524056646,-24.482676783007925,25.367532677190393,21.544058694349168,-28.014544013839412,-24.849965671720803,-31.28830149117761,-3.9291345480935678,-12.132881023898827,-35.84590980651736,-38.1899512698014,-19.98658518949976,-24.804692691964913,41.974413394235,8.814110699151819,-2.4236086884384314,7.694576839434021,13.605249861855158,0.9817495225825349,0.1018154611385631
-34.71156850907929,-49.38716457654918,0.06420746023184143,31.498420836962424,-19.029709543325545,64.08712419821148,-8.305888524056646,-24.482676783007925,25.367532677190393,21.544058694349168,-28.014544013839412,-18.865323511690956,-31.28830149117761,-3.9291345480935678,-12.132881023898827,-28.25861669561828,-38.1899512698014,-15.198871461475884,-24.804692691964913,41.974413394235,8.814110699151819,-2.4236086884384314,7.694576839434021,13.605249861855158,0.9817495225825349,6.171649949857829
-41.5755978039825,-49.38716457654918,0.06420746023184143,31.498420836962424,-19.029709543325545,64.08712419821148,-8.305888524056646,-24.482676783007925,25.367532677190393,21.544058694349168,-28.014544013839412,-18.865323511690956,-31.28830149117761,-3.9291345480935678,-12.132881023898827,-33.74984013154084,-38.1899512698014,-15.198871461475884,-24.804692691964913,41.974413394235,8.814110699151819,-2.4236086884384314,7.694576839434021,13.605249861855158,0.9817495225825349,1.7786712011197778
-48.104662469294425,-49.38716457654918,0.06420746023184143,31.498420836962424,-19.029709543325545,64.08712419821148,-8.305888524056646,-24.482676783007925,25.367532677190393,21.544058694349168,-28.014544013839412,-18.865323511690956,-31.28830149117761,-3.9291345480935678,-12.132881023898827,-38.97309186379039,-38.1899512698014,-15.198871461475884,-24.804692691964913,41.974413394235,8.814110699151819,-2.4236086884384314,7.694576839434021,13.605249861855158,0.9817495225825349,-2.3999301846798575
-62.4612853204452,-49.38716457654918,0.06420746023184143,31.498420836962424,-19.029709543325545,64.08712419821148,-8.305888524056646,-24.482676783007925,25.367532677190393,21.544058694349168,-28.014544013839412,-30.350621792611577,-31.28830149117761,-3.9291345480935678,-12.132881023898827,-38.97309186379039,-38.1899512698014,-24.38711008621238,-24.804692691964913,41.974413394235,8.814110699151819,-2.4236086884384314,7.694576839434021,13.605249861855158,0.9817495225825349,-2.3999301846798575
