14.656590917383179,12.009678646251865,0.2497071811847178,0.6898954136925126,0.19021169018112694,0.5378338099586966,0.7846174874844924,0.40402830746278373,0.05088107616966819,0.7780107312055635,0.41844900847643574,0.9419982731255216,0.5005228549987984,0.04895129972730594,0.7767629143372511,0.5474037866316018,0.29692451440202483,0.420884593161693,0.2326228445215559,9.16260782826965,0.7028889233705458,0.5580180222583945,0.16413099207382142,0.4764610355737694,0.319903240309267,0.9246758399347875
-9.876734473889522,-7.616981666766298,0.2497071811847178,0.6898954136925126,0.19021169018112694,0.5378338099586966,0.7846174874844924,0.40402830746278373,0.05088107616966819,0.7780107312055635,0.41844900847643574,0.9419982731255216,0.5005228549987984,0.04895129972730594,0.7767629143372511,0.5474037866316018,0.29692451440202483,0.420884593161693,0.2326228445215559,9.16260782826965,0.7028889233705458,0.5580180222583945,0.16413099207382142,0.4764610355737694,0.319903240309267,0.9246758399347875
-10.497693301210427,-7.616981666766298,0.2497071811847178,0.6898954136925126,0.19021169018112694,0.5378338099586966,0.7846174874844924,0.40402830746278373,0.05088107616966819,0.7780107312055635,0.41844900847643574,0.9419982731255216,0.5005228549987984,0.04895129972730594,0.7767629143372511,0.5474037866316018,0.29692451440202483,0.420884593161693,0.2326228445215559,9.16260782826965,0.7028889233705458,0.5580180222583945,0.16413099207382142,0.4764610355737694,0.319903240309267,0.42790877807806316
-6.949987281246258,-7.616981666766298,0.2497071811847178,0.6898954136925126,0.19021169018112694,3.375998625930031,0.7846174874844924,0.40402830746278373,0.05088107616966819,0.7780107312055635,0.41844900847643574,0.9419982731255216,0.5005228549987984,0.04895129972730594,0.7767629143372511,0.5474037866316018,0.29692451440202483,0.420884593161693,0.2326228445215559,9.16260782826965,0.7028889233705458,0.5580180222583945,0.16413099207382142,0.4764610355737694,0.319903240309267,0.42790877807806316
-22.838245192947078,-7.616981666766298,0.2497071811847178,0.6898954136925126,0.19021169018112694,3.375998625930031,0.7846174874844924,0.40402830746278373,0.05088107616966819,0.7780107312055635,0.41844900847643574,-11.768608056235134,0.5005228549987984,0.04895129972730594,0.7767629143372511,0.5474037866316018,0.29692451440202483,-9.747600470326832,0.2326228445215559,9.16260782826965,0.7028889233705458,0.5580180222583945,0.16413099207382142,0.4764610355737694,0.319903240309267,0.42790877807806316
-30.40098654038233,-7.616981666766298,0.2497071811847178,0.6898954136925126,0.19021169018112694,3.375998625930031,0.7846174874844924,0.40402830746278373,0.05088107616966819,0.7780107312055635,0.41844900847643574,-11.768608056235134,0.5005228549987984,0.04895129972730594,0.7767629143372511,-5.502789291316599,0.29692451440202483,-9.747600470326832,0.2326228445215559,9.16260782826965,0.7028889233705458,0.5580180222583945,0.16413099207382142,0.4764610355737694,0.319903240309267,-4.4122456842804985
-25.862023065630332,-7.616981666766298,0.2497071811847178,0.6898954136925126,0.19021169018112694,3.375998625930031,0.7846174874844924,4.035199087264383,2.955817700010948,0.7780107312055635,0.41844900847643574,-11.768608056235134,0.5005228549987984,0.04895129972730594,0.7767629143372511,-5.502789291316599,0.29692451440202483,-9.747600470326832,0.2326228445215559,9.16260782826965,0.7028889233705458,0.5580180222583945,0.16413099207382142,0.4764610355737694,0.319903240309267,-4.4122456842804985
-12.157976983941877,-7.616981666766298,0.2497071811847178,0.6898954136925126,0.19021169018112694,3.375998625930031,0.7846174874844924,14.998435952615145,11.726407192291559,7.794482325030051,0.41844900847643574,-11.768608056235134,0.5005228549987984,0.04895129972730594,0.7767629143372511,-5.502789291316599,0.29692451440202483,-9.747600470326832,0.2326228445215559,9.16260782826965,0.7028889233705458,0.5580180222583945,0.16413099207382142,0.4764610355737694,0.319903240309267,-4.4122456842804985
-17.222314862419758,4.336488388429727,0.2497071811847178,-15.315044944285821,0.19021169018112694,3.375998625930031,0.7846174874844924,2.194483666232477,11.726407192291559,7.794482325030051,0.41844900847643574,-11.768608056235134,-9.742638974107335,0.04895129972730594,0.7767629143372511,-5.502789291316599,0.29692451440202483,-9.747600470326832,0.2326228445215559,18.72538387242647,0.7028889233705458,0.5580180222583945,0.16413099207382142,0.4764610355737694,0.319903240309267,-4.4122456842804985
-40.96459833293996,-14.657338387986437,0.2497071811847178,-15.315044944285821,0.19021169018112694,3.375998625930031,0.7846174874844924,2.194483666232477,11.726407192291559,7.794482325030051,0.41844900847643574,-11.768608056235134,-9.742638974107335,0.04895129972730594,0.7767629143372511,-5.502789291316599,0.29692451440202483,-9.747600470326832,0.2326228445215559,18.72538387242647,0.7028889233705458,0.5580180222583945,0.16413099207382142,0.4764610355737694,0.319903240309267,-4.4122456842804985
-35.11474573693284,-14.657338387986437,0.2497071811847178,-15.315044944285821,0.19021169018112694,8.055880702735728,0.7846174874844924,2.194483666232477,11.726407192291559,7.794482325030051,0.41844900847643574,-11.768608056235134,-9.742638974107335,0.04895129972730594,0.7767629143372511,-5.502789291316599,0.29692451440202483,-9.747600470326832,0.2326228445215559,18.72538387242647,0.7028889233705458,0.5580180222583945,0.16413099207382142,0.4764610355737694,0.319903240309267,-4.4122456842804985
-31.777070206120612,-14.657338387986437,0.2497071811847178,-15.315044944285821,0.19021169018112694,8.055880702735728,0.7846174874844924,4.864624090882257,13.862519532011383,7.794482325030051,0.41844900847643574,-11.768608056235134,-9.742638974107335,0.04895129972730594,0.7767629143372511,-5.502789291316599,0.29692451440202483,-9.747600470326832,0.2326228445215559,18.72538387242647,0.7028889233705458,0.5580180222583945,0.16413099207382142,0.4764610355737694,0.319903240309267,-4.4122456842804985
-29.856594995886674,-14.657338387986437,0.2497071811847178,-15.315044944285821,0.19021169018112694,8.055880702735728,2.3209976556716434,4.864624090882257,13.862519532011383,9.023586459579771,1.4017323161162119,-11.768608056235134,-9.742638974107335,0.04895129972730594,0.7767629143372511,-5.502789291316599,0.29692451440202483,-9.747600470326832,0.2326228445215559,18.72538387242647,0.7028889233705458,0.5580180222583945,0.16413099207382142,0.4764610355737694,0.319903240309267,-4.4122456842804985
-40.14784121644468,-14.657338387986437,0.2497071811847178,-15.315044944285821,0.19021169018112694,8.055880702735728,2.3209976556716434,-3.368372885564149,13.862519532011383,9.023586459579771,1.4017323161162119,-11.768608056235134,-9.742638974107335,-6.537446281429818,0.7767629143372511,-5.502789291316599,0.29692451440202483,-9.747600470326832,0.2326228445215559,18.72538387242647,0.7028889233705458,0.5580180222583945,0.16413099207382142,0.4764610355737694,0.319903240309267,-4.4122456842804985
-40.4883519015598,-14.657338387986437,0.2497071811847178,-15.315044944285821,0.19021169018112694,8.055880702735728,2.048589107579546,-3.368372885564149,13.862519532011383,8.805659621106093,1.2273908453372684,-11.768608056235134,-9.742638974107335,-6.537446281429818,0.7767629143372511,-5.502789291316599,0.29692451440202483,-9.747600470326832,0.2326228445215559,18.72538387242647,0.7028889233705458,0.5580180222583945,0.16413099207382142,0.4764610355737694,0.319903240309267,-4.4122456842804985
-61.35342430533287,-31.349396311004888,0.2497071811847178,-15.315044944285821,0.19021169018112694,8.055880702735728,2.048589107579546,-3.368372885564149,13.862519532011383,8.805659621106093,1.2273908453372684,-11.768608056235134,-9.742638974107335,-6.537446281429818,0.7767629143372511,-5.502789291316599,0.29692451440202483,-9.747600470326832,0.2326228445215559,18.72538387242647,0.7028889233705458,0.5580180222583945,0.16413099207382142,0.4764610355737694,0.319903240309267,-4.4122456842804985
-60.202622715620954,-31.349396311004888,0.2497071811847178,-15.315044944285821,0.19021169018112694,8.055880702735728,2.048589107579546,-2.447731613794615,13.862519532011383,8.805659621106093,1.2273908453372684,-11.768608056235134,-9.742638974107335,-6.537446281429818,0.7767629143372511,-5.502789291316599,0.29692451440202483,-9.747600470326832,0.2326228445215559,18.72538387242647,0.7028889233705458,0.5580180222583945,0.16413099207382142,0.4764610355737694,0.319903240309267,-4.4122456842804985
-55.35508457657666,-31.349396311004888,0.2497071811847178,-15.315044944285821,0.19021169018112694,11.933911213971161,2.048589107579546,-2.447731613794615,13.862519532011383,8.805659621106093,1.2273908453372684,-11.768608056235134,-9.742638974107335,-6.537446281429818,0.7767629143372511,-5.502789291316599,0.29692451440202483,-9.747600470326832,0.2326228445215559,18.72538387242647,0.7028889233705458,0.5580180222583945,0.16413099207382142,0.4764610355737694,0.319903240309267,-4.4122456842804985
-49.86694091356211,-31.349396311004888,0.2497071811847178,-15.315044944285821,0.19021169018112694,11.933911213971161,2.048589107579546,1.9427833166170232,17.37493147634069,8.805659621106093,1.2273908453372684,-11.768608056235134,-9.742638974107335,-6.537446281429818,0.7767629143372511,-5.502789291316599,0.29692451440202483,-9.747600470326832,0.2326228445215559,18.72538387242647,0.7028889233705458,0.5580180222583945,0.16413099207382142,0.4764610355737694,0.319903240309267,-4.4122456842804985
-41.87711754934253,-31.349396311004888,0.2497071811847178,-15.315044944285821,0.19021169018112694,11.933911213971161,8.440447798955212,1.9427833166170232,22.488418429441225,8.805659621106093,1.2273908453372684,-11.768608056235134,-9.742638974107335,-6.537446281429818,0.7767629143372511,-5.502789291316599,0.29692451440202483,-9.747600470326832,0.2326228445215559,18.72538387242647,0.7028889233705458,0.5580180222583945,0.16413099207382142,0.4764610355737694,0.319903240309267,-4.4122456842804985
-36.143180501477744,-31.349396311004888,0.2497071811847178,-15.315044944285821,0.19021169018112694,11.933911213971161,8.440447798955212,6.529932954908849,26.158138140074684,8.805659621106093,1.2273908453372684,-11.768608056235134,-9.742638974107335,-6.537446281429818,0.7767629143372511,-5.502789291316599,0.29692451440202483,-9.747600470326832,0.2326228445215559,18.72538387242647,0.7028889233705458,0.5580180222583945,0.16413099207382142,0.4764610355737694,0.319903240309267,-4.4122456842804985
-30.713267257836605,-31.349396311004888,0.2497071811847178,-15.315044944285821,0.19021169018112694,11.933911213971161,8.440447798955212,10.87386354982176,29.633282616005012,11.585775201850357,1.2273908453372684,-11.768608056235134,-9.742638974107335,-6.537446281429818,0.7767629143372511,-5.502789291316599,0.29692451440202483,-9.747600470326832,0.2326228445215559,18.72538387242647,0.7028889233705458,0.5580180222583945,0.16413099207382142,0.4764610355737694,0.319903240309267,-4.4122456842804985
-30.810756998994265,-31.349396311004888,0.2497071811847178,-15.315044944285821,0.19021169018112694,11.933911213971161,8.440447798955212,10.87386354982176,29.633282616005012,11.585775201850357,1.2273908453372684,-11.768608056235134,-9.742638974107335,-6.537446281429818,0.7767629143372511,-5.502789291316599,0.29692451440202483,-9.747600470326832,0.2326228445215559,18.72538387242647,0.7028889233705458,0.5580180222583945,0.16413099207382142,0.4764610355737694,0.319903240309267,-4.490237477206624
-28.51477203692105,-31.349396311004888,0.2497071811847178,-13.478256974627246,0.19021169018112694,11.933911213971161,8.440447798955212,12.343293925548618,29.633282616005012,11.585775201850357,1.2273908453372684,-11.768608056235134,-9.742638974107335,-6.537446281429818,0.7767629143372511,-5.502789291316599,0.29692451440202483,-9.747600470326832,0.2326228445215559,18.72538387242647,0.7028889233705458,0.5580180222583945,0.16413099207382142,0.4764610355737694,0.319903240309267,-4.490237477206624
-31.903073700813767,-31.349396311004888,0.2497071811847178,-13.478256974627246,-2.520429640933049,11.933911213971161,8.440447798955212,10.174780860657277,29.633282616005012,11.585775201850357,1.2273908453372684,-11.768608056235134,-9.742638974107335,-6.537446281429818,0.7767629143372511,-5.502789291316599,0.29692451440202483,-9.747600470326832,0.2326228445215559,18.72538387242647,0.7028889233705458,0.5580180222583945,0.16413099207382142,0.4764610355737694,0.319903240309267,-4.490237477206624
-25.712429299225416,-31.349396311004888,0.2497071811847178,-13.478256974627246,-2.520429640933049,16.88642673524184,8.440447798955212,10.174780860657277,29.633282616005012,11.585775201850357,1.2273908453372684,-11.768608056235134,-9.742638974107335,-6.537446281429818,0.7767629143372511,-5.502789291316599,0.29692451440202483,-9.747600470326832,0.2326228445215559,18.72538387242647,0.7028889233705458,0.5580180222583945,0.16413099207382142,0.4764610355737694,0.319903240309267,-4.490237477206624
-21.23695679438798,-31.349396311004888,0.2497071811847178,-9.897878970757299,-2.520429640933049,16.88642673524184,8.440447798955212,13.039083263753236,31.92472453848178,11.585775201850357,1.2273908453372684,-11.768608056235134,-9.742638974107335,-6.537446281429818,0.7767629143372511,-5.502789291316599,0.29692451440202483,-9.747600470326832,0.2326228445215559,18.72538387242647,0.7028889233705458,0.5580180222583945,0.16413099207382142,0.4764610355737694,0.319903240309267,-4.490237477206624
-12.193809142170169,-31.349396311004888,0.2497071811847178,-2.663360848983051,-2.520429640933049,16.88642673524184,14.22806229637461,13.039083263753236,36.5548161364173,11.585775201850357,1.2273908453372684,-11.768608056235134,-9.742638974107335,-6.537446281429818,0.7767629143372511,-5.502789291316599,0.29692451440202483,-9.747600470326832,0.2326228445215559,18.72538387242647,0.7028889233705458,0.5580180222583945,0.16413099207382142,0.4764610355737694,0.319903240309267,-4.490237477206624
-6.003104194017449,-31.349396311004888,0.2497071811847178,2.289203109539125,-2.520429640933049,16.88642673524184,14.22806229637461,17.001134430570975,39.72445706987149,11.585775201850357,1.2273908453372684,-11.768608056235134,-9.742638974107335,-6.537446281429818,0.7767629143372511,-5.502789291316599,0.29692451440202483,-9.747600470326832,0.2326228445215559,18.72538387242647,0.7028889233705458,0.5580180222583945,0.16413099207382142,0.4764610355737694,0.319903240309267,-4.490237477206624
-4.791099512786446,-31.349396311004888,0.2497071811847178,3.2588068545239257,-2.520429640933049,16.88642673524184,14.22806229637461,17.776817426558818,40.345003466661765,12.082212319282574,1.2273908453372684,-11.768608056235134,-9.742638974107335,-6.537446281429818,0.7767629143372511,-5.502789291316599,0.29692451440202483,-9.747600470326832,0.2326228445215559,18.72538387242647,0.7028889233705458,0.5580180222583945,0.16413099207382142,0.4764610355737694,0.319903240309267,-4.490237477206624
-0.47486353643732926,-31.349396311004888,0.2497071811847178,6.711795635603219,-2.520429640933049,16.88642673524184,14.22806229637461,17.776817426558818,40.345003466661765,12.082212319282574,1.2273908453372684,-11.768608056235134,-9.742638974107335,-6.537446281429818,0.7767629143372511,-5.502789291316599,0.29692451440202483,-9.747600470326832,0.2326228445215559,18.72538387242647,0.7028889233705458,0.5580180222583945,0.16413099207382142,0.4764610355737694,0.319903240309267,-4.490237477206624
1.5791128445067102,-31.349396311004888,0.2497071811847178,8.35497674035845,-2.520429640933049,16.88642673524184,14.22806229637461,19.091362310363003,40.345003466661765,12.082212319282574,1.2273908453372684,-11.768608056235134,-9.742638974107335,-6.537446281429818,0.7767629143372511,-5.502789291316599,0.29692451440202483,-9.747600470326832,0.2326228445215559,18.72538387242647,0.7028889233705458,0.5580180222583945,0.16413099207382142,1.5280969426171174,0.319903240309267,-4.490237477206624
2.208204459554912,-31.349396311004888,0.2497071811847178,8.858250032397013,-2.520429640933049,16.88642673524184,14.22806229637461,19.493980943993854,40.345003466661765,12.082212319282574,1.2273908453372684,-11.768608056235134,-9.742638974107335,-6.537446281429818,0.7767629143372511,-5.502789291316599,0.29692451440202483,-9.747600470326832,0.2326228445215559,18.72538387242647,0.7028889233705458,0.5580180222583945,0.48622589897850105,1.5280969426171174,0.319903240309267,-4.490237477206624
-0.6751336710694562,-31.349396311004888,0.2497071811847178,8.858250032397013,-4.827100145432543,16.88642673524184,14.22806229637461,17.64864454039426,40.345003466661765,12.082212319282574,1.2273908453372684,-11.768608056235134,-9.742638974107335,-6.537446281429818,0.7767629143372511,-5.502789291316599,0.29692451440202483,-9.747600470326832,0.2326228445215559,18.72538387242647,0.7028889233705458,0.5580180222583945,0.48622589897850105,1.5280969426171174,0.319903240309267,-4.490237477206624
0.16066334894113987,-31.349396311004888,0.2497071811847178,9.52688764840549,-4.827100145432543,16.88642673524184,14.76297238918139,17.64864454039426,40.345003466661765,12.082212319282574,1.2273908453372684,-11.768608056235134,-9.742638974107335,-6.537446281429818,0.7767629143372511,-5.502789291316599,0.29692451440202483,-9.747600470326832,0.2326228445215559,18.72538387242647,0.7028889233705458,0.5580180222583945,0.48622589897850105,1.5280969426171174,0.319903240309267,-4.490237477206624
9.550143350006177,-31.349396311004888,0.2497071811847178,9.52688764840549,-4.827100145432543,24.39801073609387,14.76297238918139,17.64864454039426,40.345003466661765,12.082212319282574,1.2273908453372684,-11.768608056235134,-9.742638974107335,-6.537446281429818,0.7767629143372511,-5.502789291316599,0.29692451440202483,-9.747600470326832,0.2326228445215559,18.72538387242647,0.7028889233705458,0.5580180222583945,0.48622589897850105,1.5280969426171174,0.319903240309267,-4.490237477206624
13.739485769422306,-31.349396311004888,0.2497071811847178,9.52688764840549,-1.47562620989964,24.39801073609387,14.76297238918139,20.329823688820582,42.48994678540282,12.082212319282574,1.2273908453372684,-11.768608056235134,-9.742638974107335,-6.537446281429818,0.7767629143372511,-5.502789291316599,0.29692451440202483,-9.747600470326832,0.2326228445215559,18.72538387242647,0.7028889233705458,0.5580180222583945,0.48622589897850105,1.5280969426171174,0.319903240309267,-4.490237477206624
14.67602180760338,-31.349396311004888,0.2497071811847178,9.52688764840549,-1.47562620989964,24.39801073609387,14.76297238918139,21.07905251936544,43.089329849838705,12.561718770831284,1.2273908453372684,-11.768608056235134,-9.742638974107335,-6.537446281429818,0.7767629143372511,-5.502789291316599,0.29692451440202483,-9.747600470326832,0.2326228445215559,18.72538387242647,0.7028889233705458,0.5580180222583945,0.48622589897850105,1.5280969426171174,0.319903240309267,-4.490237477206624
15.519261589080742,-31.349396311004888,0.2497071811847178,9.52688764840549,-0.8010343847177492,24.39801073609387,15.302645849326902,21.07905251936544,43.089329849838705,12.561718770831284,1.2273908453372684,-11.768608056235134,-9.742638974107335,-6.537446281429818,0.7767629143372511,-5.502789291316599,0.29692451440202483,-9.747600470326832,0.2326228445215559,18.72538387242647,0.7028889233705458,0.5580180222583945,0.48622589897850105,1.5280969426171174,0.319903240309267,-4.490237477206624
11.403355917055688,-31.349396311004888,0.2497071811847178,9.52688764840549,-0.8010343847177492,24.39801073609387,15.302645849326902,17.786327981745398,43.089329849838705,12.561718770831284,1.2273908453372684,-11.768608056235134,-9.742638974107335,-6.537446281429818,0.7767629143372511,-5.502789291316599,0.29692451440202483,-9.747600470326832,0.2326228445215559,18.72538387242647,0.7028889233705458,0.5580180222583945,0.48622589897850105,1.5280969426171174,0.319903240309267,-4.490237477206624
11.431558249893666,-31.349396311004888,0.2497071811847178,9.52688764840549,-0.7784725184473662,24.39801073609387,15.320695342343209,17.786327981745398,43.089329849838705,12.561718770831284,1.2273908453372684,-11.768608056235134,-9.742638974107335,-6.537446281429818,0.7767629143372511,-5.502789291316599,0.29692451440202483,-9.747600470326832,0.2326228445215559,18.72538387242647,0.7028889233705458,0.5580180222583945,0.48622589897850105,1.5280969426171174,0.319903240309267,-4.490237477206624
5.557016908177302,-31.349396311004888,4.949340254557809,9.52688764840549,-0.7784725184473662,24.39801073609387,15.320695342343209,14.026621523046925,43.089329849838705,12.561718770831284,1.2273908453372684,-11.768608056235134,-9.742638974107335,-6.537446281429818,0.7767629143372511,-5.502789291316599,0.29692451440202483,-9.747600470326832,0.2326228445215559,18.72538387242647,0.7028889233705458,0.5580180222583945,0.48622589897850105,1.5280969426171174,0.319903240309267,-4.490237477206624
1.9539719307156216,-31.349396311004888,4.949340254557809,9.52688764840549,-3.660908500416711,24.39801073609387,15.320695342343209,11.72067273747145,43.089329849838705,12.561718770831284,1.2273908453372684,-11.768608056235134,-9.742638974107335,-6.537446281429818,0.7767629143372511,-5.502789291316599,0.29692451440202483,-9.747600470326832,0.2326228445215559,18.72538387242647,0.7028889233705458,0.5580180222583945,0.48622589897850105,1.5280969426171174,0.319903240309267,-4.490237477206624
2.3495150551794364,-31.349396311004888,4.949340254557809,9.52688764840549,-3.660908500416711,24.39801073609387,15.63712984191426,11.72067273747145,43.089329849838705,12.561718770831284,1.2273908453372684,-11.768608056235134,-9.742638974107335,-6.537446281429818,0.7767629143372511,-5.502789291316599,0.29692451440202483,-9.747600470326832,0.2326228445215559,18.72538387242647,0.7028889233705458,0.5580180222583945,0.48622589897850105,1.5280969426171174,0.319903240309267,-4.490237477206624
-13.271876142253618,-43.84650926895133,4.949340254557809,9.52688764840549,-3.660908500416711,24.39801073609387,15.63712984191426,11.72067273747145,43.089329849838705,12.561718770831284,1.2273908453372684,-11.768608056235134,-9.742638974107335,-6.537446281429818,0.7767629143372511,-5.502789291316599,0.29692451440202483,-9.747600470326832,0.2326228445215559,18.72538387242647,0.7028889233705458,0.5580180222583945,0.48622589897850105,1.5280969426171174,0.319903240309267,-4.490237477206624
-11.010040955211158,-43.84650926895133,4.949340254557809,9.52688764840549,-1.8514403507827435,24.39801073609387,17.084704361621434,11.72067273747145,43.089329849838705,12.561718770831284,1.2273908453372684,-11.768608056235134,-9.742638974107335,-6.537446281429818,0.7767629143372511,-5.502789291316599,0.29692451440202483,-9.747600470326832,0.2326228445215559,18.72538387242647,0.7028889233705458,0.5580180222583945,0.48622589897850105,1.5280969426171174,0.319903240309267,-4.490237477206624
-2.60364181760988,-43.84650926895133,4.949340254557809,9.52688764840549,-1.8514403507827435,31.123130046174893,17.084704361621434,11.72067273747145,43.089329849838705,12.561718770831284,1.2273908453372684,-11.768608056235134,-9.742638974107335,-6.537446281429818,0.7767629143372511,-5.502789291316599,0.29692451440202483,-9.747600470326832,0.2326228445215559,18.72538387242647,0.7028889233705458,0.5580180222583945,0.48622589897850105,1.5280969426171174,0.319903240309267,-4.490237477206624
-0.18102829614477756,-43.84650926895133,4.949340254557809,9.52688764840549,-1.8514403507827435,31.123130046174893,17.084704361621434,13.658763554643532,44.63980250357637,12.561718770831284,1.2273908453372684,-11.768608056235134,-9.742638974107335,-6.537446281429818,0.7767629143372511,-5.502789291316599,0.29692451440202483,-9.747600470326832,0.2326228445215559,18.72538387242647,0.7028889233705458,0.5580180222583945,0.48622589897850105,1.5280969426171174,0.319903240309267,-4.490237477206624
2.944280734397054,-43.84650926895133,4.949340254557809,9.52688764840549,0.6488068736507207,31.123130046174893,17.084704361621434,15.658961334190304,46.239960727213784,12.561718770831284,1.2273908453372684,-11.768608056235134,-9.742638974107335,-6.537446281429818,0.7767629143372511,-5.502789291316599,0.29692451440202483,-9.747600470326832,0.2326228445215559,18.72538387242647,0.7028889233705458,0.5580180222583945,0.48622589897850105,1.5280969426171174,0.319903240309267,-4.490237477206624
11.009768252223848,-43.84650926895133,4.949340254557809,15.979277662666924,0.6488068736507207,31.123130046174893,17.084704361621434,15.658961334190304,51.401872738622934,16.6912483799586,1.2273908453372684,-11.768608056235134,-9.742638974107335,-6.537446281429818,0.7767629143372511,-5.502789291316599,0.29692451440202483,-9.747600470326832,0.2326228445215559,18.72538387242647,0.7028889233705458,0.5580180222583945,0.48622589897850105,1.5280969426171174,0.319903240309267,-4.490237477206624
12.271659501756002,-43.84650926895133,4.949340254557809,16.988790662292647,0.6488068736507207,31.123130046174893,17.892314761322012,15.658961334190304,51.401872738622934,16.6912483799586,1.2273908453372684,-11.768608056235134,-9.742638974107335,-6.537446281429818,0.7767629143372511,-5.502789291316599,0.29692451440202483,-9.747600470326832,0.2326228445215559,18.72538387242647,0.7028889233705458,0.5580180222583945,0.48622589897850105,1.5280969426171174,0.319903240309267,-4.490237477206624
10.173271271791222,-43.84650926895133,4.949340254557809,15.310080078320823,0.6488068736507207,31.123130046174893,17.892314761322012,14.315992867012845,51.401872738622934,16.6912483799586,1.2273908453372684,-11.768608056235134,-9.742638974107335,-6.537446281429818,0.7767629143372511,-5.502789291316599,0.29692451440202483,-9.747600470326832,0.2326228445215559,18.72538387242647,0.7028889233705458,0.5580180222583945,0.48622589897850105,1.5280969426171174,0.319903240309267,-4.490237477206624
8.446754665600144,-43.84650926895133,4.949340254557809,13.92886679336796,0.6488068736507207,31.123130046174893,17.892314761322012,13.211022239050555,51.401872738622934,16.6912483799586,1.2273908453372684,-11.768608056235134,-9.742638974107335,-6.537446281429818,0.7767629143372511,-5.502789291316599,0.29692451440202483,-9.747600470326832,0.2326228445215559,18.72538387242647,0.7028889233705458,0.5580180222583945,0.48622589897850105,1.5280969426171174,0.319903240309267,-4.490237477206624
19.478231343656756,-43.84650926895133,4.949340254557809,13.92886679336796,0.6488068736507207,39.94831138862018,17.892314761322012,13.211022239050555,51.401872738622934,16.6912483799586,1.2273908453372684,-11.768608056235134,-9.742638974107335,-6.537446281429818,0.7767629143372511,-5.502789291316599,0.29692451440202483,-9.747600470326832,0.2326228445215559,18.72538387242647,0.7028889233705458,0.5580180222583945,0.48622589897850105,1.5280969426171174,0.319903240309267,-4.490237477206624
24.230175516017987,-43.84650926895133,4.949340254557809,17.730422131256944,0.6488068736507207,39.94831138862018,17.892314761322012,16.252266509361746,53.834868154871884,16.6912483799586,1.2273908453372684,-11.768608056235134,-9.742638974107335,-6.537446281429818,0.7767629143372511,-5.502789291316599,0.29692451440202483,-9.747600470326832,0.2326228445215559,18.72538387242647,0.7028889233705458,0.5580180222583945,2.432622231977664,1.5280969426171174,0.319903240309267,-4.490237477206624
27.73527788333249,-43.84650926895133,4.949340254557809,17.730422131256944,3.452888767502323,39.94831138862018,17.892314761322012,18.49553202444303,55.62948056693691,16.6912483799586,1.2273908453372684,-11.768608056235134,-9.742638974107335,-6.537446281429818,0.7767629143372511,-5.502789291316599,0.29692451440202483,-9.747600470326832,0.2326228445215559,18.72538387242647,0.7028889233705458,0.5580180222583945,2.432622231977664,1.5280969426171174,0.319903240309267,-4.490237477206624
27.13883501856188,-43.84650926895133,4.949340254557809,17.730422131256944,2.975734475685836,39.94831138862018,17.892314761322012,18.113808590989837,55.32410182017436,16.446945382548563,1.2273908453372684,-11.768608056235134,-9.742638974107335,-6.537446281429818,0.7767629143372511,-5.502789291316599,0.29692451440202483,-9.747600470326832,0.2326228445215559,18.72538387242647,0.7028889233705458,0.5580180222583945,2.432622231977664,1.5280969426171174,0.319903240309267,-4.490237477206624
28.32347246967927,-43.84650926895133,4.949340254557809,18.678132092150854,2.975734475685836,39.94831138862018,18.650482730037144,18.113808590989837,55.32410182017436,16.446945382548563,1.2273908453372684,-11.768608056235134,-9.742638974107335,-6.537446281429818,0.7767629143372511,-5.502789291316599,0.29692451440202483,-9.747600470326832,0.2326228445215559,18.72538387242647,0.7028889233705458,0.5580180222583945,2.432622231977664,1.5280969426171174,0.319903240309267,-4.490237477206624
25.82116420662287,-43.84650926895133,4.949340254557809,16.676285481705733,2.975734475685836,39.94831138862018,18.650482730037144,16.512331302633743,55.32410182017436,16.446945382548563,1.2273908453372684,-11.768608056235134,-9.742638974107335,-6.537446281429818,0.7767629143372511,-5.502789291316599,0.29692451440202483,-9.747600470326832,0.2326228445215559,18.72538387242647,0.7028889233705458,0.5580180222583945,2.432622231977664,1.5280969426171174,0.319903240309267,-4.490237477206624
23.825835843736236,-43.84650926895133,4.949340254557809,15.080022791396424,2.975734475685836,39.94831138862018,18.650482730037144,15.235321150386298,55.32410182017436,16.446945382548563,1.2273908453372684,-11.768608056235134,-9.742638974107335,-6.537446281429818,0.7767629143372511,-5.502789291316599,0.29692451440202483,-9.747600470326832,0.2326228445215559,18.72538387242647,0.7028889233705458,0.5580180222583945,2.432622231977664,1.5280969426171174,0.319903240309267,-4.490237477206624
25.349766466103922,-43.84650926895133,4.949340254557809,16.299167289290573,2.975734475685836,39.94831138862018,19.625798328352463,15.235321150386298,55.32410182017436,16.446945382548563,1.2273908453372684,-11.768608056235134,-9.742638974107335,-6.537446281429818,0.7767629143372511,-5.502789291316599,0.29692451440202483,-9.747600470326832,0.2326228445215559,18.72538387242647,0.7028889233705458,0.5580180222583945,2.432622231977664,1.5280969426171174,0.319903240309267,-4.490237477206624
30.74285467468145,-43.84650926895133,4.949340254557809,20.613637856152597,2.975734475685836,39.94831138862018,23.07737478184208,15.235321150386298,55.32410182017436,16.446945382548563,1.2273908453372684,-11.768608056235134,-9.742638974107335,-6.537446281429818,0.7767629143372511,-5.502789291316599,0.29692451440202483,-9.747600470326832,0.2326228445215559,18.72538387242647,0.7028889233705458,0.5580180222583945,2.432622231977664,4.289358105408812,0.319903240309267,-4.490237477206624
38.574663643788156,-43.84650926895133,4.949340254557809,20.613637856152597,2.975734475685836,46.21375856390554,23.07737478184208,15.235321150386298,55.32410182017436,16.446945382548563,1.2273908453372684,-11.768608056235134,-9.742638974107335,-6.537446281429818,0.7767629143372511,-5.502789291316599,0.29692451440202483,-9.747600470326832,0.2326228445215559,18.72538387242647,0.7028889233705458,0.5580180222583945,2.432622231977664,4.289358105408812,0.319903240309267,-4.490237477206624
38.73246722198746,-43.84650926895133,4.949340254557809,20.613637856152597,3.1019773382452787,46.21375856390554,23.07737478184208,15.336315440433854,55.40489725221241,16.446945382548563,1.2273908453372684,-11.768608056235134,-9.742638974107335,-6.537446281429818,0.7767629143372511,-5.502789291316599,0.29692451440202483,-9.747600470326832,0.2326228445215559,18.72538387242647,0.7028889233705458,0.5580180222583945,2.432622231977664,4.289358105408812,0.319903240309267,-4.490237477206624
39.08086746651053,-43.84650926895133,4.949340254557809,20.613637856152597,3.380697533863732,46.21375856390554,23.07737478184208,15.559291596928617,55.58327817740822,16.446945382548563,1.2273908453372684,-11.768608056235134,-9.742638974107335,-6.537446281429818,0.7767629143372511,-5.502789291316599,0.29692451440202483,-9.747600470326832,0.2326228445215559,18.72538387242647,0.7028889233705458,0.5580180222583945,2.432622231977664,4.289358105408812,0.319903240309267,-4.490237477206624
44.468010524551545,-43.84650926895133,4.949340254557809,20.613637856152597,7.690411980296542,46.21375856390554,23.07737478184208,15.559291596928617,59.031049734554465,19.205162628265562,1.2273908453372684,-11.768608056235134,-9.742638974107335,-6.537446281429818,0.7767629143372511,-5.502789291316599,0.29692451440202483,-9.747600470326832,0.2326228445215559,18.72538387242647,0.7028889233705458,0.5580180222583945,2.432622231977664,4.289358105408812,0.319903240309267,-4.490237477206624
20.85344916247583,-43.84650926895133,4.949340254557809,-7.773194606562605,7.690411980296542,46.21375856390554,23.07737478184208,-7.150174373243544,59.031049734554465,19.205162628265562,1.2273908453372684,-2.2734246831805027,-9.742638974107335,-6.537446281429818,-17.390809861800477,-5.502789291316599,0.29692451440202483,-2.1514537718831264,0.2326228445215559,18.72538387242647,0.7028889233705458,0.5580180222583945,2.432622231977664,4.289358105408812,0.319903240309267,-4.490237477206624
3.2338721573936944,-43.84650926895133,4.949340254557809,-7.773194606562605,7.690411980296542,46.21375856390554,8.981713177776372,-7.150174373243544,59.031049734554465,19.205162628265562,-10.049138437915298,-2.2734246831805027,-9.742638974107335,-6.537446281429818,-17.390809861800477,-5.502789291316599,0.29692451440202483,-2.1514537718831264,0.2326228445215559,9.704160445824417,0.7028889233705458,0.5580180222583945,2.432622231977664,4.289358105408812,0.319903240309267,-4.490237477206624
-12.742307716652908,-43.84650926895133,4.949340254557809,-7.773194606562605,7.690411980296542,46.21375856390554,8.981713177776372,-7.150174373243544,59.031049734554465,19.205162628265562,-10.049138437915298,-15.054368582417784,-9.742638974107335,-6.537446281429818,-17.390809861800477,-5.502789291316599,0.29692451440202483,-12.376208891272952,0.2326228445215559,9.704160445824417,0.7028889233705458,0.5580180222583945,2.432622231977664,4.289358105408812,0.319903240309267,-4.490237477206624
-20.287601026949385,-43.84650926895133,4.949340254557809,-7.773194606562605,7.690411980296542,46.21375856390554,8.981713177776372,-7.150174373243544,59.031049734554465,19.205162628265562,-10.049138437915298,-15.054368582417784,-9.742638974107335,-6.537446281429818,-17.390809861800477,-11.53902393955378,0.29692451440202483,-12.376208891272952,0.2326228445215559,9.704160445824417,0.7028889233705458,0.5580180222583945,2.432622231977664,4.289358105408812,0.319903240309267,-9.319225195796367
-5.060596162220463,-43.84650926895133,4.949340254557809,-7.773194606562605,7.690411980296542,46.21375856390554,8.981713177776372,-8.433886478884071,59.031049734554465,19.205162628265562,-10.049138437915298,-1.5890525849941177,-9.742638974107335,-6.537446281429818,-17.390809861800477,-12.565993624066202,0.29692451440202483,-1.6039560933340216,0.2326228445215559,9.704160445824417,0.7028889233705458,0.5580180222583945,2.432622231977664,4.289358105408812,0.319903240309267,-9.319225195796367
-10.183290145343506,-43.84650926895133,4.949340254557809,-7.773194606562605,7.690411980296542,46.21375856390554,8.981713177776372,-12.532041665382504,55.75252558535572,19.205162628265562,-10.049138437915298,-1.5890525849941177,-9.742638974107335,-6.537446281429818,-17.390809861800477,-12.565993624066202,-2.3258948049569743,-1.6039560933340216,0.2326228445215559,7.605904990337217,0.7028889233705458,0.5580180222583945,2.432622231977664,4.289358105408812,0.319903240309267,-9.319225195796367
-24.836034696170728,-43.84650926895133,4.949340254557809,-7.773194606562605,7.690411980296542,46.21375856390554,-2.740482462885401,-12.532041665382504,46.3747690728263,19.205162628265562,-10.049138437915298,-1.5890525849941177,-9.742638974107335,-6.537446281429818,-17.390809861800477,-12.565993624066202,-9.828100014980508,-1.6039560933340216,0.2326228445215559,7.605904990337217,0.7028889233705458,0.5580180222583945,2.432622231977664,4.289358105408812,0.319903240309267,-9.319225195796367
-40.27545382868075,-43.84650926895133,4.949340254557809,-7.773194606562605,7.690411980296542,46.21375856390554,-2.740482462885401,-12.532041665382504,46.3747690728263,19.205162628265562,-10.049138437915298,-13.940587891002135,-9.742638974107335,-6.537446281429818,-17.390809861800477,-12.565993624066202,-9.828100014980508,-11.485184338140437,0.2326228445215559,7.605904990337217,0.7028889233705458,0.5580180222583945,2.432622231977664,4.289358105408812,0.319903240309267,-9.319225195796367
-21.223761363541684,-43.84650926895133,4.949340254557809,-7.773194606562605,7.690411980296542,46.21375856390554,8.955163885458923,-12.532041665382504,46.3747690728263,19.205162628265562,-10.049138437915298,-13.940587891002135,-9.742638974107335,-6.537446281429818,-17.390809861800477,-9.020286000299269,-9.828100014980508,-11.485184338140437,0.2326228445215559,16.962422069012675,0.7028889233705458,0.5580180222583945,2.432622231977664,4.289358105408812,0.319903240309267,-6.4826590967828235
-16.26432678566217,-43.84650926895133,4.949340254557809,-7.773194606562605,7.690411980296542,46.21375856390554,12.922711547762532,-12.532041665382504,46.3747690728263,19.205162628265562,-10.049138437915298,-13.940587891002135,-9.742638974107335,-6.537446281429818,-17.390809861800477,-9.020286000299269,-9.828100014980508,-11.485184338140437,0.2326228445215559,20.136460198855563,0.7028889233705458,0.5580180222583945,2.432622231977664,4.289358105408812,0.319903240309267,-6.4826590967828235
-15.890101029390152,-43.84650926895133,4.949340254557809,-7.773194606562605,7.690411980296542,46.51313916892316,12.922711547762532,-12.532041665382504,46.3747690728263,19.205162628265562,-10.049138437915298,-13.940587891002135,-9.742638974107335,-6.537446281429818,-17.390809861800477,-9.020286000299269,-9.828100014980508,-11.485184338140437,0.2326228445215559,20.136460198855563,0.7028889233705458,0.5580180222583945,2.432622231977664,4.289358105408812,0.319903240309267,-6.4826590967828235
-12.449153556951225,-43.84650926895133,4.949340254557809,-7.773194606562605,7.690411980296542,46.51313916892316,12.922711547762532,-9.779283687431363,48.57697545518721,19.205162628265562,-10.049138437915298,-13.940587891002135,-9.742638974107335,-6.537446281429818,-17.390809861800477,-9.020286000299269,-9.828100014980508,-11.485184338140437,0.2326228445215559,20.136460198855563,0.7028889233705458,0.5580180222583945,2.432622231977664,4.289358105408812,0.319903240309267,-6.4826590967828235
-1.6328359057446153,-43.84650926895133,4.949340254557809,-7.773194606562605,7.690411980296542,46.51313916892316,12.922711547762532,-1.1262295664660762,55.49941875195944,19.205162628265562,-10.049138437915298,-13.940587891002135,-9.742638974107335,-6.537446281429818,-17.390809861800477,-9.020286000299269,-9.828100014980508,-11.485184338140437,0.2326228445215559,20.136460198855563,0.7028889233705458,0.5580180222583945,2.432622231977664,4.289358105408812,0.319903240309267,-6.4826590967828235
0.6004503053700243,-43.84650926895133,4.949340254557809,-7.773194606562605,7.690411980296542,46.51313916892316,14.709340516654246,-1.1262295664660762,56.928721927072814,20.348605168356258,-10.049138437915298,-13.940587891002135,-9.742638974107335,-6.537446281429818,-17.390809861800477,-9.020286000299269,-9.828100014980508,-11.485184338140437,0.2326228445215559,20.136460198855563,0.7028889233705458,0.5580180222583945,2.432622231977664,4.289358105408812,0.319903240309267,-6.4826590967828235
0.22812603042125862,-43.84650926895133,4.949340254557809,-7.773194606562605,7.690411980296542,46.51313916892316,14.411481096695233,-1.1262295664660762,56.928721927072814,20.348605168356258,-10.049138437915298,-13.940587891002135,-9.742638974107335,-6.537446281429818,-17.390809861800477,-9.020286000299269,-9.828100014980508,-11.485184338140437,0.2326228445215559,20.136460198855563,0.7028889233705458,0.5580180222583945,2.432622231977664,4.289358105408812,0.319903240309267,-6.4826590967828235
-3.4943814047293866,-43.84650926895133,4.949340254557809,-7.773194606562605,4.712406032176025,46.51313916892316,14.411481096695233,-3.508634324962489,56.928721927072814,20.348605168356258,-10.049138437915298,-13.940587891002135,-9.742638974107335,-6.537446281429818,-17.390809861800477,-9.020286000299269,-9.828100014980508,-11.485184338140437,0.2326228445215559,20.136460198855563,0.7028889233705458,0.5580180222583945,2.432622231977664,4.289358105408812,0.319903240309267,-6.4826590967828235
6.020213975744845,-43.84650926895133,4.949340254557809,-0.16151830218322072,4.712406032176025,46.51313916892316,20.500822140198743,-3.508634324962489,56.928721927072814,20.348605168356258,-10.049138437915298,-13.940587891002135,-9.742638974107335,-6.537446281429818,-17.390809861800477,-9.020286000299269,-9.828100014980508,-11.485184338140437,0.2326228445215559,20.136460198855563,0.7028889233705458,0.5580180222583945,2.432622231977664,4.289358105408812,0.319903240309267,-6.4826590967828235
10.261030716616862,-43.84650926895133,4.949340254557809,-0.16151830218322072,4.712406032176025,49.90579256162077,20.500822140198743,-3.508634324962489,56.928721927072814,20.348605168356258,-10.049138437915298,-13.940587891002135,-9.742638974107335,-6.537446281429818,-17.390809861800477,-9.020286000299269,-9.828100014980508,-11.485184338140437,0.2326228445215559,20.136460198855563,0.7028889233705458,0.5580180222583945,2.432622231977664,4.289358105408812,0.319903240309267,-6.4826590967828235
11.293160229598797,-43.84650926895133,4.949340254557809,-0.16151830218322072,5.538109642561573,49.90579256162077,20.500822140198743,-2.84807143665405,57.45717223771956,20.348605168356258,-10.049138437915298,-13.940587891002135,-9.742638974107335,-6.537446281429818,-17.390809861800477,-9.020286000299269,-9.828100014980508,-11.485184338140437,0.2326228445215559,20.136460198855563,0.7028889233705458,0.5580180222583945,2.432622231977664,4.289358105408812,0.319903240309267,-6.4826590967828235
15.413821574982073,-43.84650926895133,4.949340254557809,-0.16151830218322072,8.834638718868195,49.90579256162077,20.500822140198743,-0.21084817560875413,59.5669508465558,20.348605168356258,-10.049138437915298,-13.940587891002135,-9.742638974107335,-6.537446281429818,-17.390809861800477,-9.020286000299269,-9.828100014980508,-11.485184338140437,0.2326228445215559,20.136460198855563,0.7028889233705458,0.5580180222583945,2.432622231977664,4.289358105408812,0.319903240309267,-6.4826590967828235
16.08771163493411,-43.84650926895133,4.949340254557809,0.3775937457784083,8.834638718868195,49.90579256162077,20.500822140198743,-0.21084817560875413,59.9982404849251,20.693636879051702,-10.049138437915298,-13.940587891002135,-9.742638974107335,-6.537446281429818,-17.390809861800477,-9.020286000299269,-9.828100014980508,-11.485184338140437,0.2326228445215559,20.136460198855563,0.7028889233705458,0.5580180222583945,2.432622231977664,4.289358105408812,0.319903240309267,-6.4826590967828235
19.812991242833547,-43.84650926895133,4.949340254557809,3.357817432097957,8.834638718868195,49.90579256162077,20.500822140198743,2.1733307734468847,59.9982404849251,20.693636879051702,-10.049138437915298,-13.940587891002135,-9.742638974107335,-6.537446281429818,-17.390809861800477,-9.020286000299269,-9.828100014980508,-11.485184338140437,0.2326228445215559,20.136460198855563,0.7028889233705458,0.5580180222583945,2.432622231977664,4.289358105408812,0.319903240309267,-6.4826590967828235
18.616278828150477,-43.84650926895133,4.949340254557809,3.357817432097957,7.877268787121742,49.90579256162077,19.73492619480158,2.1733307734468847,59.9982404849251,20.693636879051702,-10.049138437915298,-13.940587891002135,-9.742638974107335,-6.537446281429818,-17.390809861800477,-9.020286000299269,-9.828100014980508,-11.485184338140437,0.2326228445215559,20.136460198855563,0.7028889233705458,0.5580180222583945,2.432622231977664,4.289358105408812,0.319903240309267,-6.4826590967828235
27.950575566217537,-43.84650926895133,4.949340254557809,10.825254822551605,7.877268787121742,49.90579256162077,25.7088761071645,2.1733307734468847,59.9982404849251,20.693636879051702,-10.049138437915298,-13.940587891002135,-9.742638974107335,-6.537446281429818,-17.390809861800477,-9.020286000299269,-9.828100014980508,-11.485184338140437,0.2326228445215559,20.136460198855563,0.7028889233705458,0.5580180222583945,2.432622231977664,9.068518035299148,0.319903240309267,-6.4826590967828235
33.2191967507579,-43.84650926895133,4.949340254557809,10.825254822551605,7.877268787121742,54.12068950925307,25.7088761071645,2.1733307734468847,59.9982404849251,20.693636879051702,-10.049138437915298,-13.940587891002135,-9.742638974107335,-6.537446281429818,-17.390809861800477,-9.020286000299269,-9.828100014980508,-11.485184338140437,0.2326228445215559,20.136460198855563,0.7028889233705458,0.5580180222583945,2.432622231977664,9.068518035299148,0.319903240309267,-6.4826590967828235
33.55383601483287,-43.84650926895133,4.949340254557809,10.825254822551605,8.14498019838172,54.12068950925307,25.7088761071645,2.387499902454867,60.16957578813148,20.693636879051702,-10.049138437915298,-13.940587891002135,-9.742638974107335,-6.537446281429818,-17.390809861800477,-9.020286000299269,-9.828100014980508,-11.485184338140437,0.2326228445215559,20.136460198855563,0.7028889233705458,0.5580180222583945,2.432622231977664,9.068518035299148,0.319903240309267,-6.4826590967828235
37.646272264894854,-43.84650926895133,4.949340254557809,10.825254822551605,11.418929198431313,54.12068950925307,25.7088761071645,5.00665910249454,62.26490314816322,20.693636879051702,-10.049138437915298,-13.940587891002135,-9.742638974107335,-6.537446281429818,-17.390809861800477,-9.020286000299269,-9.828100014980508,-11.485184338140437,0.2326228445215559,20.136460198855563,0.7028889233705458,0.5580180222583945,2.432622231977664,9.068518035299148,0.319903240309267,-6.4826590967828235
39.61866560250581,-43.84650926895133,4.949340254557809,12.403169492640368,11.418929198431313,54.12068950925307,25.7088761071645,5.00665910249454,63.527234884234225,21.70350226790851,-10.049138437915298,-13.940587891002135,-9.742638974107335,-6.537446281429818,-17.390809861800477,-9.020286000299269,-9.828100014980508,-11.485184338140437,0.2326228445215559,20.136460198855563,0.7028889233705458,0.5580180222583945,2.432622231977664,9.068518035299148,0.319903240309267,-6.4826590967828235
43.428663174089735,-43.84650926895133,4.949340254557809,15.451167549907513,11.418929198431313,54.12068950925307,25.7088761071645,7.445057548308255,63.527234884234225,21.70350226790851,-10.049138437915298,-13.940587891002135,-9.742638974107335,-6.537446281429818,-17.390809861800477,-9.020286000299269,-9.828100014980508,-11.485184338140437,0.2326228445215559,20.136460198855563,0.7028889233705458,0.5580180222583945,2.432622231977664,11.019236791950119,0.319903240309267,-6.4826590967828235
44.76287725047685,-43.84650926895133,4.949340254557809,16.5185388110172,11.418929198431313,54.12068950925307,26.56277311605225,7.445057548308255,63.527234884234225,21.70350226790851,-10.049138437915298,-13.940587891002135,-9.742638974107335,-6.537446281429818,-17.390809861800477,-9.020286000299269,-9.828100014980508,-11.485184338140437,0.2326228445215559,20.136460198855563,0.7028889233705458,0.5580180222583945,3.1157398390878632,11.019236791950119,0.319903240309267,-6.4826590967828235
47.616624545267776,-43.84650926895133,4.949340254557809,18.80153664684994,11.418929198431313,54.12068950925307,26.56277311605225,9.271455816974449,63.527234884234225,21.70350226790851,-10.049138437915298,-13.940587891002135,-9.742638974107335,-6.537446281429818,-17.390809861800477,-9.020286000299269,-9.828100014980508,-11.485184338140437,0.2326228445215559,20.136460198855563,0.7028889233705458,0.5580180222583945,3.1157398390878632,11.019236791950119,0.319903240309267,-6.4826590967828235
57.511657697713375,-43.84650926895133,4.949340254557809,18.80153664684994,11.418929198431313,62.03671603120955,26.56277311605225,9.271455816974449,63.527234884234225,21.70350226790851,-10.049138437915298,-13.940587891002135,-9.742638974107335,-6.537446281429818,-17.390809861800477,-9.020286000299269,-9.828100014980508,-11.485184338140437,0.2326228445215559,20.136460198855563,0.7028889233705458,0.5580180222583945,3.1157398390878632,11.019236791950119,0.319903240309267,-6.4826590967828235
61.48640580944373,-43.84650926895133,4.949340254557809,21.981335136234225,11.418929198431313,62.03671603120955,26.56277311605225,11.815294608481874,65.56230591744017,21.70350226790851,-10.049138437915298,-13.940587891002135,-9.742638974107335,-6.537446281429818,-17.390809861800477,-9.020286000299269,-9.828100014980508,-11.485184338140437,0.2326228445215559,20.136460198855563,0.7028889233705458,0.5580180222583945,3.1157398390878632,12.647293618514869,0.319903240309267,-6.4826590967828235
70.75298142041768,-43.84650926895133,4.949340254557809,29.394595625013398,11.418929198431313,62.03671603120955,26.56277311605225,17.74590299950521,70.30679263025884,21.70350226790851,-10.049138437915298,-13.940587891002135,-9.742638974107335,-6.537446281429818,-17.390809861800477,-9.020286000299269,-9.828100014980508,-11.485184338140437,0.2326228445215559,20.136460198855563,0.7028889233705458,0.5580180222583945,6.911329209342799,12.647293618514869,0.319903240309267,-6.4826590967828235
64.79305283988549,-43.84650926895133,4.949340254557809,24.626652760587643,11.418929198431313,62.03671603120955,26.56277311605225,13.931548707964604,67.25530919702635,19.262315521322524,-10.049138437915298,-13.940587891002135,-9.742638974107335,-6.537446281429818,-17.390809861800477,-9.020286000299269,-9.828100014980508,-11.485184338140437,0.2326228445215559,20.136460198855563,0.7028889233705458,0.5580180222583945,6.911329209342799,12.647293618514869,0.319903240309267,-6.4826590967828235
65.04368740485421,-43.84650926895133,4.949340254557809,24.827160412562623,11.418929198431313,62.03671603120955,26.56277311605225,14.091954829544589,67.25530919702635,19.262315521322524,-10.049138437915298,-13.940587891002135,-9.742638974107335,-6.537446281429818,-17.390809861800477,-9.020286000299269,-9.828100014980508,-11.485184338140437,0.2326228445215559,20.136460198855563,0.7028889233705458,0.5580180222583945,6.911329209342799,12.647293618514869,0.319903240309267,-6.4826590967828235
65.88800185274489,-43.84650926895133,4.949340254557809,25.50261197087517,11.418929198431313,62.03671603120955,27.103134362702285,14.091954829544589,67.25530919702635,19.262315521322524,-10.049138437915298,-13.940587891002135,-9.742638974107335,-6.537446281429818,-17.390809861800477,-9.020286000299269,-9.828100014980508,-11.485184338140437,0.2326228445215559,20.136460198855563,0.7028889233705458,0.5580180222583945,7.343618206662828,12.647293618514869,0.319903240309267,-6.4826590967828235
62.5783504796816,-43.84650926895133,4.949340254557809,22.854890872424534,11.418929198431313,62.03671603120955,27.103134362702285,11.973777950784081,67.25530919702635,19.262315521322524,-10.049138437915298,-13.940587891002135,-9.742638974107335,-6.537446281429818,-17.390809861800477,-9.020286000299269,-9.828100014980508,-11.485184338140437,0.2326228445215559,20.136460198855563,0.7028889233705458,0.5580180222583945,7.343618206662828,12.647293618514869,0.319903240309267,-6.4826590967828235
60.5563421988653,-43.84650926895133,4.949340254557809,22.854890872424534,9.801322573778268,62.03671603120955,25.80904906297985,11.973777950784081,67.25530919702635,19.262315521322524,-10.049138437915298,-13.940587891002135,-9.742638974107335,-6.537446281429818,-17.390809861800477,-9.020286000299269,-9.828100014980508,-11.485184338140437,0.2326228445215559,20.136460198855563,0.7028889233705458,0.5580180222583945,7.343618206662828,12.647293618514869,0.319903240309267,-6.4826590967828235
63.38974991315409,-43.84650926895133,4.949340254557809,22.854890872424534,12.068048745209303,62.03671603120955,27.622430000124673,11.973777950784081,67.25530919702635,19.262315521322524,-10.049138437915298,-13.940587891002135,-9.742638974107335,-6.537446281429818,-17.390809861800477,-9.020286000299269,-9.828100014980508,-11.485184338140437,0.2326228445215559,20.136460198855563,0.7028889233705458,0.5580180222583945,7.343618206662828,12.647293618514869,0.319903240309267,-6.4826590967828235
71.2897277522914,-43.84650926895133,4.949340254557809,22.854890872424534,12.068048745209303,68.35669830251939,27.622430000124673,11.973777950784081,67.25530919702635,19.262315521322524,-10.049138437915298,-13.940587891002135,-9.742638974107335,-6.537446281429818,-17.390809861800477,-9.020286000299269,-9.828100014980508,-11.485184338140437,0.2326228445215559,20.136460198855563,0.7028889233705458,0.5580180222583945,7.343618206662828,12.647293618514869,0.319903240309267,-6.4826590967828235
72.62225363684087,-43.84650926895133,4.949340254557809,23.920911580064114,12.068048745209303,68.35669830251939,27.622430000124673,12.82659451689574,67.93756244991567,19.262315521322524,-10.049138437915298,-13.940587891002135,-9.742638974107335,-6.537446281429818,-17.390809861800477,-9.020286000299269,-9.828100014980508,-11.485184338140437,0.2326228445215559,20.136460198855563,0.7028889233705458,0.5580180222583945,7.343618206662828,12.647293618514869,0.319903240309267,-6.4826590967828235
75.03453697396336,-43.84650926895133,4.949340254557809,25.85073824976211,12.068048745209303,68.35669830251939,27.622430000124673,14.370455852654137,69.17265151852239,19.262315521322524,-10.049138437915298,-13.940587891002135,-9.742638974107335,-6.537446281429818,-17.390809861800477,-9.020286000299269,-9.828100014980508,-11.485184338140437,0.2326228445215559,20.136460198855563,0.7028889233705458,0.5580180222583945,7.343618206662828,12.647293618514869,0.319903240309267,-6.4826590967828235
74.91652011499761,-43.84650926895133,4.949340254557809,25.756324762589514,12.068048745209303,68.35669830251939,27.622430000124673,14.370455852654137,69.0971207287843,19.20189088953206,-10.049138437915298,-13.940587891002135,-9.742638974107335,-6.537446281429818,-17.390809861800477,-9.020286000299269,-9.828100014980508,-11.485184338140437,0.2326228445215559,20.136460198855563,0.7028889233705458,0.5580180222583945,7.343618206662828,12.647293618514869,0.319903240309267,-6.4826590967828235
71.41565410039279,-43.84650926895133,4.949340254557809,22.955631950905655,12.068048745209303,68.35669830251939,27.622430000124673,12.129901603307049,69.0971207287843,19.20189088953206,-10.049138437915298,-13.940587891002135,-9.742638974107335,-6.537446281429818,-17.390809861800477,-9.020286000299269,-9.828100014980508,-11.485184338140437,0.2326228445215559,20.136460198855563,0.7028889233705458,0.5580180222583945,7.343618206662828,12.647293618514869,0.319903240309267,-6.4826590967828235
68.36464130907642,-43.84650926895133,4.949340254557809,22.955631950905655,9.627238512156213,68.35669830251939,25.669781813682203,12.129901603307049,69.0971207287843,19.20189088953206,-10.049138437915298,-13.940587891002135,-9.742638974107335,-6.537446281429818,-17.390809861800477,-9.020286000299269,-9.828100014980508,-11.485184338140437,0.2326228445215559,20.136460198855563,0.7028889233705458,0.5580180222583945,7.343618206662828,12.647293618514869,0.319903240309267,-6.4826590967828235
71.08444746650584,-43.84650926895133,4.949340254557809,25.13147687684919,9.627238512156213,68.35669830251939,25.669781813682203,13.870577544061879,69.0971207287843,19.20189088953206,-10.049138437915298,-13.940587891002135,-9.742638974107335,-6.537446281429818,-17.390809861800477,-9.020286000299269,-9.828100014980508,-11.485184338140437,0.2326228445215559,20.136460198855563,0.7028889233705458,0.5580180222583945,7.343618206662828,12.647293618514869,0.319903240309267,-6.4826590967828235
78.64927038361701,-43.84650926895133,4.949340254557809,25.13147687684919,9.627238512156213,74.40855663620833,25.669781813682203,13.870577544061879,69.0971207287843,19.20189088953206,-10.049138437915298,-13.940587891002135,-9.742638974107335,-6.537446281429818,-17.390809861800477,-9.020286000299269,-9.828100014980508,-11.485184338140437,0.2326228445215559,20.136460198855563,0.7028889233705458,0.5580180222583945,7.343618206662828,12.647293618514869,0.319903240309267,-6.4826590967828235
79.71430147295077,-43.84650926895133,4.949340254557809,25.983501748316193,9.627238512156213,74.40855663620833,25.669781813682203,14.55219744123548,69.64241664652319,19.20189088953206,-10.049138437915298,-13.940587891002135,-9.742638974107335,-6.537446281429818,-17.390809861800477,-9.020286000299269,-9.828100014980508,-11.485184338140437,0.2326228445215559,20.136460198855563,0.7028889233705458,0.5580180222583945,7.343618206662828,12.647293618514869,0.319903240309267,-6.4826590967828235
85.49464476408534,-43.84650926895133,4.949340254557809,30.60777638122385,9.627238512156213,74.40855663620833,25.669781813682203,18.251617147561603,72.6019524115841,19.20189088953206,-10.049138437915298,-13.940587891002135,-9.742638974107335,-6.537446281429818,-17.390809861800477,-9.020286000299269,-9.828100014980508,-11.485184338140437,0.2326228445215559,20.136460198855563,0.7028889233705458,0.5580180222583945,7.343618206662828,12.647293618514869,0.319903240309267,-6.4826590967828235
80.38299556144975,-43.84650926895133,4.949340254557809,26.518457019115374,9.627238512156213,74.40855663620833,25.669781813682203,14.980161657874822,69.98478801983467,17.108159376132523,-10.049138437915298,-13.940587891002135,-9.742638974107335,-6.537446281429818,-17.390809861800477,-9.020286000299269,-9.828100014980508,-11.485184338140437,0.2326228445215559,20.136460198855563,0.7028889233705458,0.5580180222583945,5.668632995943197,12.647293618514869,0.319903240309267,-6.4826590967828235
50.5092739030764,-43.84650926895133,4.949340254557809,-4.390410906076127,9.627238512156213,74.40855663620833,0.9426874735290056,14.980161657874822,69.98478801983467,17.108159376132523,-10.049138437915298,-6.930697292509318,-9.742638974107335,-6.537446281429818,-37.172485333923035,-9.020286000299269,-9.828100014980508,-5.877271859346183,0.2326228445215559,20.136460198855563,0.7028889233705458,0.5580180222583945,5.668632995943197,12.647293618514869,0.319903240309267,-6.4826590967828235
34.15836935961545,-43.84650926895133,4.949340254557809,-4.390410906076127,9.627238512156213,74.40855663620833,0.9426874735290056,1.8994380231060681,69.98478801983467,17.108159376132523,-20.513717345730306,-6.930697292509318,-9.742638974107335,-6.537446281429818,-37.172485333923035,-9.020286000299269,-9.828100014980508,-5.877271859346183,0.2326228445215559,11.764797072603558,0.7028889233705458,0.5580180222583945,5.668632995943197,12.647293618514869,0.319903240309267,-6.4826590967828235
24.217618931967003,-43.84650926895133,4.949340254557809,-4.390410906076127,9.627238512156213,74.40855663620833,0.9426874735290056,-6.053162319012688,69.98478801983467,17.108159376132523,-20.513717345730306,-6.930697292509318,-9.742638974107335,-6.537446281429818,-37.172485333923035,-15.382366273994272,-9.828100014980508,-5.877271859346183,0.2326228445215559,11.764797072603558,0.7028889233705458,0.5580180222583945,5.668632995943197,12.647293618514869,0.319903240309267,-6.4826590967828235
7.989425936364775,-43.84650926895133,4.949340254557809,-4.390410906076127,9.627238512156213,74.40855663620833,0.9426874735290056,-6.053162319012688,69.98478801983467,17.108159376132523,-20.513717345730306,-19.913251688991103,-9.742638974107335,-6.537446281429818,-37.172485333923035,-15.382366273994272,-9.828100014980508,-16.26331537653161,0.2326228445215559,11.764797072603558,0.7028889233705458,0.5580180222583945,5.668632995943197,12.647293618514869,0.319903240309267,-6.4826590967828235
5.3142070448198035,-43.84650926895133,4.949340254557809,-4.390410906076127,9.627238512156213,74.40855663620833,0.9426874735290056,-11.421785893949938,69.98478801983467,17.108159376132523,-20.513717345730306,-16.684803227289827,-9.742638974107335,-6.537446281429818,-37.172485333923035,-19.677265133944072,-9.828100014980508,-13.680556607170592,0.2326228445215559,11.764797072603558,0.7028889233705458,0.5580180222583945,5.668632995943197,12.647293618514869,0.319903240309267,-6.4826590967828235
-2.268878611462055,-43.84650926895133,4.949340254557809,-4.390410906076127,9.627238512156213,74.40855663620833,0.9426874735290056,-11.421785893949938,69.98478801983467,17.108159376132523,-20.513717345730306,-16.684803227289827,-9.742638974107335,-6.537446281429818,-37.172485333923035,-25.74373365896956,-9.828100014980508,-13.680556607170592,0.2326228445215559,11.764797072603558,0.7028889233705458,0.5580180222583945,5.668632995943197,12.647293618514869,0.319903240309267,-11.335833916803212
-18.809439831999327,-43.84650926895133,4.949340254557809,-4.390410906076127,9.627238512156213,74.40855663620833,-12.289761502900816,-11.421785893949938,69.98478801983467,17.108159376132523,-31.099676526874163,-16.684803227289827,-9.742638974107335,-6.537446281429818,-37.172485333923035,-25.74373365896956,-18.296867359895593,-13.680556607170592,0.2326228445215559,11.764797072603558,0.7028889233705458,0.5580180222583945,5.668632995943197,12.647293618514869,0.319903240309267,-11.335833916803212
-33.825943838670135,-43.84650926895133,4.949340254557809,-4.390410906076127,9.627238512156213,74.40855663620833,-12.289761502900816,-11.421785893949938,69.98478801983467,17.108159376132523,-31.099676526874163,-28.69800643262647,-9.742638974107335,-6.537446281429818,-37.172485333923035,-25.74373365896956,-18.296867359895593,-23.29111917143991,0.2326228445215559,11.764797072603558,0.7028889233705458,0.5580180222583945,5.668632995943197,12.647293618514869,0.319903240309267,-11.335833916803212
-21.766300055767026,-43.84650926895133,4.949340254557809,-4.390410906076127,9.627238512156213,74.40855663620833,-12.289761502900816,-11.421785893949938,69.98478801983467,17.108159376132523,-31.099676526874163,-23.99517323261485,-9.742638974107335,-6.537446281429818,-37.172485333923035,-20.798851832658695,-18.296867359895593,-19.52885261143061,0.2326228445215559,11.764797072603558,0.7028889233705458,0.5580180222583945,5.668632995943197,12.647293618514869,0.319903240309267,-7.37992845575452
-28.76739844888342,-43.84650926895133,4.949340254557809,-4.390410906076127,9.627238512156213,74.40855663620833,-12.289761502900816,-11.421785893949938,69.98478801983467,17.108159376132523,-31.099676526874163,-23.99517323261485,-9.742638974107335,-6.537446281429818,-37.172485333923035,-26.399730547151812,-18.296867359895593,-19.52885261143061,0.2326228445215559,11.764797072603558,0.7028889233705458,0.5580180222583945,5.668632995943197,12.647293618514869,0.319903240309267,-11.860631427349011
-35.426843240415735,-43.84650926895133,4.949340254557809,-4.390410906076127,9.627238512156213,74.40855663620833,-12.289761502900816,-11.421785893949938,69.98478801983467,17.108159376132523,-31.099676526874163,-23.99517323261485,-9.742638974107335,-6.537446281429818,-37.172485333923035,-31.727286380377663,-18.296867359895593,-19.52885261143061,0.2326228445215559,11.764797072603558,0.7028889233705458,0.5580180222583945,5.668632995943197,12.647293618514869,0.319903240309267,-16.122676093929694
-45.380846900821574,-43.84650926895133,4.949340254557809,-4.390410906076127,9.627238512156213,74.40855663620833,-12.289761502900816,-19.384988822274607,69.98478801983467,17.108159376132523,-37.470238869533894,-23.99517323261485,-9.742638974107335,-6.537446281429818,-37.172485333923035,-31.727286380377663,-18.296867359895593,-19.52885261143061,0.2326228445215559,11.764797072603558,0.7028889233705458,0.5580180222583945,5.668632995943197,12.647293618514869,0.319903240309267,-16.122676093929694
-26.603799202258212,-43.84650926895133,4.949340254557809,-4.390410906076127,9.627238512156213,74.40855663620833,-12.289761502900816,-19.384988822274607,69.98478801983467,17.108159376132523,-37.470238869533894,-8.973535073764154,-9.742638974107335,-6.537446281429818,-37.172485333923035,-31.727286380377663,-18.296867359895593,-7.511542084350058,0.2326228445215559,11.764797072603558,0.7028889233705458,0.5580180222583945,5.668632995943197,12.647293618514869,0.319903240309267,-16.122676093929694
-33.19360035199976,-43.84650926895133,4.949340254557809,-4.390410906076127,9.627238512156213,74.40855663620833,-12.289761502900816,-24.656829742067853,65.76731528400008,17.108159376132523,-37.470238869533894,-8.973535073764154,-9.742638974107335,-6.537446281429818,-37.172485333923035,-31.727286380377663,-21.67084554856327,-7.511542084350058,0.2326228445215559,9.065614521669417,0.7028889233705458,0.5580180222583945,5.668632995943197,12.647293618514869,0.319903240309267,-16.122676093929694
-43.65838387992753,-43.84650926895133,4.949340254557809,-4.390410906076127,9.627238512156213,74.40855663620833,-20.661588325243024,-24.656829742067853,59.06985382612631,17.108159376132523,-37.470238869533894,-8.973535073764154,-9.742638974107335,-6.537446281429818,-37.172485333923035,-31.727286380377663,-27.028814714862282,-7.511542084350058,0.2326228445215559,9.065614521669417,0.7028889233705458,0.5580180222583945,5.668632995943197,12.647293618514869,0.319903240309267,-16.122676093929694
-58.455514659166695,-43.84650926895133,4.949340254557809,-4.390410906076127,9.627238512156213,74.40855663620833,-20.661588325243024,-24.656829742067853,59.06985382612631,17.108159376132523,-37.470238869533894,-20.81123969715549,-9.742638974107335,-6.537446281429818,-37.172485333923035,-31.727286380377663,-27.028814714862282,-16.981705783063127,0.2326228445215559,9.065614521669417,0.7028889233705458,0.5580180222583945,5.668632995943197,12.647293618514869,0.319903240309267,-16.122676093929694
-44.518060086292905,-43.84650926895133,4.949340254557809,-4.390410906076127,9.627238512156213,74.40855663620833,-20.661588325243024,-24.656829742067853,59.06985382612631,17.108159376132523,-37.470238869533894,-9.661276038856462,-9.742638974107335,-6.537446281429818,-37.172485333923035,-31.727286380377663,-27.028814714862282,-8.061734856423902,0.2326228445215559,9.065614521669417,0.7028889233705458,0.5580180222583945,5.668632995943197,12.647293618514869,0.319903240309267,-16.122676093929694
-50.26936252125638,-43.84650926895133,4.949340254557809,-4.390410906076127,9.627238512156213,74.40855663620833,-20.661588325243024,-29.257871690038638,55.389020267749686,17.108159376132523,-37.470238869533894,-9.661276038856462,-9.742638974107335,-6.537446281429818,-37.172485333923035,-31.727286380377663,-29.973481561563588,-8.061734856423902,0.2326228445215559,6.709881044308375,0.7028889233705458,0.5580180222583945,5.668632995943197,12.647293618514869,0.319903240309267,-16.122676093929694
-55.20490730817034,-43.84650926895133,4.949340254557809,-4.390410906076127,9.627238512156213,74.40855663620833,-24.610024154774187,-29.257871690038638,52.23027160412475,17.108159376132523,-37.470238869533894,-9.661276038856462,-9.742638974107335,-6.537446281429818,-37.172485333923035,-31.727286380377663,-32.50048049246353,-8.061734856423902,0.2326228445215559,6.709881044308375,0.7028889233705458,0.5580180222583945,5.668632995943197,12.647293618514869,0.319903240309267,-16.122676093929694
-69.74634894410133,-43.84650926895133,4.949340254557809,-4.390410906076127,9.627238512156213,74.40855663620833,-24.610024154774187,-29.257871690038638,52.23027160412475,17.108159376132523,-37.470238869533894,-21.294429347601252,-9.742638974107335,-6.537446281429818,-37.172485333923035,-31.727286380377663,-32.50048049246353,-17.36825750341973,0.2326228445215559,6.709881044308375,0.7028889233705458,0.5580180222583945,5.668632995943197,12.647293618514869,0.319903240309267,-16.122676093929694
-62.17363325853482,-43.84650926895133,4.949340254557809,-4.390410906076127,9.627238512156213,74.40855663620833,-24.610024154774187,-29.257871690038638,52.23027160412475,17.108159376132523,-37.470238869533894,-15.236256799148045,-9.742638974107335,-6.537446281429818,-37.172485333923035,-31.727286380377663,-32.50048049246353,-12.521719464657163,0.2326228445215559,6.709881044308375,0.7028889233705458,0.5580180222583945,5.668632995943197,12.647293618514869,0.319903240309267,-16.122676093929694
-76.37500106808803,-43.84650926895133,4.949340254557809,-4.390410906076127,9.627238512156213,74.40855663620833,-24.610024154774187,-29.257871690038638,52.23027160412475,17.108159376132523,-37.470238869533894,-26.597351046790603,-9.742638974107335,-6.537446281429818,-37.172485333923035,-31.727286380377663,-32.50048049246353,-21.610594862771208,0.2326228445215559,6.709881044308375,0.7028889233705458,0.5580180222583945,5.668632995943197,12.647293618514869,0.319903240309267,-16.122676093929694
-97.97057086134724,-61.1229651035587,4.949340254557809,-4.390410906076127,9.627238512156213,74.40855663620833,-24.610024154774187,-29.257871690038638,52.23027160412475,17.108159376132523,-37.470238869533894,-26.597351046790603,-9.742638974107335,-6.537446281429818,-37.172485333923035,-31.727286380377663,-32.50048049246353,-21.610594862771208,0.2326228445215559,6.709881044308375,0.7028889233705458,0.5580180222583945,5.668632995943197,12.647293618514869,0.319903240309267,-16.122676093929694
-103.05416019463415,-61.1229651035587,4.949340254557809,-4.390410906076127,9.627238512156213,74.40855663620833,-24.610024154774187,-29.257871690038638,52.23027160412475,17.108159376132523,-37.470238869533894,-26.597351046790603,-9.742638974107335,-6.537446281429818,-37.172485333923035,-35.79415784700719,-32.50048049246353,-21.610594862771208,0.2326228445215559,6.709881044308375,0.7028889233705458,0.5580180222583945,5.668632995943197,12.647293618514869,0.319903240309267,-19.37617326723332
-86.472015007288,-61.1229651035587,4.949340254557809,-4.390410906076127,9.627238512156213,74.40855663620833,-24.610024154774187,-29.257871690038638,52.23027160412475,17.108159376132523,-37.470238869533894,-13.33163489691367,-9.742638974107335,-6.537446281429818,-37.172485333923035,-35.79415784700719,-32.50048049246353,-10.998021942869666,0.2326228445215559,6.709881044308375,0.7028889233705458,0.5580180222583945,5.668632995943197,12.647293618514869,0.319903240309267,-19.37617326723332
-100.25598157034656,-61.1229651035587,4.949340254557809,-4.390410906076127,9.627238512156213,74.40855663620833,-24.610024154774187,-29.257871690038638,52.23027160412475,17.108159376132523,-37.470238869533894,-24.358808147360527,-9.742638974107335,-6.537446281429818,-37.172485333923035,-35.79415784700719,-32.50048049246353,-19.819760543227158,0.2326228445215559,6.709881044308375,0.7028889233705458,0.5580180222583945,5.668632995943197,12.647293618514869,0.319903240309267,-19.37617326723332
-113.36729056512787,-61.1229651035587,4.949340254557809,-4.390410906076127,9.627238512156213,74.40855663620833,-24.610024154774187,-29.257871690038638,52.23027160412475,17.108159376132523,-37.470238869533894,-34.84785534318558,-9.742638974107335,-6.537446281429818,-37.172485333923035,-35.79415784700719,-32.50048049246353,-28.2109982998872,0.2326228445215559,6.709881044308375,0.7028889233705458,0.5580180222583945,5.668632995943197,12.647293618514869,0.319903240309267,-19.37617326723332
-117.9965381315405,-61.1229651035587,4.949340254557809,-4.390410906076127,9.627238512156213,74.40855663620833,-24.610024154774187,-29.257871690038638,52.23027160412475,17.108159376132523,-37.470238869533894,-34.84785534318558,-9.742638974107335,-6.537446281429818,-37.172485333923035,-39.4975559001373,-32.50048049246353,-28.2109982998872,0.2326228445215559,6.709881044308375,0.7028889233705458,0.5580180222583945,5.668632995943197,12.647293618514869,0.319903240309267,-22.338891709737407
-100.73690603168541,-51.663844585942826,4.949340254557809,-4.390410906076127,9.627238512156213,74.40855663620833,-24.610024154774187,-29.257871690038638,52.23027160412475,17.108159376132523,-37.470238869533894,-30.499270180917367,-9.742638974107335,-6.537446281429818,-37.172485333923035,-39.4975559001373,-32.50048049246353,-24.732130170072637,0.2326228445215559,6.709881044308375,0.7028889233705458,0.5580180222583945,5.668632995943197,12.647293618514869,0.319903240309267,-22.338891709737407
-121.68889101933284,-68.42543257606077,4.949340254557809,-4.390410906076127,9.627238512156213,74.40855663620833,-24.610024154774187,-29.257871690038638,52.23027160412475,17.108159376132523,-37.470238869533894,-30.499270180917367,-9.742638974107335,-6.537446281429818,-37.172485333923035,-39.4975559001373,-32.50048049246353,-24.732130170072637,0.2326228445215559,6.709881044308375,0.7028889233705458,0.5580180222583945,5.668632995943197,12.647293618514869,0.319903240309267,-22.338891709737407
-134.15048519192638,-68.42543257606077,4.949340254557809,-4.390410906076127,9.627238512156213,74.40855663620833,-24.610024154774187,-29.257871690038638,52.23027160412475,17.108159376132523,-37.470238869533894,-40.4685455189922,-9.742638974107335,-6.537446281429818,-37.172485333923035,-39.4975559001373,-32.50048049246353,-32.7075504405325,0.2326228445215559,6.709881044308375,0.7028889233705458,0.5580180222583945,5.668632995943197,12.647293618514869,0.319903240309267,-22.338891709737407
-138.23074653589035,-68.42543257606077,4.949340254557809,-4.390410906076127,9.627238512156213,74.40855663620833,-24.610024154774187,-29.257871690038638,52.23027160412475,17.108159376132523,-37.470238869533894,-40.4685455189922,-9.742638974107335,-6.537446281429818,-37.172485333923035,-42.76176497530849,-32.50048049246353,-32.7075504405325,0.2326228445215559,6.709881044308375,0.7028889233705458,0.5580180222583945,5.668632995943197,12.647293618514869,0.319903240309267,-24.95025896987436
-96.30063019194928,-68.42543257606077,4.949340254557809,-4.390410906076127,9.627238512156213,74.40855663620833,1.1997373748575626,-29.257871690038638,52.23027160412475,17.108159376132523,-16.822429645828493,-32.7342139734711,-9.742638974107335,-6.537446281429818,-37.172485333923035,-42.76176497530849,-32.50048049246353,-26.52008520411562,0.2326228445215559,6.709881044308375,0.7028889233705458,0.5580180222583945,5.668632995943197,12.647293618514869,0.319903240309267,-24.95025896987436
-108.56630738176416,-68.42543257606077,4.949340254557809,-4.390410906076127,9.627238512156213,74.40855663620833,1.1997373748575626,-39.07041344189054,52.23027160412475,17.108159376132523,-24.672463047310014,-32.7342139734711,-9.742638974107335,-6.537446281429818,-37.172485333923035,-42.76176497530849,-32.50048049246353,-26.52008520411562,0.2326228445215559,0.4298543231231484,0.7028889233705458,0.5580180222583945,5.668632995943197,12.647293618514869,0.319903240309267,-24.95025896987436
-121.20989525057715,-68.42543257606077,4.949340254557809,-4.390410906076127,9.627238512156213,74.40855663620833,1.1997373748575626,-39.07041344189054,52.23027160412475,17.108159376132523,-24.672463047310014,-42.84908426852149,-9.742638974107335,-6.537446281429818,-37.172485333923035,-42.76176497530849,-32.50048049246353,-34.61198144015593,0.2326228445215559,0.4298543231231484,0.7028889233705458,0.5580180222583945,5.668632995943197,12.647293618514869,0.319903240309267,-24.95025896987436
-125.43145686666195,-68.42543257606077,4.949340254557809,-4.390410906076127,9.627238512156213,74.40855663620833,1.1997373748575626,-39.07041344189054,52.23027160412475,17.108159376132523,-24.672463047310014,-42.84908426852149,-9.742638974107335,-6.537446281429818,-37.172485333923035,-46.13901426817633,-32.50048049246353,-34.61198144015593,0.2326228445215559,0.4298543231231484,0.7028889233705458,0.5580180222583945,5.668632995943197,12.647293618514869,0.319903240309267,-27.652058404168635
-102.95246758834227,-56.608330265225135,4.949340254557809,-4.390410906076127,9.627238512156213,74.40855663620833,1.1997373748575626,-39.07041344189054,52.23027160412475,17.108159376132523,-24.672463047310014,-36.682995156701395,-9.742638974107335,-6.537446281429818,-37.172485333923035,-46.13901426817633,-32.50048049246353,-29.679110150699856,0.2326228445215559,0.4298543231231484,0.7028889233705458,0.5580180222583945,5.668632995943197,12.647293618514869,0.319903240309267,-27.652058404168635
-116.97424731595738,-56.608330265225135,4.949340254557809,-4.390410906076127,9.627238512156213,74.40855663620833,-10.017686407234528,-39.07041344189054,52.23027160412475,17.108159376132523,-33.64640207298369,-36.682995156701395,-9.742638974107335,-6.537446281429818,-37.172485333923035,-46.13901426817633,-39.679631713002465,-29.679110150699856,0.2326228445215559,-5.313466653307999,0.7028889233705458,0.5580180222583945,5.668632995943197,12.647293618514869,0.319903240309267,-27.652058404168635
-137.50259576433373,-73.03100902392623,4.949340254557809,-4.390410906076127,9.627238512156213,74.40855663620833,-10.017686407234528,-39.07041344189054,52.23027160412475,17.108159376132523,-33.64640207298369,-36.682995156701395,-9.742638974107335,-6.537446281429818,-37.172485333923035,-46.13901426817633,-39.679631713002465,-29.679110150699856,0.2326228445215559,-5.313466653307999,0.7028889233705458,0.5580180222583945,5.668632995943197,12.647293618514869,0.319903240309267,-27.652058404168635
-149.42530174289902,-73.03100902392623,4.949340254557809,-4.390410906076127,9.627238512156213,74.40855663620833,-10.017686407234528,-39.07041344189054,52.23027160412475,17.108159376132523,-33.64640207298369,-46.22115993955364,-9.742638974107335,-6.537446281429818,-37.172485333923035,-46.13901426817633,-39.679631713002465,-37.309641976981645,0.2326228445215559,-5.313466653307999,0.7028889233705458,0.5580180222583945,5.668632995943197,12.647293618514869,0.319903240309267,-27.652058404168635
-115.37918165116996,-56.63799930123419,4.949340254557809,-4.390410906076127,9.627238512156213,74.40855663620833,-10.017686407234528,-39.07041344189054,52.23027160412475,17.108159376132523,-33.64640207298369,-35.37727358886243,-9.742638974107335,-6.537446281429818,-37.172485333923035,-46.13901426817633,-39.679631713002465,-28.63453289642868,0.2326228445215559,-5.313466653307999,0.7028889233705458,0.5580180222583945,5.668632995943197,12.647293618514869,0.319903240309267,-27.652058404168635
-111.6490183502315,-56.63799930123419,4.949340254557809,-4.390410906076127,9.627238512156213,74.40855663620833,-10.017686407234528,-36.08628280113978,54.61757611672536,17.108159376132523,-33.64640207298369,-35.37727358886243,-9.742638974107335,-6.537446281429818,-37.172485333923035,-46.13901426817633,-37.76978810292198,-28.63453289642868,0.2326228445215559,-3.78559176524361,0.7028889233705458,0.5580180222583945,5.668632995943197,12.647293618514869,0.319903240309267,-27.652058404168635
-122.77689817876279,-56.63799930123419,4.949340254557809,-4.390410906076127,9.627238512156213,74.40855663620833,-18.919990270059568,-36.08628280113978,47.49573302646533,17.108159376132523,-33.64640207298369,-35.37727358886243,-9.742638974107335,-6.537446281429818,-37.172485333923035,-46.13901426817633,-43.46726257513,-28.63453289642868,0.2326228445215559,-3.78559176524361,0.7028889233705458,0.5580180222583945,5.668632995943197,12.647293618514869,0.319903240309267,-27.652058404168635
-143.18860022916286,-72.96736094155423,4.949340254557809,-4.390410906076127,9.627238512156213,74.40855663620833,-18.919990270059568,-36.08628280113978,47.49573302646533,17.108159376132523,-33.64640207298369,-35.37727358886243,-9.742638974107335,-6.537446281429818,-37.172485333923035,-46.13901426817633,-43.46726257513,-28.63453289642868,0.2326228445215559,-3.78559176524361,0.7028889233705458,0.5580180222583945,5.668632995943197,12.647293618514869,0.319903240309267,-27.652058404168635
-108.5456361154262,-72.96736094155423,4.949340254557809,-4.390410906076127,9.627238512156213,74.40855663620833,-18.919990270059568,-36.08628280113978,47.49573302646533,17.108159376132523,-33.64640207298369,-7.662902297873101,-9.742638974107335,-6.537446281429818,-37.172485333923035,-46.13901426817633,-43.46726257513,-6.46303586363722,0.2326228445215559,-3.78559176524361,0.7028889233705458,0.5580180222583945,5.668632995943197,12.647293618514869,0.319903240309267,-27.652058404168635
-102.04579404457547,-72.96736094155423,4.949340254557809,-4.390410906076127,9.627238512156213,74.40855663620833,-18.919990270059568,-30.88640914445919,51.6556319518098,17.108159376132523,-33.64640207298369,-7.662902297873101,-9.742638974107335,-6.537446281429818,-37.172485333923035,-46.13901426817633,-43.46726257513,-6.46303586363722,0.2326228445215559,-0.4576726249680325,0.7028889233705458,0.5580180222583945,5.668632995943197,12.647293618514869,0.319903240309267,-27.652058404168635
-102.85951948221206,-72.96736094155423,4.949340254557809,-4.390410906076127,9.627238512156213,74.40855663620833,-18.919990270059568,-31.537389494568462,51.13484767172239,17.108159376132523,-33.64640207298369,-7.662902297873101,-9.742638974107335,-6.537446281429818,-37.172485333923035,-46.13901426817633,-43.46726257513,-6.46303586363722,0.2326228445215559,-0.4576726249680325,0.7028889233705458,0.5580180222583945,5.668632995943197,12.647293618514869,0.319903240309267,-27.652058404168635
-124.52446278622806,-72.96736094155423,4.949340254557809,-4.390410906076127,9.627238512156213,74.40855663620833,-18.919990270059568,-31.537389494568462,51.13484767172239,17.108159376132523,-33.64640207298369,-24.994856941085892,-9.742638974107335,-6.537446281429818,-37.172485333923035,-46.13901426817633,-43.46726257513,-20.328599578207445,-10.859828127134628,-0.4576726249680325,0.7028889233705458,0.5580180222583945,5.668632995943197,12.647293618514869,0.319903240309267,-27.652058404168635
-118.79621760496993,-72.96736094155423,4.949340254557809,-4.390410906076127,9.627238512156213,74.40855663620833,-18.919990270059568,-26.95479334956196,51.13484767172239,20.774236292137722,-30.71354054017953,-24.994856941085892,-9.742638974107335,-6.537446281429818,-37.172485333923035,-46.13901426817633,-43.46726257513,-20.328599578207445,-10.859828127134628,-0.4576726249680325,0.7028889233705458,0.5580180222583945,5.668632995943197,12.647293618514869,0.319903240309267,-27.652058404168635
-116.54174437495796,-72.96736094155423,4.949340254557809,-4.390410906076127,9.627238512156213,74.40855663620833,-18.919990270059568,-26.95479334956196,51.13484767172239,20.774236292137722,-30.71354054017953,-24.994856941085892,-9.742638974107335,-6.537446281429818,-37.172485333923035,-46.13901426817633,-43.46726257513,-20.328599578207445,-10.859828127134628,-0.4576726249680325,0.7028889233705458,0.5580180222583945,5.668632995943197,12.647293618514869,0.319903240309267,-25.848479820159056
-96.44767332890949,-72.96736094155423,4.949340254557809,-4.390410906076127,9.627238512156213,74.40855663620833,-18.919990270059568,-26.95479334956196,51.13484767172239,20.774236292137722,-30.71354054017953,-24.994856941085892,-9.742638974107335,-6.537446281429818,-37.172485333923035,-46.13901426817633,-43.46726257513,-20.328599578207445,-10.859828127134628,-0.4576726249680325,0.7028889233705458,0.5580180222583945,5.668632995943197,12.647293618514869,0.319903240309267,-9.77322298332028
-101.84802141158409,-72.96736094155423,4.949340254557809,-4.390410906076127,9.627238512156213,70.08827817006865,-18.919990270059568,-26.95479334956196,51.13484767172239,20.774236292137722,-30.71354054017953,-24.994856941085892,-9.742638974107335,-6.537446281429818,-37.172485333923035,-46.13901426817633,-43.46726257513,-20.328599578207445,-10.859828127134628,-0.4576726249680325,0.7028889233705458,0.5580180222583945,5.668632995943197,12.647293618514869,0.319903240309267,-9.77322298332028
-92.75529953721082,-72.96736094155423,4.949340254557809,-4.390410906076127,9.627238512156213,70.08827817006865,-18.919990270059568,-19.68061585006335,56.954189671321274,20.774236292137722,-30.71354054017953,-24.994856941085892,-9.742638974107335,-6.537446281429818,-37.172485333923035,-46.13901426817633,-43.46726257513,-20.328599578207445,-10.859828127134628,-0.4576726249680325,0.7028889233705458,0.5580180222583945,5.668632995943197,12.647293618514869,0.319903240309267,-9.77322298332028
-90.46893570614338,-72.96736094155423,4.949340254557809,-4.390410906076127,9.627238512156213,70.08827817006865,-18.919990270059568,-17.851524785209403,58.417462523204435,21.94485457364425,-30.71354054017953,-24.994856941085892,-9.742638974107335,-6.537446281429818,-37.172485333923035,-46.13901426817633,-43.46726257513,-20.328599578207445,-10.859828127134628,-0.4576726249680325,0.7028889233705458,0.5580180222583945,5.668632995943197,12.647293618514869,0.319903240309267,-9.77322298332028
-89.26409253235411,-72.96736094155423,4.949340254557809,-4.390410906076127,9.627238512156213,70.08827817006865,-18.919990270059568,-17.851524785209403,58.417462523204435,21.94485457364425,-30.71354054017953,-24.994856941085892,-9.742638974107335,-6.537446281429818,-37.172485333923035,-46.13901426817633,-43.46726257513,-20.328599578207445,-10.859828127134628,-0.4576726249680325,0.7028889233705458,0.5580180222583945,5.668632995943197,12.647293618514869,0.319903240309267,-8.809348444288862
-87.99731252199884,-72.96736094155423,4.949340254557809,-4.390410906076127,9.627238512156213,70.08827817006865,-18.919990270059568,-17.851524785209403,58.417462523204435,21.94485457364425,-30.71354054017953,-24.994856941085892,-9.742638974107335,-6.537446281429818,-37.172485333923035,-46.13901426817633,-43.46726257513,-20.328599578207445,-10.859828127134628,-0.4576726249680325,0.7028889233705458,0.5580180222583945,5.668632995943197,12.647293618514869,0.319903240309267,-7.795924436004638
-86.88144778283876,-72.96736094155423,4.949340254557809,-4.390410906076127,9.627238512156213,70.08827817006865,-18.919990270059568,-17.851524785209403,58.417462523204435,21.94485457364425,-30.71354054017953,-24.994856941085892,-9.742638974107335,-6.537446281429818,-37.172485333923035,-46.13901426817633,-43.46726257513,-20.328599578207445,-10.859828127134628,-0.4576726249680325,0.7028889233705458,0.5580180222583945,5.668632995943197,12.647293618514869,0.319903240309267,-6.903232644676585
-85.80575417428845,-72.96736094155423,4.949340254557809,-4.390410906076127,9.627238512156213,70.08827817006865,-18.919990270059568,-17.851524785209403,58.417462523204435,21.94485457364425,-30.71354054017953,-24.994856941085892,-9.742638974107335,-6.537446281429818,-37.172485333923035,-46.13901426817633,-43.46726257513,-20.328599578207445,-10.859828127134628,-0.4576726249680325,0.7028889233705458,0.5580180222583945,5.668632995943197,12.647293618514869,0.319903240309267,-6.042677757836342
-84.76878553564596,-72.96736094155423,4.949340254557809,-4.390410906076127,9.627238512156213,70.08827817006865,-18.919990270059568,-17.851524785209403,58.417462523204435,21.94485457364425,-30.71354054017953,-24.994856941085892,-9.742638974107335,-6.537446281429818,-37.172485333923035,-46.13901426817633,-43.46726257513,-20.328599578207445,-10.859828127134628,-0.4576726249680325,0.7028889233705458,0.5580180222583945,5.668632995943197,12.647293618514869,0.319903240309267,-5.213102846922347
-83.7691477679946,-72.96736094155423,4.949340254557809,-4.390410906076127,9.627238512156213,70.08827817006865,-18.919990270059568,-17.851524785209403,58.417462523204435,21.94485457364425,-30.71354054017953,-24.994856941085892,-9.742638974107335,-6.537446281429818,-37.172485333923035,-46.13901426817633,-43.46726257513,-20.328599578207445,-10.859828127134628,-0.4576726249680325,0.7028889233705458,0.5580180222583945,5.668632995943197,12.647293618514869,0.319903240309267,-4.413392632801255
-82.80549695997868,-72.96736094155423,4.949340254557809,-4.390410906076127,9.627238512156213,70.08827817006865,-18.919990270059568,-17.851524785209403,58.417462523204435,21.94485457364425,-30.71354054017953,-24.994856941085892,-9.742638974107335,-6.537446281429818,-37.172485333923035,-46.13901426817633,-43.46726257513,-20.328599578207445,-10.859828127134628,-0.4576726249680325,0.7028889233705458,0.5580180222583945,5.668632995943197,12.647293618514869,0.319903240309267,-3.642471986388524
-81.87653758105134,-72.96736094155423,4.949340254557809,-4.390410906076127,9.627238512156213,70.08827817006865,-18.919990270059568,-17.851524785209403,58.417462523204435,21.94485457364425,-30.71354054017953,-24.994856941085892,-9.742638974107335,-6.537446281429818,-37.172485333923035,-46.13901426817633,-43.46726257513,-20.328599578207445,-10.859828127134628,-0.4576726249680325,0.7028889233705458,0.5580180222583945,5.668632995943197,12.647293618514869,0.319903240309267,-2.8993044832466506
-80.98102073976538,-72.96736094155423,4.949340254557809,-4.390410906076127,9.627238512156213,70.08827817006865,-18.919990270059568,-17.851524785209403,58.417462523204435,21.94485457364425,-30.71354054017953,-24.994856941085892,-9.742638974107335,-6.537446281429818,-37.172485333923035,-46.13901426817633,-43.46726257513,-20.328599578207445,-10.859828127134628,-0.4576726249680325,0.7028889233705458,0.5580180222583945,5.668632995943197,12.647293618514869,0.319903240309267,-2.1828910102178822
-80.11774250476572,-72.96736094155423,4.949340254557809,-4.390410906076127,9.627238512156213,70.08827817006865,-18.919990270059568,-17.851524785209403,58.417462523204435,21.94485457364425,-30.71354054017953,-24.994856941085892,-9.742638974107335,-6.537446281429818,-37.172485333923035,-46.13901426817633,-43.46726257513,-20.328599578207445,-10.859828127134628,-0.4576726249680325,0.7028889233705458,0.5580180222583945,5.668632995943197,12.647293618514869,0.319903240309267,-1.49226842221815
-79.28554228622603,-72.96736094155423,4.949340254557809,-4.390410906076127,9.627238512156213,70.08827817006865,-18.919990270059568,-17.851524785209403,58.417462523204435,21.94485457364425,-30.71354054017953,-24.994856941085892,-9.742638974107335,-6.537446281429818,-37.172485333923035,-46.13901426817633,-43.46726257513,-20.328599578207445,-10.859828127134628,-0.4576726249680325,0.7028889233705458,0.5580180222583945,5.668632995943197,12.647293618514869,0.319903240309267,-0.8265082473864095
-78.48330127555379,-72.96736094155423,4.949340254557809,-4.390410906076127,9.627238512156213,70.08827817006865,-18.919990270059568,-17.851524785209403,58.417462523204435,21.94485457364425,-30.71354054017953,-24.994856941085892,-9.742638974107335,-6.537446281429818,-37.172485333923035,-46.13901426817633,-43.46726257513,-20.328599578207445,-10.859828127134628,-0.4576726249680325,0.7028889233705458,0.5580180222583945,5.668632995943197,12.647293618514869,0.319903240309267,-0.1847154388486114
-77.70994094126574,-72.96736094155423,4.949340254557809,-4.390410906076127,9.627238512156213,70.08827817006865,-18.919990270059568,-17.851524785209403,58.417462523204435,21.94485457364425,-30.71354054017953,-24.994856941085892,-9.742638974107335,-6.537446281429818,-37.172485333923035,-46.13901426817633,-43.46726257513,-20.328599578207445,-10.859828127134628,-0.4576726249680325,0.7028889233705458,0.5580180222583945,5.668632995943197,12.647293618514869,0.319903240309267,0.4339728285818286
-76.96442157901207,-72.96736094155423,4.949340254557809,-4.390410906076127,9.627238512156213,70.08827817006865,-18.919990270059568,-17.851524785209403,58.417462523204435,21.94485457364425,-30.71354054017953,-24.994856941085892,-9.742638974107335,-6.537446281429818,-37.172485333923035,-46.13901426817633,-43.46726257513,-20.328599578207445,-10.859828127134628,-0.4576726249680325,0.7028889233705458,0.5580180222583945,5.668632995943197,12.647293618514869,0.319903240309267,1.0303883183847706
-76.24574091379952,-72.96736094155423,4.949340254557809,-4.390410906076127,9.627238512156213,70.08827817006865,-18.919990270059568,-17.851524785209403,58.417462523204435,21.94485457364425,-30.71354054017953,-24.994856941085892,-9.742638974107335,-6.537446281429818,-37.172485333923035,-46.13901426817633,-43.46726257513,-20.328599578207445,-10.859828127134628,-0.4576726249680325,0.7028889233705458,0.5580180222583945,5.668632995943197,12.647293618514869,0.319903240309267,1.605332850554807
-75.55293275253463,-72.96736094155423,4.949340254557809,-4.390410906076127,9.627238512156213,70.08827817006865,-18.919990270059568,-17.851524785209403,58.417462523204435,21.94485457364425,-30.71354054017953,-24.994856941085892,-9.742638974107335,-6.537446281429818,-37.172485333923035,-46.13901426817633,-43.46726257513,-20.328599578207445,-10.859828127134628,-0.4576726249680325,0.7028889233705458,0.5580180222583945,5.668632995943197,12.647293618514869,0.319903240309267,2.1595793795667237
-74.88506568507528,-72.96736094155423,4.949340254557809,-4.390410906076127,9.627238512156213,70.08827817006865,-18.919990270059568,-17.851524785209403,58.417462523204435,21.94485457364425,-30.71354054017953,-24.994856941085892,-9.742638974107335,-6.537446281429818,-37.172485333923035,-46.13901426817633,-43.46726257513,-20.328599578207445,-10.859828127134628,-0.4576726249680325,0.7028889233705458,0.5580180222583945,5.668632995943197,12.647293618514869,0.319903240309267,2.6938730335342105
-74.24124183204445,-72.96736094155423,4.949340254557809,-4.390410906076127,9.627238512156213,70.08827817006865,-18.919990270059568,-17.851524785209403,58.417462523204435,21.94485457364425,-30.71354054017953,-24.994856941085892,-9.742638974107335,-6.537446281429818,-37.172485333923035,-46.13901426817633,-43.46726257513,-20.328599578207445,-10.859828127134628,-0.4576726249680325,0.7028889233705458,0.5580180222583945,5.668632995943197,12.647293618514869,0.319903240309267,3.208932115958867
-73.62059563772274,-72.96736094155423,4.949340254557809,-4.390410906076127,9.627238512156213,70.08827817006865,-18.919990270059568,-17.851524785209403,58.417462523204435,21.94485457364425,-30.71354054017953,-24.994856941085892,-9.742638974107335,-6.537446281429818,-37.172485333923035,-46.13901426817633,-43.46726257513,-20.328599578207445,-10.859828127134628,-0.4576726249680325,0.7028889233705458,0.5580180222583945,5.668632995943197,12.647293618514869,0.319903240309267,3.7054490714162363
-73.02229270639661,-72.96736094155423,4.949340254557809,-4.390410906076127,9.627238512156213,70.08827817006865,-18.919990270059568,-17.851524785209403,58.417462523204435,21.94485457364425,-30.71354054017953,-24.994856941085892,-9.742638974107335,-6.537446281429818,-37.172485333923035,-46.13901426817633,-43.46726257513,-20.328599578207445,-10.859828127134628,-0.4576726249680325,0.7028889233705458,0.5580180222583945,5.668632995943197,12.647293618514869,0.319903240309267,4.184091416477139
-72.44552868059823,-72.96736094155423,4.949340254557809,-4.390410906076127,9.627238512156213,70.08827817006865,-18.919990270059568,-17.851524785209403,58.417462523204435,21.94485457364425,-30.71354054017953,-24.994856941085892,-9.742638974107335,-6.537446281429818,-37.172485333923035,-46.13901426817633,-43.46726257513,-20.328599578207445,-10.859828127134628,-0.4576726249680325,0.7028889233705458,0.5580180222583945,5.668632995943197,12.647293618514869,0.319903240309267,4.64550263711585
-71.88952815972858,-72.96736094155423,4.949340254557809,-4.390410906076127,9.627238512156213,70.08827817006865,-18.919990270059568,-17.851524785209403,58.417462523204435,21.94485457364425,-30.71354054017953,-24.994856941085892,-9.742638974107335,-6.537446281429818,-37.172485333923035,-46.13901426817633,-43.46726257513,-20.328599578207445,-10.859828127134628,-0.4576726249680325,0.7028889233705458,0.5580180222583945,5.668632995943197,12.647293618514869,0.319903240309267,5.090303053811566
-71.35354365761025,-72.96736094155423,4.949340254557809,-4.390410906076127,9.627238512156213,70.08827817006865,-18.919990270059568,-17.851524785209403,58.417462523204435,21.94485457364425,-30.71354054017953,-24.994856941085892,-9.742638974107335,-6.537446281429818,-37.172485333923035,-46.13901426817633,-43.46726257513,-20.328599578207445,-10.859828127134628,-0.4576726249680325,0.7028889233705458,0.5580180222583945,5.668632995943197,12.647293618514869,0.319903240309267,5.519090655506241
-70.83685459756816,-72.96736094155423,4.949340254557809,-4.390410906076127,9.627238512156213,70.08827817006865,-18.919990270059568,-17.851524785209403,58.417462523204435,21.94485457364425,-30.71354054017953,-24.994856941085892,-9.742638974107335,-6.537446281429818,-37.172485333923035,-46.13901426817633,-43.46726257513,-20.328599578207445,-10.859828127134628,-0.4576726249680325,0.7028889233705458,0.5580180222583945,5.668632995943197,12.647293618514869,0.319903240309267,5.932441903539904
-70.3387663436876,-72.96736094155423,4.949340254557809,-4.390410906076127,9.627238512156213,70.08827817006865,-18.919990270059568,-17.851524785209403,58.417462523204435,21.94485457364425,-30.71354054017953,-24.994856941085892,-9.742638974107335,-6.537446281429818,-37.172485333923035,-46.13901426817633,-43.46726257513,-20.328599578207445,-10.859828127134628,-0.4576726249680325,0.7028889233705458,0.5580180222583945,5.668632995943197,12.647293618514869,0.319903240309267,6.3309125066443555
-69.85860926694673,-72.96736094155423,4.949340254557809,-4.390410906076127,9.627238512156213,70.08827817006865,-18.919990270059568,-17.851524785209403,58.417462523204435,21.94485457364425,-30.71354054017953,-24.994856941085892,-9.742638974107335,-6.537446281429818,-37.172485333923035,-46.13901426817633,-43.46726257513,-20.328599578207445,-10.859828127134628,-0.4576726249680325,0.7028889233705458,0.5580180222583945,5.668632995943197,12.647293618514869,0.319903240309267,6.715038168037047
-69.20787295675049,-72.96736094155423,4.949340254557809,-4.390410906076127,10.147827560313209,70.08827817006865,-18.919990270059568,-17.435053546683807,58.417462523204435,21.94485457364425,-30.71354054017953,-24.994856941085892,-9.742638974107335,-6.537446281429818,-37.172485333923035,-46.13901426817633,-43.46726257513,-20.328599578207445,-10.859828127134628,-0.4576726249680325,0.7028889233705458,0.5580180222583945,5.668632995943197,12.647293618514869,0.319903240309267,6.715038168037047
-68.75801626097622,-72.96736094155423,4.949340254557809,-4.390410906076127,10.147827560313209,70.08827817006865,-18.919990270059568,-17.435053546683807,58.417462523204435,21.94485457364425,-30.71354054017953,-24.994856941085892,-9.742638974107335,-6.537446281429818,-37.172485333923035,-46.13901426817633,-43.46726257513,-20.328599578207445,-10.859828127134628,-0.4576726249680325,0.7028889233705458,0.5580180222583945,5.668632995943197,12.647293618514869,0.319903240309267,7.074923524656461
-68.32435440624982,-72.96736094155423,4.949340254557809,-4.390410906076127,10.147827560313209,70.08827817006865,-18.919990270059568,-17.435053546683807,58.417462523204435,21.94485457364425,-30.71354054017953,-24.994856941085892,-9.742638974107335,-6.537446281429818,-37.172485333923035,-46.13901426817633,-43.46726257513,-20.328599578207445,-10.859828127134628,-0.4576726249680325,0.7028889233705458,0.5580180222583945,5.668632995943197,12.647293618514869,0.319903240309267,7.4218530084375764
-67.90630437829358,-72.96736094155423,4.949340254557809,-4.390410906076127,10.147827560313209,70.08827817006865,-18.919990270059568,-17.435053546683807,58.417462523204435,21.94485457364425,-30.71354054017953,-24.994856941085892,-9.742638974107335,-6.537446281429818,-37.172485333923035,-46.13901426817633,-43.46726257513,-20.328599578207445,-10.859828127134628,-0.4576726249680325,0.7028889233705458,0.5580180222583945,5.668632995943197,12.647293618514869,0.319903240309267,7.756293030802573
-67.50330415134377,-72.96736094155423,4.949340254557809,-4.390410906076127,10.147827560313209,70.08827817006865,-18.919990270059568,-17.435053546683807,58.417462523204435,21.94485457364425,-30.71354054017953,-24.994856941085892,-9.742638974107335,-6.537446281429818,-37.172485333923035,-46.13901426817633,-43.46726257513,-20.328599578207445,-10.859828127134628,-0.4576726249680325,0.7028889233705458,0.5580180222583945,5.668632995943197,12.647293618514869,0.319903240309267,8.078693212362431
