14.082697712677735,11.20458745183941,0.9085671127393444,0.5645212005021387,0.5219441274859528,0.3547511088062293,0.1338995483350015,0.6425724999719153,0.8935023694896084,0.3458571046212682,0.6359527370618234,0.7044967611080937,0.8342727184137042,0.499875539436234,0.7034050931436048,0.9530601960337507,0.6953043956384347,0.8262509919395238,0.12579392387110722,9.594206972075325,0.19371351974207562,0.22234563091198511,0.6250841710640271,0.9562960466226827,0.8060204511373447,0.00029755910793638485
-10.42304799061261,-8.400009110792867,0.9085671127393444,0.5645212005021387,0.5219441274859528,0.3547511088062293,0.1338995483350015,0.6425724999719153,0.8935023694896084,0.3458571046212682,0.6359527370618234,0.7044967611080937,0.8342727184137042,0.499875539436234,0.7034050931436048,0.9530601960337507,0.6953043956384347,0.8262509919395238,0.12579392387110722,9.594206972075325,0.19371351974207562,0.22234563091198511,0.6250841710640271,0.9562960466226827,0.8060204511373447,0.00029755910793638485
-12.427438480799795,-8.400009110792867,0.9085671127393444,0.5645212005021387,0.5219441274859528,0.3547511088062293,0.1338995483350015,-0.9609398921778338,0.8935023694896084,0.3458571046212682,0.6359527370618234,0.7044967611080937,0.8342727184137042,0.499875539436234,0.7034050931436048,0.9530601960337507,0.6953043956384347,0.8262509919395238,0.12579392387110722,9.594206972075325,0.19371351974207562,0.22234563091198511,0.6250841710640271,0.9562960466226827,0.8060204511373447,0.00029755910793638485
-8.774305337396473,-8.400009110792867,0.9085671127393444,0.5645212005021387,0.5219441274859528,3.2772576235288864,0.1338995483350015,-0.9609398921778338,0.8935023694896084,0.3458571046212682,0.6359527370618234,0.7044967611080937,0.8342727184137042,0.499875539436234,0.7034050931436048,0.9530601960337507,0.6953043956384347,0.8262509919395238,0.12579392387110722,9.594206972075325,0.19371351974207562,0.22234563091198511,0.6250841710640271,0.9562960466226827,0.8060204511373447,0.00029755910793638485
-24.6294341857095,-8.400009110792867,0.9085671127393444,0.5645212005021387,0.5219441274859528,3.2772576235288864,0.1338995483350015,-0.9609398921778338,0.8935023694896084,0.3458571046212682,0.6359527370618234,-11.979606317542324,0.8342727184137042,0.499875539436234,0.7034050931436048,0.9530601960337507,0.6953043956384347,-9.321031470980811,0.12579392387110722,9.594206972075325,0.19371351974207562,0.22234563091198511,0.6250841710640271,0.9562960466226827,0.8060204511373447,0.00029755910793638485
-32.15591265709814,-8.400009110792867,0.9085671127393444,0.5645212005021387,0.5219441274859528,3.2772576235288864,0.1338995483350015,-0.9609398921778338,0.8935023694896084,0.3458571046212682,0.6359527370618234,-11.979606317542324,0.8342727184137042,0.499875539436234,0.7034050931436048,-5.068122581077165,0.6953043956384347,-9.321031470980811,0.12579392387110722,9.594206972075325,0.19371351974207562,0.22234563091198511,0.6250841710640271,0.9562960466226827,0.8060204511373447,-4.816648662580796
-40.551996106221445,-8.400009110792867,0.9085671127393444,0.5645212005021387,0.5219441274859528,3.2772576235288864,-6.5829672109636395,-0.9609398921778338,0.8935023694896084,0.3458571046212682,-4.73754067037709,-11.979606317542324,0.8342727184137042,0.499875539436234,0.7034050931436048,-5.068122581077165,0.6953043956384347,-9.321031470980811,0.12579392387110722,9.594206972075325,0.19371351974207562,0.22234563091198511,0.6250841710640271,0.9562960466226827,0.8060204511373447,-4.816648662580796
-36.60114431889059,-5.172297053644415,0.9085671127393444,0.5645212005021387,0.5219441274859528,3.2772576235288864,-6.5829672109636395,-1.0279705194616031,0.8935023694896084,0.3458571046212682,-4.73754067037709,-11.979606317542324,0.8342727184137042,0.499875539436234,0.7034050931436048,-5.12174708290418,0.6953043956384347,-9.321031470980811,0.12579392387110722,9.594206972075325,0.19371351974207562,0.22234563091198511,0.6250841710640271,0.9562960466226827,0.8060204511373447,-4.816648662580796
-34.25558642687455,-5.172297053644415,0.9085671127393444,0.5645212005021387,0.5219441274859528,5.153703937141719,-6.5829672109636395,-1.0279705194616031,0.8935023694896084,0.3458571046212682,-4.73754067037709,-11.979606317542324,0.8342727184137042,0.499875539436234,0.7034050931436048,-5.12174708290418,0.6953043956384347,-9.321031470980811,0.12579392387110722,9.594206972075325,0.19371351974207562,0.22234563091198511,0.6250841710640271,0.9562960466226827,0.8060204511373447,-4.816648662580796
-57.46702875726417,-23.741450917956108,0.9085671127393444,0.5645212005021387,0.5219441274859528,5.153703937141719,-6.5829672109636395,-1.0279705194616031,0.8935023694896084,0.3458571046212682,-4.73754067037709,-11.979606317542324,0.8342727184137042,0.499875539436234,0.7034050931436048,-5.12174708290418,0.6953043956384347,-9.321031470980811,0.12579392387110722,9.594206972075325,0.19371351974207562,0.22234563091198511,0.6250841710640271,0.9562960466226827,0.8060204511373447,-4.816648662580796
-72.29959665340427,-23.741450917956108,0.9085671127393444,0.5645212005021387,0.5219441274859528,5.153703937141719,-18.44902152787572,-1.0279705194616031,0.8935023694896084,0.3458571046212682,-14.230384123906754,-11.979606317542324,0.8342727184137042,0.499875539436234,0.7034050931436048,-5.12174708290418,-6.898970367185295,-9.321031470980811,0.12579392387110722,9.594206972075325,0.19371351974207562,0.22234563091198511,0.6250841710640271,0.9562960466226827,0.8060204511373447,-4.816648662580796
-80.13061036828887,-23.741450917956108,0.9085671127393444,0.5645212005021387,0.5219441274859528,5.153703937141719,-18.44902152787572,-7.292781491369282,0.8935023694896084,0.3458571046212682,-14.230384123906754,-11.979606317542324,0.8342727184137042,0.499875539436234,0.7034050931436048,-10.133595860430322,-6.898970367185295,-9.321031470980811,0.12579392387110722,9.594206972075325,0.19371351974207562,0.22234563091198511,0.6250841710640271,0.9562960466226827,0.8060204511373447,-4.816648662580796
-80.11999060525645,-26.32192111215691,0.9085671127393444,0.5645212005021387,0.5219441274859528,5.153703937141719,-18.44902152787572,-7.292781491369282,0.8935023694896084,0.3458571046212682,-14.230384123906754,-9.390640312915588,0.8342727184137042,0.499875539436234,0.7034050931436048,-10.133595860430322,-6.898970367185295,-7.249858667279421,0.12579392387110722,9.594206972075325,0.19371351974207562,0.22234563091198511,0.6250841710640271,0.9562960466226827,0.8060204511373447,-4.816648662580796
-86.2185859026911,-26.32192111215691,0.9085671127393444,0.5645212005021387,0.5219441274859528,5.153703937141719,-18.44902152787572,-7.292781491369282,0.8935023694896084,0.3458571046212682,-14.230384123906754,-9.390640312915588,0.8342727184137042,0.499875539436234,0.7034050931436048,-15.01247209837804,-6.898970367185295,-7.249858667279421,0.12579392387110722,9.594206972075325,0.19371351974207562,0.22234563091198511,0.6250841710640271,0.9562960466226827,0.8060204511373447,-8.719749652938974
-106.225119778641,-42.32714821291683,0.9085671127393444,0.5645212005021387,0.5219441274859528,5.153703937141719,-18.44902152787572,-7.292781491369282,0.8935023694896084,0.3458571046212682,-14.230384123906754,-9.390640312915588,0.8342727184137042,0.499875539436234,0.7034050931436048,-15.01247209837804,-6.898970367185295,-7.249858667279421,0.12579392387110722,9.594206972075325,0.19371351974207562,0.22234563091198511,0.6250841710640271,0.9562960466226827,0.8060204511373447,-8.719749652938974
-119.76780740346427,-42.32714821291683,0.9085671127393444,0.5645212005021387,0.5219441274859528,5.153703937141719,-18.44902152787572,-7.292781491369282,0.8935023694896084,0.3458571046212682,-14.230384123906754,-20.22479041277421,0.8342727184137042,0.499875539436234,0.7034050931436048,-15.01247209837804,-6.898970367185295,-15.917178747166322,0.12579392387110722,9.594206972075325,0.19371351974207562,0.22234563091198511,0.6250841710640271,0.9562960466226827,0.8060204511373447,-8.719749652938974
-104.04065867837232,-35.59195531429585,0.9085671127393444,0.5645212005021387,0.5219441274859528,5.153703937141719,-18.44902152787572,-7.292781491369282,0.8935023694896084,0.3458571046212682,-14.230384123906754,-14.378264331321617,0.8342727184137042,0.499875539436234,0.7034050931436048,-15.01247209837804,-6.898970367185295,-11.239957882004244,0.12579392387110722,9.594206972075325,0.19371351974207562,0.22234563091198511,0.6250841710640271,0.9562960466226827,0.8060204511373447,-8.719749652938974
-114.98899942231925,-35.59195531429585,0.9085671127393444,0.5645212005021387,0.5219441274859528,5.153703937141719,-18.44902152787572,-16.051454086526828,0.8935023694896084,0.3458571046212682,-21.237322200032786,-14.378264331321617,0.8342727184137042,0.499875539436234,0.7034050931436048,-15.01247209837804,-6.898970367185295,-11.239957882004244,0.12579392387110722,3.988656511174498,0.19371351974207562,0.22234563091198511,0.6250841710640271,0.9562960466226827,0.8060204511373447,-8.719749652938974
-133.84262828625077,-50.67485840544106,0.9085671127393444,0.5645212005021387,0.5219441274859528,5.153703937141719,-18.44902152787572,-16.051454086526828,0.8935023694896084,0.3458571046212682,-21.237322200032786,-14.378264331321617,0.8342727184137042,0.499875539436234,0.7034050931436048,-15.01247209837804,-6.898970367185295,-11.239957882004244,0.12579392387110722,3.988656511174498,0.19371351974207562,0.22234563091198511,0.6250841710640271,0.9562960466226827,0.8060204511373447,-8.719749652938974
-138.62479039878184,-50.67485840544106,0.9085671127393444,0.5645212005021387,0.5219441274859528,5.153703937141719,-18.44902152787572,-19.877183776551696,0.8935023694896084,0.3458571046212682,-21.237322200032786,-14.378264331321617,0.8342727184137042,0.499875539436234,0.7034050931436048,-18.073055850397928,-6.898970367185295,-11.239957882004244,0.12579392387110722,3.988656511174498,0.19371351974207562,0.22234563091198511,0.6250841710640271,0.9562960466226827,0.8060204511373447,-8.719749652938974
-95.07575703129427,-29.314513729388235,0.9085671127393444,0.5645212005021387,0.5219441274859528,5.153703937141719,-18.44902152787572,-19.877183776551696,0.8935023694896084,0.3458571046212682,-21.237322200032786,-0.8993823133843861,0.8342727184137042,0.499875539436234,0.7034050931436048,-18.073055850397928,-6.898970367185295,-0.4568522676544582,0.12579392387110722,21.076932252016757,0.19371351974207562,0.22234563091198511,0.6250841710640271,0.9562960466226827,0.8060204511373447,-8.719749652938974
-90.47113842667254,-29.314513729388235,0.9085671127393444,0.5645212005021387,0.5219441274859528,5.153703937141719,-18.44902152787572,-16.19348889285431,0.8935023694896084,0.3458571046212682,-21.237322200032786,-0.8993823133843861,0.8342727184137042,0.499875539436234,0.7034050931436048,-18.073055850397928,-6.898970367185295,-0.4568522676544582,0.12579392387110722,21.076932252016757,0.19371351974207562,0.22234563091198511,0.6250841710640271,0.9562960466226827,0.8060204511373447,-8.719749652938974
-86.73657867015442,-29.314513729388235,0.9085671127393444,0.5645212005021387,0.5219441274859528,8.141351742356212,-18.44902152787572,-16.19348889285431,0.8935023694896084,0.3458571046212682,-21.237322200032786,-0.8993823133843861,0.8342727184137042,0.499875539436234,0.7034050931436048,-18.073055850397928,-6.898970367185295,-0.4568522676544582,0.12579392387110722,21.076932252016757,0.19371351974207562,0.22234563091198511,0.6250841710640271,0.9562960466226827,0.8060204511373447,-8.719749652938974
-103.38306657546067,-42.631704053633236,0.9085671127393444,0.5645212005021387,0.5219441274859528,8.141351742356212,-18.44902152787572,-16.19348889285431,0.8935023694896084,0.3458571046212682,-21.237322200032786,-0.8993823133843861,0.8342727184137042,0.499875539436234,0.7034050931436048,-18.073055850397928,-6.898970367185295,-0.4568522676544582,0.12579392387110722,21.076932252016757,0.19371351974207562,0.22234563091198511,0.6250841710640271,0.9562960466226827,0.8060204511373447,-8.719749652938974
-117.03318665781181,-53.55180011951414,0.9085671127393444,0.5645212005021387,0.5219441274859528,8.141351742356212,-18.44902152787572,-16.19348889285431,0.8935023694896084,0.3458571046212682,-21.237322200032786,-0.8993823133843861,0.8342727184137042,0.499875539436234,0.7034050931436048,-18.073055850397928,-6.898970367185295,-0.4568522676544582,0.12579392387110722,21.076932252016757,0.19371351974207562,0.22234563091198511,0.6250841710640271,0.9562960466226827,0.8060204511373447,-8.719749652938974
-130.6653982330348,-53.55180011951414,0.9085671127393444,0.5645212005021387,0.5219441274859528,8.141351742356212,-18.44902152787572,-16.19348889285431,0.8935023694896084,0.3458571046212682,-21.237322200032786,-11.805151573562773,0.8342727184137042,0.499875539436234,0.7034050931436048,-18.073055850397928,-6.898970367185295,-9.181467675797169,0.12579392387110722,21.076932252016757,0.19371351974207562,0.22234563091198511,0.6250841710640271,0.9562960466226827,0.8060204511373447,-8.719749652938974
-115.04578700628731,-43.27704838310631,0.9085671127393444,0.5645212005021387,0.5219441274859528,8.141351742356212,-18.44902152787572,-16.19348889285431,0.8935023694896084,0.3458571046212682,-21.237322200032786,-9.584214328572614,0.8342727184137042,0.499875539436234,0.7034050931436048,-18.073055850397928,-6.898970367185295,-7.40471787980504,0.12579392387110722,21.076932252016757,0.19371351974207562,0.22234563091198511,0.6250841710640271,0.9562960466226827,0.8060204511373447,-8.719749652938974
-131.1474693870483,-56.15839428771509,0.9085671127393444,0.5645212005021387,0.5219441274859528,8.141351742356212,-18.44902152787572,-16.19348889285431,0.8935023694896084,0.3458571046212682,-21.237322200032786,-9.584214328572614,0.8342727184137042,0.499875539436234,0.7034050931436048,-18.073055850397928,-6.898970367185295,-7.40471787980504,0.12579392387110722,21.076932252016757,0.19371351974207562,0.22234563091198511,0.6250841710640271,0.9562960466226827,0.8060204511373447,-8.719749652938974
-144.18474135513978,-56.15839428771509,0.9085671127393444,0.5645212005021387,0.5219441274859528,8.141351742356212,-18.44902152787572,-16.19348889285431,0.8935023694896084,0.3458571046212682,-21.237322200032786,-20.014031903045797,0.8342727184137042,0.499875539436234,0.7034050931436048,-18.073055850397928,-6.898970367185295,-15.748571939383588,0.12579392387110722,21.076932252016757,0.19371351974207562,0.22234563091198511,0.6250841710640271,0.9562960466226827,0.8060204511373447,-8.719749652938974
-158.8920726610946,-67.92425933247895,0.9085671127393444,0.5645212005021387,0.5219441274859528,8.141351742356212,-18.44902152787572,-16.19348889285431,0.8935023694896084,0.3458571046212682,-21.237322200032786,-20.014031903045797,0.8342727184137042,0.499875539436234,0.7034050931436048,-18.073055850397928,-6.898970367185295,-15.748571939383588,0.12579392387110722,21.076932252016757,0.19371351974207562,0.22234563091198511,0.6250841710640271,0.9562960466226827,0.8060204511373447,-8.719749652938974
-127.7585533826863,-67.92425933247895,0.9085671127393444,0.5645212005021387,0.5219441274859528,8.141351742356212,-18.44902152787572,-16.19348889285431,0.8935023694896084,0.3458571046212682,-21.237322200032786,-20.014031903045797,0.8342727184137042,0.499875539436234,0.7034050931436048,5.2365246559111185,-6.898970367185295,-15.748571939383588,0.12579392387110722,21.076932252016757,0.19371351974207562,0.22234563091198511,0.6250841710640271,0.9562960466226827,0.8060204511373447,11.525149668525863
-126.23388530840309,-67.92425933247895,0.9085671127393444,0.5645212005021387,0.5219441274859528,8.141351742356212,-18.44902152787572,-16.19348889285431,0.8935023694896084,0.3458571046212682,-21.237322200032786,-20.014031903045797,0.8342727184137042,0.499875539436234,0.7034050931436048,5.2365246559111185,-6.898970367185295,-15.748571939383588,0.12579392387110722,21.076932252016757,0.19371351974207562,0.22234563091198511,0.6250841710640271,0.9562960466226827,0.8060204511373447,12.74488412795243
-116.32532415362844,-67.92425933247895,0.9085671127393444,0.5645212005021387,0.5219441274859528,8.141351742356212,-10.522172604056003,-16.19348889285431,0.8935023694896084,0.3458571046212682,-21.237322200032786,-20.014031903045797,0.8342727184137042,0.499875539436234,0.7034050931436048,5.2365246559111185,-6.898970367185295,-15.748571939383588,0.12579392387110722,21.076932252016757,0.19371351974207562,0.22234563091198511,0.6250841710640271,0.9562960466226827,0.8060204511373447,12.74488412795243
-122.11988666102864,-72.55990933839912,0.9085671127393444,0.5645212005021387,0.5219441274859528,8.141351742356212,-10.522172604056003,-16.19348889285431,0.8935023694896084,0.3458571046212682,-21.237322200032786,-20.014031903045797,0.8342727184137042,0.499875539436234,0.7034050931436048,5.2365246559111185,-6.898970367185295,-15.748571939383588,0.12579392387110722,21.076932252016757,0.19371351974207562,0.22234563091198511,0.6250841710640271,0.9562960466226827,0.8060204511373447,12.74488412795243
-126.87142791709681,-76.36114234325366,0.9085671127393444,0.5645212005021387,0.5219441274859528,8.141351742356212,-10.522172604056003,-16.19348889285431,0.8935023694896084,0.3458571046212682,-21.237322200032786,-20.014031903045797,0.8342727184137042,0.499875539436234,0.7034050931436048,5.2365246559111185,-6.898970367185295,-15.748571939383588,0.12579392387110722,21.076932252016757,0.19371351974207562,0.22234563091198511,0.6250841710640271,0.9562960466226827,0.8060204511373447,12.74488412795243
-125.38889704131392,-76.36114234325366,0.9085671127393444,0.5645212005021387,0.5219441274859528,8.141351742356212,-10.522172604056003,-16.19348889285431,0.8935023694896084,0.3458571046212682,-21.237322200032786,-20.014031903045797,0.8342727184137042,0.499875539436234,0.7034050931436048,5.2365246559111185,-6.898970367185295,-15.748571939383588,0.12579392387110722,21.076932252016757,0.19371351974207562,0.22234563091198511,0.6250841710640271,0.9562960466226827,0.8060204511373447,13.93090882857874
-123.95973727705922,-76.36114234325366,0.9085671127393444,0.5645212005021387,0.5219441274859528,8.141351742356212,-10.522172604056003,-16.19348889285431,0.8935023694896084,0.3458571046212682,-21.237322200032786,-20.014031903045797,0.8342727184137042,0.499875539436234,0.7034050931436048,5.2365246559111185,-6.898970367185295,-15.748571939383588,0.12579392387110722,21.076932252016757,0.19371351974207562,0.22234563091198511,0.6250841710640271,0.9562960466226827,0.8060204511373447,15.074236639982502
-122.58202726431769,-76.36114234325366,0.9085671127393444,0.5645212005021387,0.5219441274859528,8.141351742356212,-10.522172604056003,-16.19348889285431,0.8935023694896084,0.3458571046212682,-21.237322200032786,-20.014031903045797,0.8342727184137042,0.499875539436234,0.7034050931436048,5.2365246559111185,-6.898970367185295,-15.748571939383588,0.12579392387110722,21.076932252016757,0.19371351974207562,0.22234563091198511,0.6250841710640271,0.9562960466226827,0.8060204511373447,16.17640465017573
-121.25391481203485,-76.36114234325366,0.9085671127393444,0.5645212005021387,0.5219441274859528,8.141351742356212,-10.522172604056003,-16.19348889285431,0.8935023694896084,0.3458571046212682,-21.237322200032786,-20.014031903045797,0.8342727184137042,0.499875539436234,0.7034050931436048,5.2365246559111185,-6.898970367185295,-15.748571939383588,0.12579392387110722,21.076932252016757,0.19371351974207562,0.22234563091198511,0.6250841710640271,0.9562960466226827,0.8060204511373447,17.238894612002
-119.9736144080342,-76.36114234325366,0.9085671127393444,0.5645212005021387,0.5219441274859528,8.141351742356212,-10.522172604056003,-16.19348889285431,0.8935023694896084,0.3458571046212682,-21.237322200032786,-20.014031903045797,0.8342727184137042,0.499875539436234,0.7034050931436048,5.2365246559111185,-6.898970367185295,-15.748571939383588,0.12579392387110722,21.076932252016757,0.19371351974207562,0.22234563091198511,0.6250841710640271,0.9562960466226827,0.8060204511373447,18.263134935202523
-123.01454936288633,-78.79389030713536,0.9085671127393444,0.5645212005021387,0.5219441274859528,8.141351742356212,-10.522172604056003,-16.19348889285431,0.8935023694896084,0.3458571046212682,-21.237322200032786,-20.014031903045797,0.8342727184137042,0.499875539436234,0.7034050931436048,5.2365246559111185,-6.898970367185295,-15.748571939383588,0.12579392387110722,21.076932252016757,0.19371351974207562,0.22234563091198511,0.6250841710640271,0.9562960466226827,0.8060204511373447,18.263134935202523
-121.71952107433265,-78.79389030713536,0.9085671127393444,0.5645212005021387,0.5219441274859528,8.141351742356212,-10.522172604056003,-16.19348889285431,0.8935023694896084,0.3458571046212682,-21.237322200032786,-20.014031903045797,0.8342727184137042,0.499875539436234,0.7034050931436048,5.2365246559111185,-6.898970367185295,-15.748571939383588,0.12579392387110722,21.076932252016757,0.19371351974207562,0.22234563091198511,0.6250841710640271,0.9562960466226827,0.8060204511373447,19.299157566045462
-120.4711138041669,-78.79389030713536,0.9085671127393444,0.5645212005021387,0.5219441274859528,8.141351742356212,-10.522172604056003,-16.19348889285431,0.8935023694896084,0.3458571046212682,-21.237322200032786,-20.014031903045797,0.8342727184137042,0.499875539436234,0.7034050931436048,5.2365246559111185,-6.898970367185295,-15.748571939383588,0.12579392387110722,21.076932252016757,0.19371351974207562,0.22234563091198511,0.6250841710640271,0.9562960466226827,0.8060204511373447,20.297883382178057
-119.26764919572713,-78.79389030713536,0.9085671127393444,0.5645212005021387,0.5219441274859528,8.141351742356212,-10.522172604056003,-16.19348889285431,0.8935023694896084,0.3458571046212682,-21.237322200032786,-20.014031903045797,0.8342727184137042,0.499875539436234,0.7034050931436048,5.2365246559111185,-6.898970367185295,-15.748571939383588,0.12579392387110722,21.076932252016757,0.19371351974207562,0.22234563091198511,0.6250841710640271,0.9562960466226827,0.8060204511373447,21.26065506892988
-118.10750931319119,-78.79389030713536,0.9085671127393444,0.5645212005021387,0.5219441274859528,8.141351742356212,-10.522172604056003,-16.19348889285431,0.8935023694896084,0.3458571046212682,-21.237322200032786,-20.014031903045797,0.8342727184137042,0.499875539436234,0.7034050931436048,5.2365246559111185,-6.898970367185295,-15.748571939383588,0.12579392387110722,21.076932252016757,0.19371351974207562,0.22234563091198511,0.6250841710640271,0.9562960466226827,0.8060204511373447,22.188766974958632
-116.98913446642653,-78.79389030713536,0.9085671127393444,0.5645212005021387,0.5219441274859528,8.141351742356212,-10.522172604056003,-16.19348889285431,0.8935023694896084,0.3458571046212682,-21.237322200032786,-20.014031903045797,0.8342727184137042,0.499875539436234,0.7034050931436048,5.2365246559111185,-6.898970367185295,-15.748571939383588,0.12579392387110722,21.076932252016757,0.19371351974207562,0.22234563091198511,0.6250841710640271,0.9562960466226827,0.8060204511373447,23.08346685237035
-118.73554968224427,-80.19102247978954,0.9085671127393444,0.5645212005021387,0.5219441274859528,8.141351742356212,-10.522172604056003,-16.19348889285431,0.8935023694896084,0.3458571046212682,-21.237322200032786,-20.014031903045797,0.8342727184137042,0.499875539436234,0.7034050931436048,5.2365246559111185,-6.898970367185295,-15.748571939383588,0.12579392387110722,21.076932252016757,0.19371351974207562,0.22234563091198511,0.6250841710640271,0.9562960466226827,0.8060204511373447,23.08346685237035
-117.6225080256468,-80.19102247978954,0.9085671127393444,0.5645212005021387,0.5219441274859528,8.141351742356212,-10.522172604056003,-16.19348889285431,0.8935023694896084,0.3458571046212682,-21.237322200032786,-20.014031903045797,0.8342727184137042,0.499875539436234,0.7034050931436048,5.2365246559111185,-6.898970367185295,-15.748571939383588,0.12579392387110722,21.076932252016757,0.19371351974207562,0.22234563091198511,0.6250841710640271,0.9562960466226827,0.8060204511373447,23.973900177648332
-116.54953586868683,-80.19102247978954,0.9085671127393444,0.5645212005021387,0.5219441274859528,8.141351742356212,-10.522172604056003,-16.19348889285431,0.8935023694896084,0.3458571046212682,-21.237322200032786,-20.014031903045797,0.8342727184137042,0.499875539436234,0.7034050931436048,5.2365246559111185,-6.898970367185295,-15.748571939383588,0.12579392387110722,21.076932252016757,0.19371351974207562,0.22234563091198511,0.6250841710640271,0.9562960466226827,0.8060204511373447,24.83227790321631
-117.71053063277625,-81.11981829106107,0.9085671127393444,0.5645212005021387,0.5219441274859528,8.141351742356212,-10.522172604056003,-16.19348889285431,0.8935023694896084,0.3458571046212682,-21.237322200032786,-20.014031903045797,0.8342727184137042,0.499875539436234,0.7034050931436048,5.2365246559111185,-6.898970367185295,-15.748571939383588,0.12579392387110722,21.076932252016757,0.19371351974207562,0.22234563091198511,0.6250841710640271,0.9562960466226827,0.8060204511373447,24.83227790321631
-118.66254633932958,-81.88143085630372,0.9085671127393444,0.5645212005021387,0.5219441274859528,8.141351742356212,-10.522172604056003,-16.19348889285431,0.8935023694896084,0.3458571046212682,-21.237322200032786,-20.014031903045797,0.8342727184137042,0.499875539436234,0.7034050931436048,5.2365246559111185,-6.898970367185295,-15.748571939383588,0.12579392387110722,21.076932252016757,0.19371351974207562,0.22234563091198511,0.6250841710640271,0.9562960466226827,0.8060204511373447,24.83227790321631
-119.4431992187033,-82.50595315980271,0.9085671127393444,0.5645212005021387,0.5219441274859528,8.141351742356212,-10.522172604056003,-16.19348889285431,0.8935023694896084,0.3458571046212682,-21.237322200032786,-20.014031903045797,0.8342727184137042,0.499875539436234,0.7034050931436048,5.2365246559111185,-6.898970367185295,-15.748571939383588,0.12579392387110722,21.076932252016757,0.19371351974207562,0.22234563091198511,0.6250841710640271,0.9562960466226827,0.8060204511373447,24.83227790321631
-120.08333457978975,-83.01806144867189,0.9085671127393444,0.5645212005021387,0.5219441274859528,8.141351742356212,-10.522172604056003,-16.19348889285431,0.8935023694896084,0.3458571046212682,-21.237322200032786,-20.014031903045797,0.8342727184137042,0.499875539436234,0.7034050931436048,5.2365246559111185,-6.898970367185295,-15.748571939383588,0.12579392387110722,21.076932252016757,0.19371351974207562,0.22234563091198511,0.6250841710640271,0.9562960466226827,0.8060204511373447,24.83227790321631
-112.17316008704415,-83.01806144867189,0.9085671127393444,0.5645212005021387,0.5219441274859528,8.141351742356212,-10.522172604056003,-9.86534929865784,0.8935023694896084,0.3458571046212682,-21.237322200032786,-20.014031903045797,0.8342727184137042,0.499875539436234,0.7034050931436048,5.2365246559111185,-6.898970367185295,-15.748571939383588,0.12579392387110722,21.076932252016757,0.19371351974207562,0.22234563091198511,0.6250841710640271,0.9562960466226827,0.8060204511373447,24.83227790321631
-111.2263424433676,-83.01806144867189,0.9085671127393444,0.5645212005021387,0.5219441274859528,8.141351742356212,-10.522172604056003,-9.86534929865784,0.8935023694896084,0.3458571046212682,-21.237322200032786,-20.014031903045797,0.8342727184137042,0.499875539436234,0.7034050931436048,5.2365246559111185,-6.898970367185295,-15.748571939383588,0.12579392387110722,21.076932252016757,0.19371351974207562,0.22234563091198511,0.6250841710640271,0.9562960466226827,0.8060204511373447,25.589732018157555
-100.89122931042068,-83.01806144867189,0.9085671127393444,0.5645212005021387,0.5219441274859528,8.141351742356212,-2.2540820976984755,-9.86534929865784,0.8935023694896084,0.3458571046212682,-21.237322200032786,-20.014031903045797,0.8342727184137042,0.499875539436234,0.7034050931436048,5.2365246559111185,-6.898970367185295,-15.748571939383588,0.12579392387110722,21.076932252016757,0.19371351974207562,0.22234563091198511,0.6250841710640271,0.9562960466226827,0.8060204511373447,25.589732018157555
-100.18519936457542,-83.01806144867189,0.9085671127393444,0.5645212005021387,0.5219441274859528,8.141351742356212,-2.2540820976984755,-9.86534929865784,0.8935023694896084,0.3458571046212682,-21.237322200032786,-20.014031903045797,0.8342727184137042,0.499875539436234,0.7034050931436048,5.2365246559111185,-6.898970367185295,-15.748571939383588,0.12579392387110722,21.076932252016757,0.19371351974207562,0.22234563091198511,0.6250841710640271,0.9562960466226827,0.8060204511373447,26.15455597483377
-99.50458649678059,-83.01806144867189,0.9085671127393444,0.5645212005021387,0.5219441274859528,8.141351742356212,-2.2540820976984755,-9.86534929865784,0.8935023694896084,0.3458571046212682,-21.237322200032786,-20.014031903045797,0.8342727184137042,0.499875539436234,0.7034050931436048,5.2365246559111185,-6.898970367185295,-15.748571939383588,0.12579392387110722,21.076932252016757,0.19371351974207562,0.22234563091198511,0.6250841710640271,0.9562960466226827,0.8060204511373447,26.699046269069633
-98.84847569222637,-83.01806144867189,0.9085671127393444,0.5645212005021387,0.5219441274859528,8.141351742356212,-2.2540820976984755,-9.86534929865784,0.8935023694896084,0.3458571046212682,-21.237322200032786,-20.014031903045797,0.8342727184137042,0.499875539436234,0.7034050931436048,5.2365246559111185,-6.898970367185295,-15.748571939383588,0.12579392387110722,21.076932252016757,0.19371351974207562,0.22234563091198511,0.6250841710640271,0.9562960466226827,0.8060204511373447,27.223934912713005
-92.19812803436194,-83.01806144867189,0.9085671127393444,0.5645212005021387,0.5219441274859528,8.141351742356212,-2.2540820976984755,-4.5450711723662875,0.8935023694896084,0.3458571046212682,-21.237322200032786,-20.014031903045797,0.8342727184137042,0.499875539436234,0.7034050931436048,5.2365246559111185,-6.898970367185295,-15.748571939383588,0.12579392387110722,21.076932252016757,0.19371351974207562,0.22234563091198511,0.6250841710640271,0.9562960466226827,0.8060204511373447,27.223934912713005
-91.69864417192896,-83.01806144867189,0.9085671127393444,0.5645212005021387,0.5219441274859528,8.141351742356212,-2.2540820976984755,-4.5450711723662875,0.8935023694896084,0.3458571046212682,-21.237322200032786,-20.014031903045797,0.8342727184137042,0.499875539436234,0.7034050931436048,5.2365246559111185,-6.898970367185295,-15.748571939383588,0.12579392387110722,21.076932252016757,0.19371351974207562,0.22234563091198511,0.6250841710640271,0.9562960466226827,0.8060204511373447,27.62352200265939
-91.21714172854357,-83.01806144867189,0.9085671127393444,0.5645212005021387,0.5219441274859528,8.141351742356212,-2.2540820976984755,-4.5450711723662875,0.8935023694896084,0.3458571046212682,-21.237322200032786,-20.014031903045797,0.8342727184137042,0.499875539436234,0.7034050931436048,5.2365246559111185,-6.898970367185295,-15.748571939383588,0.12579392387110722,21.076932252016757,0.19371351974207562,0.22234563091198511,0.6250841710640271,0.9562960466226827,0.8060204511373447,28.0087239573677
-90.75297337312006,-83.01806144867189,0.9085671127393444,0.5645212005021387,0.5219441274859528,8.141351742356212,-2.2540820976984755,-4.5450711723662875,0.8935023694896084,0.3458571046212682,-21.237322200032786,-20.014031903045797,0.8342727184137042,0.499875539436234,0.7034050931436048,5.2365246559111185,-6.898970367185295,-15.748571939383588,0.12579392387110722,21.076932252016757,0.19371351974207562,0.22234563091198511,0.6250841710640271,0.9562960466226827,0.8060204511373447,28.380058641706515
-90.30551507849178,-83.01806144867189,0.9085671127393444,0.5645212005021387,0.5219441274859528,8.141351742356212,-2.2540820976984755,-4.5450711723662875,0.8935023694896084,0.3458571046212682,-21.237322200032786,-20.014031903045797,0.8342727184137042,0.499875539436234,0.7034050931436048,5.2365246559111185,-6.898970367185295,-15.748571939383588,0.12579392387110722,21.076932252016757,0.19371351974207562,0.22234563091198511,0.6250841710640271,0.9562960466226827,0.8060204511373447,28.738025277409132
-89.87416528247013,-83.01806144867189,0.9085671127393444,0.5645212005021387,0.5219441274859528,8.141351742356212,-2.2540820976984755,-4.5450711723662875,0.8935023694896084,0.3458571046212682,-21.237322200032786,-20.014031903045797,0.8342727184137042,0.499875539436234,0.7034050931436048,5.2365246559111185,-6.898970367185295,-15.748571939383588,0.12579392387110722,21.076932252016757,0.19371351974207562,0.22234563091198511,0.6250841710640271,0.9562960466226827,0.8060204511373447,29.083105114226456
-89.45834407910526,-83.01806144867189,0.9085671127393444,0.5645212005021387,0.5219441274859528,8.141351742356212,-2.2540820976984755,-4.5450711723662875,0.8935023694896084,0.3458571046212682,-21.237322200032786,-20.014031903045797,0.8342727184137042,0.499875539436234,0.7034050931436048,5.2365246559111185,-6.898970367185295,-15.748571939383588,0.12579392387110722,21.076932252016757,0.19371351974207562,0.22234563091198511,0.6250841710640271,0.9562960466226827,0.8060204511373447,29.415762076918355
-89.05749243906152,-83.01806144867189,0.9085671127393444,0.5645212005021387,0.5219441274859528,8.141351742356212,-2.2540820976984755,-4.5450711723662875,0.8935023694896084,0.3458571046212682,-21.237322200032786,-20.014031903045797,0.8342727184137042,0.499875539436234,0.7034050931436048,5.2365246559111185,-6.898970367185295,-15.748571939383588,0.12579392387110722,21.076932252016757,0.19371351974207562,0.22234563091198511,0.6250841710640271,0.9562960466226827,0.8060204511373447,29.736443388953344
-89.32017049053431,-83.22820388985012,0.9085671127393444,0.5645212005021387,0.5219441274859528,8.141351742356212,-2.2540820976984755,-4.5450711723662875,0.8935023694896084,0.3458571046212682,-21.237322200032786,-20.014031903045797,0.8342727184137042,0.499875539436234,0.7034050931436048,5.2365246559111185,-6.898970367185295,-15.748571939383588,0.12579392387110722,21.076932252016757,0.19371351974207562,0.22234563091198511,0.6250841710640271,0.9562960466226827,0.8060204511373447,29.736443388953344
-89.53556649274199,-83.40052069161628,0.9085671127393444,0.5645212005021387,0.5219441274859528,8.141351742356212,-2.2540820976984755,-4.5450711723662875,0.8935023694896084,0.3458571046212682,-21.237322200032786,-20.014031903045797,0.8342727184137042,0.499875539436234,0.7034050931436048,5.2365246559111185,-6.898970367185295,-15.748571939383588,0.12579392387110722,21.076932252016757,0.19371351974207562,0.22234563091198511,0.6250841710640271,0.9562960466226827,0.8060204511373447,29.736443388953344
-89.13958403066621,-83.40052069161628,0.9085671127393444,0.5645212005021387,0.5219441274859528,8.141351742356212,-2.2540820976984755,-4.5450711723662875,0.8935023694896084,0.3458571046212682,-21.237322200032786,-20.014031903045797,0.8342727184137042,0.499875539436234,0.7034050931436048,5.2365246559111185,-6.898970367185295,-15.748571939383588,0.12579392387110722,21.076932252016757,0.19371351974207562,0.22234563091198511,0.6250841710640271,0.9562960466226827,0.8060204511373447,30.05322935861396
-80.09639464596268,-83.40052069161628,0.9085671127393444,0.5645212005021387,0.5219441274859528,8.141351742356212,4.980469410064348,-4.5450711723662875,0.8935023694896084,0.3458571046212682,-21.237322200032786,-20.014031903045797,0.8342727184137042,0.499875539436234,0.7034050931436048,5.2365246559111185,-6.898970367185295,-15.748571939383588,0.12579392387110722,21.076932252016757,0.19371351974207562,0.22234563091198511,0.6250841710640271,0.9562960466226827,0.8060204511373447,30.05322935861396
-79.8955313402157,-83.40052069161628,0.9085671127393444,0.5645212005021387,0.5219441274859528,8.141351742356212,4.980469410064348,-4.5450711723662875,0.8935023694896084,0.3458571046212682,-21.237322200032786,-20.014031903045797,0.8342727184137042,0.499875539436234,0.7034050931436048,5.2365246559111185,-6.898970367185295,-15.748571939383588,0.12579392387110722,21.076932252016757,0.19371351974207562,0.22234563091198511,0.6250841710640271,0.9562960466226827,0.8060204511373447,30.21392000321154
-80.17901097451005,-83.62730439905177,0.9085671127393444,0.5645212005021387,0.5219441274859528,8.141351742356212,4.980469410064348,-4.5450711723662875,0.8935023694896084,0.3458571046212682,-21.237322200032786,-20.014031903045797,0.8342727184137042,0.499875539436234,0.7034050931436048,5.2365246559111185,-6.898970367185295,-15.748571939383588,0.12579392387110722,21.076932252016757,0.19371351974207562,0.22234563091198511,0.6250841710640271,0.9562960466226827,0.8060204511373447,30.21392000321154
-79.97970915508408,-83.62730439905177,0.9085671127393444,0.5645212005021387,0.5219441274859528,8.141351742356212,4.980469410064348,-4.5450711723662875,0.8935023694896084,0.3458571046212682,-21.237322200032786,-20.014031903045797,0.8342727184137042,0.499875539436234,0.7034050931436048,5.2365246559111185,-6.898970367185295,-15.748571939383588,0.12579392387110722,21.076932252016757,0.19371351974207562,0.22234563091198511,0.6250841710640271,0.9562960466226827,0.8060204511373447,30.373361458752317
-79.78758220115745,-83.62730439905177,0.9085671127393444,0.5645212005021387,0.5219441274859528,8.141351742356212,4.980469410064348,-4.5450711723662875,0.8935023694896084,0.3458571046212682,-21.237322200032786,-20.014031903045797,0.8342727184137042,0.499875539436234,0.7034050931436048,5.2365246559111185,-6.898970367185295,-15.748571939383588,0.12579392387110722,21.076932252016757,0.19371351974207562,0.22234563091198511,0.6250841710640271,0.9562960466226827,0.8060204511373447,30.527063021893625
-79.60237181757218,-83.62730439905177,0.9085671127393444,0.5645212005021387,0.5219441274859528,8.141351742356212,4.980469410064348,-4.5450711723662875,0.8935023694896084,0.3458571046212682,-21.237322200032786,-20.014031903045797,0.8342727184137042,0.499875539436234,0.7034050931436048,5.2365246559111185,-6.898970367185295,-15.748571939383588,0.12579392387110722,21.076932252016757,0.19371351974207562,0.22234563091198511,0.6250841710640271,0.9562960466226827,0.8060204511373447,30.675231328761846
-73.77976850757034,-83.62730439905177,0.9085671127393444,0.5645212005021387,0.5219441274859528,8.141351742356212,4.980469410064348,0.11301147563517944,0.8935023694896084,0.3458571046212682,-21.237322200032786,-20.014031903045797,0.8342727184137042,0.499875539436234,0.7034050931436048,5.2365246559111185,-6.898970367185295,-15.748571939383588,0.12579392387110722,21.076932252016757,0.19371351974207562,0.22234563091198511,0.6250841710640271,0.9562960466226827,0.8060204511373447,30.675231328761846
-69.00523379336883,-83.62730439905177,0.9085671127393444,0.5645212005021387,0.5219441274859528,8.141351742356212,4.980469410064348,3.9326392469963816,0.8935023694896084,0.3458571046212682,-21.237322200032786,-20.014031903045797,0.8342727184137042,0.499875539436234,0.7034050931436048,5.2365246559111185,-6.898970367185295,-15.748571939383588,0.12579392387110722,21.076932252016757,0.19371351974207562,0.22234563091198511,0.6250841710640271,0.9562960466226827,0.8060204511373447,30.675231328761846
-65.0901153277236,-83.62730439905177,0.9085671127393444,0.5645212005021387,0.5219441274859528,8.141351742356212,4.980469410064348,7.064734019512567,0.8935023694896084,0.3458571046212682,-21.237322200032786,-20.014031903045797,0.8342727184137042,0.499875539436234,0.7034050931436048,5.2365246559111185,-6.898970367185295,-15.748571939383588,0.12579392387110722,21.076932252016757,0.19371351974207562,0.22234563091198511,0.6250841710640271,0.9562960466226827,0.8060204511373447,30.675231328761846
-57.86286526400486,-83.62730439905177,0.9085671127393444,0.5645212005021387,0.5219441274859528,8.141351742356212,10.762269461039335,7.064734019512567,0.8935023694896084,0.3458571046212682,-21.237322200032786,-20.014031903045797,0.8342727184137042,0.499875539436234,0.7034050931436048,5.2365246559111185,-6.898970367185295,-15.748571939383588,0.12579392387110722,21.076932252016757,0.19371351974207562,0.22234563091198511,0.6250841710640271,0.9562960466226827,0.8060204511373447,30.675231328761846
-58.1191125853,-83.62730439905177,0.9085671127393444,0.5645212005021387,0.5219441274859528,8.141351742356212,10.762269461039335,7.064734019512567,0.8935023694896084,0.3458571046212682,-21.237322200032786,-20.014031903045797,0.8342727184137042,0.499875539436234,0.7034050931436048,5.2365246559111185,-6.898970367185295,-15.748571939383588,0.12579392387110722,21.076932252016757,0.19371351974207562,0.22234563091198511,0.6250841710640271,0.9562960466226827,0.8060204511373447,30.470233471725734
-58.74662742887302,-84.12931627391018,0.9085671127393444,0.5645212005021387,0.5219441274859528,8.141351742356212,10.762269461039335,7.064734019512567,0.8935023694896084,0.3458571046212682,-21.237322200032786,-20.014031903045797,0.8342727184137042,0.499875539436234,0.7034050931436048,5.2365246559111185,-6.898970367185295,-15.748571939383588,0.12579392387110722,21.076932252016757,0.19371351974207562,0.22234563091198511,0.6250841710640271,0.9562960466226827,0.8060204511373447,30.470233471725734
-58.981099549730075,-84.12931627391018,0.9085671127393444,0.5645212005021387,0.5219441274859528,8.141351742356212,10.762269461039335,7.064734019512567,0.8935023694896084,0.3458571046212682,-21.237322200032786,-20.014031903045797,0.8342727184137042,0.499875539436234,0.7034050931436048,5.2365246559111185,-6.898970367185295,-15.748571939383588,0.12579392387110722,21.076932252016757,0.19371351974207562,0.22234563091198511,0.6250841710640271,0.9562960466226827,0.8060204511373447,30.28265577504009
-59.52473626444622,-84.5642256456831,0.9085671127393444,0.5645212005021387,0.5219441274859528,8.141351742356212,10.762269461039335,7.064734019512567,0.8935023694896084,0.3458571046212682,-21.237322200032786,-20.014031903045797,0.8342727184137042,0.499875539436234,0.7034050931436048,5.2365246559111185,-6.898970367185295,-15.748571939383588,0.12579392387110722,21.076932252016757,0.19371351974207562,0.22234563091198511,0.6250841710640271,0.9562960466226827,0.8060204511373447,30.28265577504009
-59.97051837051346,-84.92085133053689,0.9085671127393444,0.5645212005021387,0.5219441274859528,8.141351742356212,10.762269461039335,7.064734019512567,0.8935023694896084,0.3458571046212682,-21.237322200032786,-20.014031903045797,0.8342727184137042,0.499875539436234,0.7034050931436048,5.2365246559111185,-6.898970367185295,-15.748571939383588,0.12579392387110722,21.076932252016757,0.19371351974207562,0.22234563091198511,0.6250841710640271,0.9562960466226827,0.8060204511373447,30.28265577504009
-60.3360596974886,-85.213284392117,0.9085671127393444,0.5645212005021387,0.5219441274859528,8.141351742356212,10.762269461039335,7.064734019512567,0.8935023694896084,0.3458571046212682,-21.237322200032786,-20.014031903045797,0.8342727184137042,0.499875539436234,0.7034050931436048,5.2365246559111185,-6.898970367185295,-15.748571939383588,0.12579392387110722,21.076932252016757,0.19371351974207562,0.22234563091198511,0.6250841710640271,0.9562960466226827,0.8060204511373447,30.28265577504009
-57.291407267934126,-85.213284392117,0.9085671127393444,0.5645212005021387,0.5219441274859528,8.141351742356212,10.762269461039335,9.500455963156147,0.8935023694896084,0.3458571046212682,-21.237322200032786,-20.014031903045797,0.8342727184137042,0.499875539436234,0.7034050931436048,5.2365246559111185,-6.898970367185295,-15.748571939383588,0.12579392387110722,21.076932252016757,0.19371351974207562,0.22234563091198511,0.6250841710640271,0.9562960466226827,0.8060204511373447,30.28265577504009
-54.79479227569946,-85.213284392117,0.9085671127393444,0.5645212005021387,0.5219441274859528,8.141351742356212,10.762269461039335,11.497747956943883,0.8935023694896084,0.3458571046212682,-21.237322200032786,-20.014031903045797,0.8342727184137042,0.499875539436234,0.7034050931436048,5.2365246559111185,-6.898970367185295,-15.748571939383588,0.12579392387110722,21.076932252016757,0.19371351974207562,0.22234563091198511,0.6250841710640271,0.9562960466226827,0.8060204511373447,30.28265577504009
-55.10454954568627,-85.213284392117,0.9085671127393444,0.5645212005021387,0.5219441274859528,8.141351742356212,10.762269461039335,11.497747956943883,0.8935023694896084,0.3458571046212682,-21.237322200032786,-20.014031903045797,0.8342727184137042,0.499875539436234,0.7034050931436048,5.2365246559111185,-6.898970367185295,-15.748571939383588,0.12579392387110722,21.076932252016757,0.19371351974207562,0.22234563091198511,0.6250841710640271,0.9562960466226827,0.8060204511373447,30.03484995905064
-55.553528683720025,-85.572467702544,0.9085671127393444,0.5645212005021387,0.5219441274859528,8.141351742356212,10.762269461039335,11.497747956943883,0.8935023694896084,0.3458571046212682,-21.237322200032786,-20.014031903045797,0.8342727184137042,0.499875539436234,0.7034050931436048,5.2365246559111185,-6.898970367185295,-15.748571939383588,0.12579392387110722,21.076932252016757,0.19371351974207562,0.22234563091198511,0.6250841710640271,0.9562960466226827,0.8060204511373447,30.03484995905064
-55.92169157690771,-85.86699801709415,0.9085671127393444,0.5645212005021387,0.5219441274859528,8.141351742356212,10.762269461039335,11.497747956943883,0.8935023694896084,0.3458571046212682,-21.237322200032786,-20.014031903045797,0.8342727184137042,0.499875539436234,0.7034050931436048,5.2365246559111185,-6.898970367185295,-15.748571939383588,0.12579392387110722,21.076932252016757,0.19371351974207562,0.22234563091198511,0.6250841710640271,0.9562960466226827,0.8060204511373447,30.03484995905064
-56.20395474455057,-85.86699801709415,0.9085671127393444,0.5645212005021387,0.5219441274859528,8.141351742356212,10.762269461039335,11.497747956943883,0.8935023694896084,0.3458571046212682,-21.237322200032786,-20.014031903045797,0.8342727184137042,0.499875539436234,0.7034050931436048,5.2365246559111185,-6.898970367185295,-15.748571939383588,0.12579392387110722,21.076932252016757,0.19371351974207562,0.22234563091198511,0.6250841710640271,0.9562960466226827,0.8060204511373447,29.80903942493635
-56.54084894975219,-86.13651338125544,0.9085671127393444,0.5645212005021387,0.5219441274859528,8.141351742356212,10.762269461039335,11.497747956943883,0.8935023694896084,0.3458571046212682,-21.237322200032786,-20.014031903045797,0.8342727184137042,0.499875539436234,0.7034050931436048,5.2365246559111185,-6.898970367185295,-15.748571939383588,0.12579392387110722,21.076932252016757,0.19371351974207562,0.22234563091198511,0.6250841710640271,0.9562960466226827,0.8060204511373447,29.80903942493635
-56.81710219801751,-86.3575159798677,0.9085671127393444,0.5645212005021387,0.5219441274859528,8.141351742356212,10.762269461039335,11.497747956943883,0.8935023694896084,0.3458571046212682,-21.237322200032786,-20.014031903045797,0.8342727184137042,0.499875539436234,0.7034050931436048,5.2365246559111185,-6.898970367185295,-15.748571939383588,0.12579392387110722,21.076932252016757,0.19371351974207562,0.22234563091198511,0.6250841710640271,0.9562960466226827,0.8060204511373447,29.80903942493635
-57.04362986159507,-86.53873811072975,0.9085671127393444,0.5645212005021387,0.5219441274859528,8.141351742356212,10.762269461039335,11.497747956943883,0.8935023694896084,0.3458571046212682,-21.237322200032786,-20.014031903045797,0.8342727184137042,0.499875539436234,0.7034050931436048,5.2365246559111185,-6.898970367185295,-15.748571939383588,0.12579392387110722,21.076932252016757,0.19371351974207562,0.22234563091198511,0.6250841710640271,0.9562960466226827,0.8060204511373447,29.80903942493635
-57.229382545728676,-86.68734025803664,0.9085671127393444,0.5645212005021387,0.5219441274859528,8.141351742356212,10.762269461039335,11.497747956943883,0.8935023694896084,0.3458571046212682,-21.237322200032786,-20.014031903045797,0.8342727184137042,0.499875539436234,0.7034050931436048,5.2365246559111185,-6.898970367185295,-15.748571939383588,0.12579392387110722,21.076932252016757,0.19371351974207562,0.22234563091198511,0.6250841710640271,0.9562960466226827,0.8060204511373447,29.80903942493635
-57.48097568331283,-86.68734025803664,0.9085671127393444,0.5645212005021387,0.5219441274859528,8.141351742356212,10.762269461039335,11.497747956943883,0.8935023694896084,0.3458571046212682,-21.237322200032786,-20.014031903045797,0.8342727184137042,0.499875539436234,0.7034050931436048,5.2365246559111185,-6.898970367185295,-15.748571939383588,0.12579392387110722,21.076932252016757,0.19371351974207562,0.22234563091198511,0.6250841710640271,0.9562960466226827,0.8060204511373447,29.607764914869026
-55.501508076358924,-86.68734025803664,0.9085671127393444,0.5645212005021387,0.5219441274859528,8.141351742356212,10.762269461039335,13.081322042507008,0.8935023694896084,0.3458571046212682,-21.237322200032786,-20.014031903045797,0.8342727184137042,0.499875539436234,0.7034050931436048,5.2365246559111185,-6.898970367185295,-15.748571939383588,0.12579392387110722,21.076932252016757,0.19371351974207562,0.22234563091198511,0.6250841710640271,0.9562960466226827,0.8060204511373447,29.607764914869026
-49.814534122363185,-86.68734025803664,0.9085671127393444,0.5645212005021387,0.5219441274859528,8.141351742356212,15.311848624235923,13.081322042507008,0.8935023694896084,0.3458571046212682,-21.237322200032786,-20.014031903045797,0.8342727184137042,0.499875539436234,0.7034050931436048,5.2365246559111185,-6.898970367185295,-15.748571939383588,0.12579392387110722,21.076932252016757,0.19371351974207562,0.22234563091198511,0.6250841710640271,0.9562960466226827,0.8060204511373447,29.607764914869026
-50.151377703632164,-86.95681512305183,0.9085671127393444,0.5645212005021387,0.5219441274859528,8.141351742356212,15.311848624235923,13.081322042507008,0.8935023694896084,0.3458571046212682,-21.237322200032786,-20.014031903045797,0.8342727184137042,0.499875539436234,0.7034050931436048,5.2365246559111185,-6.898970367185295,-15.748571939383588,0.12579392387110722,21.076932252016757,0.19371351974207562,0.22234563091198511,0.6250841710640271,0.9562960466226827,0.8060204511373447,29.607764914869026
-50.42758944027273,-87.17778451236428,0.9085671127393444,0.5645212005021387,0.5219441274859528,8.141351742356212,15.311848624235923,13.081322042507008,0.8935023694896084,0.3458571046212682,-21.237322200032786,-20.014031903045797,0.8342727184137042,0.499875539436234,0.7034050931436048,5.2365246559111185,-6.898970367185295,-15.748571939383588,0.12579392387110722,21.076932252016757,0.19371351974207562,0.22234563091198511,0.6250841710640271,0.9562960466226827,0.8060204511373447,29.607764914869026
-50.654083064317994,-87.3589794116005,0.9085671127393444,0.5645212005021387,0.5219441274859528,8.141351742356212,15.311848624235923,13.081322042507008,0.8935023694896084,0.3458571046212682,-21.237322200032786,-20.014031903045797,0.8342727184137042,0.499875539436234,0.7034050931436048,5.2365246559111185,-6.898970367185295,-15.748571939383588,0.12579392387110722,21.076932252016757,0.19371351974207562,0.22234563091198511,0.6250841710640271,0.9562960466226827,0.8060204511373447,29.607764914869026
-50.839807836035114,-87.5075592289742,0.9085671127393444,0.5645212005021387,0.5219441274859528,8.141351742356212,15.311848624235923,13.081322042507008,0.8935023694896084,0.3458571046212682,-21.237322200032786,-20.014031903045797,0.8342727184137042,0.499875539436234,0.7034050931436048,5.2365246559111185,-6.898970367185295,-15.748571939383588,0.12579392387110722,21.076932252016757,0.19371351974207562,0.22234563091198511,0.6250841710640271,0.9562960466226827,0.8060204511373447,29.607764914869026
-50.992102148843145,-87.62939467922062,0.9085671127393444,0.5645212005021387,0.5219441274859528,8.141351742356212,15.311848624235923,13.081322042507008,0.8935023694896084,0.3458571046212682,-21.237322200032786,-20.014031903045797,0.8342727184137042,0.499875539436234,0.7034050931436048,5.2365246559111185,-6.898970367185295,-15.748571939383588,0.12579392387110722,21.076932252016757,0.19371351974207562,0.22234563091198511,0.6250841710640271,0.9562960466226827,0.8060204511373447,29.607764914869026
-51.116983485345735,-87.72929974842269,0.9085671127393444,0.5645212005021387,0.5219441274859528,8.141351742356212,15.311848624235923,13.081322042507008,0.8935023694896084,0.3458571046212682,-21.237322200032786,-20.014031903045797,0.8342727184137042,0.499875539436234,0.7034050931436048,5.2365246559111185,-6.898970367185295,-15.748571939383588,0.12579392387110722,21.076932252016757,0.19371351974207562,0.22234563091198511,0.6250841710640271,0.9562960466226827,0.8060204511373447,29.607764914869026
-51.21938618127786,-87.81122190516838,0.9085671127393444,0.5645212005021387,0.5219441274859528,8.141351742356212,15.311848624235923,13.081322042507008,0.8935023694896084,0.3458571046212682,-21.237322200032786,-20.014031903045797,0.8342727184137042,0.499875539436234,0.7034050931436048,5.2365246559111185,-6.898970367185295,-15.748571939383588,0.12579392387110722,21.076932252016757,0.19371351974207562,0.22234563091198511,0.6250841710640271,0.9562960466226827,0.8060204511373447,29.607764914869026
-51.587153755949686,-87.81122190516838,0.9085671127393444,0.5645212005021387,0.5219441274859528,8.141351742356212,15.311848624235923,13.081322042507008,0.8935023694896084,0.3458571046212682,-21.237322200032786,-20.014031903045797,0.8342727184137042,0.499875539436234,0.7034050931436048,5.2365246559111185,-6.898970367185295,-15.748571939383588,0.12579392387110722,21.076932252016757,0.19371351974207562,0.22234563091198511,0.6250841710640271,0.9562960466226827,0.8060204511373447,29.313550855131567
-51.716727145873335,-87.9148806171073,0.9085671127393444,0.5645212005021387,0.5219441274859528,8.141351742356212,15.311848624235923,13.081322042507008,0.8935023694896084,0.3458571046212682,-21.237322200032786,-20.014031903045797,0.8342727184137042,0.499875539436234,0.7034050931436048,5.2365246559111185,-6.898970367185295,-15.748571939383588,0.12579392387110722,21.076932252016757,0.19371351974207562,0.22234563091198511,0.6250841710640271,0.9562960466226827,0.8060204511373447,29.313550855131567
-50.222217857533586,-87.9148806171073,0.9085671127393444,0.5645212005021387,0.5219441274859528,8.141351742356212,15.311848624235923,14.276929473178805,0.8935023694896084,0.3458571046212682,-21.237322200032786,-20.014031903045797,0.8342727184137042,0.499875539436234,0.7034050931436048,5.2365246559111185,-6.898970367185295,-15.748571939383588,0.12579392387110722,21.076932252016757,0.19371351974207562,0.22234563091198511,0.6250841710640271,0.9562960466226827,0.8060204511373447,29.313550855131567
-45.60370407130642,-87.9148806171073,0.9085671127393444,0.5645212005021387,0.5219441274859528,8.141351742356212,19.00665965321766,14.276929473178805,0.8935023694896084,0.3458571046212682,-21.237322200032786,-20.014031903045797,0.8342727184137042,0.499875539436234,0.7034050931436048,5.2365246559111185,-6.898970367185295,-15.748571939383588,0.12579392387110722,21.076932252016757,0.19371351974207562,0.22234563091198511,0.6250841710640271,0.9562960466226827,0.8060204511373447,29.313550855131567
-46.07790100698292,-87.9148806171073,0.9085671127393444,0.5645212005021387,0.5219441274859528,8.141351742356212,19.00665965321766,14.276929473178805,0.8935023694896084,0.3458571046212682,-21.237322200032786,-20.014031903045797,0.8342727184137042,0.499875539436234,0.7034050931436048,5.2365246559111185,-6.898970367185295,-15.748571939383588,0.12579392387110722,21.076932252016757,0.19371351974207562,0.22234563091198511,0.6250841710640271,0.9562960466226827,0.8060204511373447,28.934193306590366
-46.365212068235536,-88.1447294661094,0.9085671127393444,0.5645212005021387,0.5219441274859528,8.141351742356212,19.00665965321766,14.276929473178805,0.8935023694896084,0.3458571046212682,-21.237322200032786,-20.014031903045797,0.8342727184137042,0.499875539436234,0.7034050931436048,5.2365246559111185,-6.898970367185295,-15.748571939383588,0.12579392387110722,21.076932252016757,0.19371351974207562,0.22234563091198511,0.6250841710640271,0.9562960466226827,0.8060204511373447,28.934193306590366
-46.600807138462685,-88.33320552229111,0.9085671127393444,0.5645212005021387,0.5219441274859528,8.141351742356212,19.00665965321766,14.276929473178805,0.8935023694896084,0.3458571046212682,-21.237322200032786,-20.014031903045797,0.8342727184137042,0.499875539436234,0.7034050931436048,5.2365246559111185,-6.898970367185295,-15.748571939383588,0.12579392387110722,21.076932252016757,0.19371351974207562,0.22234563091198511,0.6250841710640271,0.9562960466226827,0.8060204511373447,28.934193306590366
-45.51602209514292,-88.33320552229111,0.9085671127393444,0.5645212005021387,0.5219441274859528,8.141351742356212,19.00665965321766,15.144757507834612,0.8935023694896084,0.3458571046212682,-21.237322200032786,-20.014031903045797,0.8342727184137042,0.499875539436234,0.7034050931436048,5.2365246559111185,-6.898970367185295,-15.748571939383588,0.12579392387110722,21.076932252016757,0.19371351974207562,0.22234563091198511,0.6250841710640271,0.9562960466226827,0.8060204511373447,28.934193306590366
-45.98438551937187,-88.33320552229111,0.9085671127393444,0.5645212005021387,0.5219441274859528,8.141351742356212,19.00665965321766,15.144757507834612,0.8935023694896084,0.3458571046212682,-21.237322200032786,-20.014031903045797,0.8342727184137042,0.499875539436234,0.7034050931436048,5.2365246559111185,-6.898970367185295,-15.748571939383588,0.12579392387110722,21.076932252016757,0.19371351974207562,0.22234563091198511,0.6250841710640271,0.9562960466226827,0.8060204511373447,28.559502567207208
-46.43588786032858,-88.33320552229111,0.9085671127393444,0.5645212005021387,0.5219441274859528,8.141351742356212,19.00665965321766,15.144757507834612,0.8935023694896084,0.3458571046212682,-21.237322200032786,-20.014031903045797,0.8342727184137042,0.499875539436234,0.7034050931436048,5.2365246559111185,-6.898970367185295,-15.748571939383588,0.12579392387110722,21.076932252016757,0.19371351974207562,0.22234563091198511,0.6250841710640271,0.9562960466226827,0.8060204511373447,28.19830069444184
-46.76483487366425,-88.59636313295965,0.9085671127393444,0.5645212005021387,0.5219441274859528,8.141351742356212,19.00665965321766,15.144757507834612,0.8935023694896084,0.3458571046212682,-21.237322200032786,-20.014031903045797,0.8342727184137042,0.499875539436234,0.7034050931436048,5.2365246559111185,-6.898970367185295,-15.748571939383588,0.12579392387110722,21.076932252016757,0.19371351974207562,0.22234563091198511,0.6250841710640271,0.9562960466226827,0.8060204511373447,28.19830069444184
-47.1935041900798,-88.59636313295965,0.9085671127393444,0.5645212005021387,0.5219441274859528,8.141351742356212,19.00665965321766,15.144757507834612,0.8935023694896084,0.3458571046212682,-21.237322200032786,-20.014031903045797,0.8342727184137042,0.499875539436234,0.7034050931436048,5.2365246559111185,-6.898970367185295,-15.748571939383588,0.12579392387110722,21.076932252016757,0.19371351974207562,0.22234563091198511,0.6250841710640271,0.9562960466226827,0.8060204511373447,27.8553652413094
-43.63700029348605,-88.59636313295965,0.9085671127393444,0.5645212005021387,0.5219441274859528,8.141351742356212,21.851862770492666,15.144757507834612,0.8935023694896084,0.3458571046212682,-21.237322200032786,-20.014031903045797,0.8342727184137042,0.499875539436234,0.7034050931436048,5.2365246559111185,-6.898970367185295,-15.748571939383588,0.12579392387110722,21.076932252016757,0.19371351974207562,0.22234563091198511,0.6250841710640271,0.9562960466226827,0.8060204511373447,27.8553652413094
-42.97924604574756,-88.59636313295965,0.9085671127393444,0.5645212005021387,0.5219441274859528,8.141351742356212,21.851862770492666,15.670960906025405,0.8935023694896084,0.3458571046212682,-21.237322200032786,-20.014031903045797,0.8342727184137042,0.499875539436234,0.7034050931436048,5.2365246559111185,-6.898970367185295,-15.748571939383588,0.12579392387110722,21.076932252016757,0.19371351974207562,0.22234563091198511,0.6250841710640271,0.9562960466226827,0.8060204511373447,27.8553652413094
-43.38642275480498,-88.92210450020559,0.9085671127393444,0.5645212005021387,0.5219441274859528,8.141351742356212,21.851862770492666,15.670960906025405,0.8935023694896084,0.3458571046212682,-21.237322200032786,-20.014031903045797,0.8342727184137042,0.499875539436234,0.7034050931436048,5.2365246559111185,-6.898970367185295,-15.748571939383588,0.12579392387110722,21.076932252016757,0.19371351974207562,0.22234563091198511,0.6250841710640271,0.9562960466226827,0.8060204511373447,27.8553652413094
-43.87580160453507,-88.92210450020559,0.9085671127393444,0.5645212005021387,0.5219441274859528,8.141351742356212,21.851862770492666,15.670960906025405,0.8935023694896084,0.3458571046212682,-21.237322200032786,-20.014031903045797,0.8342727184137042,0.499875539436234,0.7034050931436048,5.2365246559111185,-6.898970367185295,-15.748571939383588,0.12579392387110722,21.076932252016757,0.19371351974207562,0.22234563091198511,0.6250841710640271,0.9562960466226827,0.8060204511373447,27.463862161525327
-44.34756281567488,-88.92210450020559,0.9085671127393444,0.5645212005021387,0.5219441274859528,8.141351742356212,21.851862770492666,15.670960906025405,0.8935023694896084,0.3458571046212682,-21.237322200032786,-20.014031903045797,0.8342727184137042,0.499875539436234,0.7034050931436048,5.2365246559111185,-6.898970367185295,-15.748571939383588,0.12579392387110722,21.076932252016757,0.19371351974207562,0.22234563091198511,0.6250841710640271,0.9562960466226827,0.8060204511373447,27.086453192613483
-44.80234062321365,-88.92210450020559,0.9085671127393444,0.5645212005021387,0.5219441274859528,8.141351742356212,21.851862770492666,15.670960906025405,0.8935023694896084,0.3458571046212682,-21.237322200032786,-20.014031903045797,0.8342727184137042,0.499875539436234,0.7034050931436048,5.2365246559111185,-6.898970367185295,-15.748571939383588,0.12579392387110722,21.076932252016757,0.19371351974207562,0.22234563091198511,0.6250841710640271,0.9562960466226827,0.8060204511373447,26.722630946582466
-45.31179934032342,-89.3296714738934,0.9085671127393444,0.5645212005021387,0.5219441274859528,8.141351742356212,21.851862770492666,15.670960906025405,0.8935023694896084,0.3458571046212682,-21.237322200032786,-20.014031903045797,0.8342727184137042,0.499875539436234,0.7034050931436048,5.2365246559111185,-6.898970367185295,-15.748571939383588,0.12579392387110722,21.076932252016757,0.19371351974207562,0.22234563091198511,0.6250841710640271,0.9562960466226827,0.8060204511373447,26.722630946582466
-45.740015972448596,-89.3296714738934,0.9085671127393444,0.5645212005021387,0.5219441274859528,8.141351742356212,21.851862770492666,15.670960906025405,0.8935023694896084,0.3458571046212682,-21.237322200032786,-20.014031903045797,0.8342727184137042,0.499875539436234,0.7034050931436048,5.2365246559111185,-6.898970367185295,-15.748571939383588,0.12579392387110722,21.076932252016757,0.19371351974207562,0.22234563091198511,0.6250841710640271,0.9562960466226827,0.8060204511373447,26.38005764088232
-43.04717783173934,-89.3296714738934,0.9085671127393444,0.5645212005021387,0.5219441274859528,8.141351742356212,24.00613328306007,15.670960906025405,0.8935023694896084,0.3458571046212682,-21.237322200032786,-20.014031903045797,0.8342727184137042,0.499875539436234,0.7034050931436048,5.2365246559111185,-6.898970367185295,-15.748571939383588,0.12579392387110722,21.076932252016757,0.19371351974207562,0.22234563091198511,0.6250841710640271,0.9562960466226827,0.8060204511373447,26.38005764088232
-42.77201608095082,-89.3296714738934,0.9085671127393444,0.5645212005021387,0.5219441274859528,8.141351742356212,24.00613328306007,15.891090306656224,0.8935023694896084,0.3458571046212682,-21.237322200032786,-20.014031903045797,0.8342727184137042,0.499875539436234,0.7034050931436048,5.2365246559111185,-6.898970367185295,-15.748571939383588,0.12579392387110722,21.076932252016757,0.19371351974207562,0.22234563091198511,0.6250841710640271,0.9562960466226827,0.8060204511373447,26.38005764088232
-43.30223108919431,-89.75384348048819,0.9085671127393444,0.5645212005021387,0.5219441274859528,8.141351742356212,24.00613328306007,15.891090306656224,0.8935023694896084,0.3458571046212682,-21.237322200032786,-20.014031903045797,0.8342727184137042,0.499875539436234,0.7034050931436048,5.2365246559111185,-6.898970367185295,-15.748571939383588,0.12579392387110722,21.076932252016757,0.19371351974207562,0.22234563091198511,0.6250841710640271,0.9562960466226827,0.8060204511373447,26.38005764088232
-43.73700739595397,-90.10166452589591,0.9085671127393444,0.5645212005021387,0.5219441274859528,8.141351742356212,24.00613328306007,15.891090306656224,0.8935023694896084,0.3458571046212682,-21.237322200032786,-20.014031903045797,0.8342727184137042,0.499875539436234,0.7034050931436048,5.2365246559111185,-6.898970367185295,-15.748571939383588,0.12579392387110722,21.076932252016757,0.19371351974207562,0.22234563091198511,0.6250841710640271,0.9562960466226827,0.8060204511373447,26.38005764088232
-44.093523967496886,-90.38687778313025,0.9085671127393444,0.5645212005021387,0.5219441274859528,8.141351742356212,24.00613328306007,15.891090306656224,0.8935023694896084,0.3458571046212682,-21.237322200032786,-20.014031903045797,0.8342727184137042,0.499875539436234,0.7034050931436048,5.2365246559111185,-6.898970367185295,-15.748571939383588,0.12579392387110722,21.076932252016757,0.19371351974207562,0.22234563091198511,0.6250841710640271,0.9562960466226827,0.8060204511373447,26.38005764088232
-44.38586755616208,-90.6207526540624,0.9085671127393444,0.5645212005021387,0.5219441274859528,8.141351742356212,24.00613328306007,15.891090306656224,0.8935023694896084,0.3458571046212682,-21.237322200032786,-20.014031903045797,0.8342727184137042,0.499875539436234,0.7034050931436048,5.2365246559111185,-6.898970367185295,-15.748571939383588,0.12579392387110722,21.076932252016757,0.19371351974207562,0.22234563091198511,0.6250841710640271,0.9562960466226827,0.8060204511373447,26.38005764088232
-44.82575135785649,-90.6207526540624,0.9085671127393444,0.5645212005021387,0.5219441274859528,8.141351742356212,24.00613328306007,15.891090306656224,0.8935023694896084,0.3458571046212682,-21.237322200032786,-20.014031903045797,0.8342727184137042,0.499875539436234,0.7034050931436048,5.2365246559111185,-6.898970367185295,-15.748571939383588,0.12579392387110722,21.076932252016757,0.19371351974207562,0.22234563091198511,0.6250841710640271,0.9562960466226827,0.8060204511373447,26.028150599526796
-45.2497993426899,-90.6207526540624,0.9085671127393444,0.5645212005021387,0.5219441274859528,8.141351742356212,24.00613328306007,15.891090306656224,0.8935023694896084,0.3458571046212682,-21.237322200032786,-20.014031903045797,0.8342727184137042,0.499875539436234,0.7034050931436048,5.2365246559111185,-6.898970367185295,-15.748571939383588,0.12579392387110722,21.076932252016757,0.19371351974207562,0.22234563091198511,0.6250841710640271,0.9562960466226827,0.8060204511373447,25.68891221166007
-45.6585816000693,-90.6207526540624,0.9085671127393444,0.5645212005021387,0.5219441274859528,8.141351742356212,24.00613328306007,15.891090306656224,0.8935023694896084,0.3458571046212682,-21.237322200032786,-20.014031903045797,0.8342727184137042,0.499875539436234,0.7034050931436048,5.2365246559111185,-6.898970367185295,-15.748571939383588,0.12579392387110722,21.076932252016757,0.19371351974207562,0.22234563091198511,0.6250841710640271,0.9562960466226827,0.8060204511373447,25.361886405756547
-43.581497071643746,-90.6207526540624,0.9085671127393444,0.5645212005021387,0.5219441274859528,8.141351742356212,25.667800905800508,15.891090306656224,0.8935023694896084,0.3458571046212682,-21.237322200032786,-20.014031903045797,0.8342727184137042,0.499875539436234,0.7034050931436048,5.2365246559111185,-6.898970367185295,-15.748571939383588,0.12579392387110722,21.076932252016757,0.19371351974207562,0.22234563091198511,0.6250841710640271,0.9562960466226827,0.8060204511373447,25.361886405756547
-44.017104858326,-90.6207526540624,0.9085671127393444,0.5645212005021387,0.5219441274859528,8.141351742356212,25.667800905800508,15.891090306656224,0.8935023694896084,0.3458571046212682,-21.237322200032786,-20.014031903045797,0.8342727184137042,0.499875539436234,0.7034050931436048,5.2365246559111185,-6.898970367185295,-15.748571939383588,0.12579392387110722,21.076932252016757,0.19371351974207562,0.22234563091198511,0.6250841710640271,0.9562960466226827,0.8060204511373447,25.01340017641074
-44.4370307646877,-90.6207526540624,0.9085671127393444,0.5645212005021387,0.5219441274859528,8.141351742356212,25.667800905800508,15.891090306656224,0.8935023694896084,0.3458571046212682,-21.237322200032786,-20.014031903045797,0.8342727184137042,0.499875539436234,0.7034050931436048,5.2365246559111185,-6.898970367185295,-15.748571939383588,0.12579392387110722,21.076932252016757,0.19371351974207562,0.22234563091198511,0.6250841710640271,0.9562960466226827,0.8060204511373447,24.677459451321386
-44.84183933842037,-90.6207526540624,0.9085671127393444,0.5645212005021387,0.5219441274859528,8.141351742356212,25.667800905800508,15.891090306656224,0.8935023694896084,0.3458571046212682,-21.237322200032786,-20.014031903045797,0.8342727184137042,0.499875539436234,0.7034050931436048,5.2365246559111185,-6.898970367185295,-15.748571939383588,0.12579392387110722,21.076932252016757,0.19371351974207562,0.22234563091198511,0.6250841710640271,0.9562960466226827,0.8060204511373447,24.353612592335246
-45.23207480349867,-90.6207526540624,0.9085671127393444,0.5645212005021387,0.5219441274859528,8.141351742356212,25.667800905800508,15.891090306656224,0.8935023694896084,0.3458571046212682,-21.237322200032786,-20.014031903045797,0.8342727184137042,0.499875539436234,0.7034050931436048,5.2365246559111185,-6.898970367185295,-15.748571939383588,0.12579392387110722,21.076932252016757,0.19371351974207562,0.22234563091198511,0.6250841710640271,0.9562960466226827,0.8060204511373447,24.041424220272607
-45.87582641696715,-91.13575394483719,0.9085671127393444,0.5645212005021387,0.5219441274859528,8.141351742356212,25.667800905800508,15.891090306656224,0.8935023694896084,0.3458571046212682,-21.237322200032786,-20.014031903045797,0.8342727184137042,0.499875539436234,0.7034050931436048,5.2365246559111185,-6.898970367185295,-15.748571939383588,0.12579392387110722,21.076932252016757,0.19371351974207562,0.22234563091198511,0.6250841710640271,0.9562960466226827,0.8060204511373447,24.041424220272607
-46.4037027400113,-91.55805500327251,0.9085671127393444,0.5645212005021387,0.5219441274859528,8.141351742356212,25.667800905800508,15.891090306656224,0.8935023694896084,0.3458571046212682,-21.237322200032786,-20.014031903045797,0.8342727184137042,0.499875539436234,0.7034050931436048,5.2365246559111185,-6.898970367185295,-15.748571939383588,0.12579392387110722,21.076932252016757,0.19371351974207562,0.22234563091198511,0.6250841710640271,0.9562960466226827,0.8060204511373447,24.041424220272607
-46.8365613249075,-91.90434187118947,0.9085671127393444,0.5645212005021387,0.5219441274859528,8.141351742356212,25.667800905800508,15.891090306656224,0.8935023694896084,0.3458571046212682,-21.237322200032786,-20.014031903045797,0.8342727184137042,0.499875539436234,0.7034050931436048,5.2365246559111185,-6.898970367185295,-15.748571939383588,0.12579392387110722,21.076932252016757,0.19371351974207562,0.22234563091198511,0.6250841710640271,0.9562960466226827,0.8060204511373447,24.041424220272607
-47.191505364522385,-92.18829710288138,0.9085671127393444,0.5645212005021387,0.5219441274859528,8.141351742356212,25.667800905800508,15.891090306656224,0.8935023694896084,0.3458571046212682,-21.237322200032786,-20.014031903045797,0.8342727184137042,0.499875539436234,0.7034050931436048,5.2365246559111185,-6.898970367185295,-15.748571939383588,0.12579392387110722,21.076932252016757,0.19371351974207562,0.22234563091198511,0.6250841710640271,0.9562960466226827,0.8060204511373447,24.041424220272607
-47.482559477006596,-92.42114039286874,0.9085671127393444,0.5645212005021387,0.5219441274859528,8.141351742356212,25.667800905800508,15.891090306656224,0.8935023694896084,0.3458571046212682,-21.237322200032786,-20.014031903045797,0.8342727184137042,0.499875539436234,0.7034050931436048,5.2365246559111185,-6.898970367185295,-15.748571939383588,0.12579392387110722,21.076932252016757,0.19371351974207562,0.22234563091198511,0.6250841710640271,0.9562960466226827,0.8060204511373447,24.041424220272607
-47.72122384924364,-92.61207189065838,0.9085671127393444,0.5645212005021387,0.5219441274859528,8.141351742356212,25.667800905800508,15.891090306656224,0.8935023694896084,0.3458571046212682,-21.237322200032786,-20.014031903045797,0.8342727184137042,0.499875539436234,0.7034050931436048,5.2365246559111185,-6.898970367185295,-15.748571939383588,0.12579392387110722,21.076932252016757,0.19371351974207562,0.22234563091198511,0.6250841710640271,0.9562960466226827,0.8060204511373447,24.041424220272607
-47.916928634478026,-92.76863571884589,0.9085671127393444,0.5645212005021387,0.5219441274859528,8.141351742356212,25.667800905800508,15.891090306656224,0.8935023694896084,0.3458571046212682,-21.237322200032786,-20.014031903045797,0.8342727184137042,0.499875539436234,0.7034050931436048,5.2365246559111185,-6.898970367185295,-15.748571939383588,0.12579392387110722,21.076932252016757,0.19371351974207562,0.22234563091198511,0.6250841710640271,0.9562960466226827,0.8060204511373447,24.041424220272607
-48.23941854619392,-92.76863571884589,0.9085671127393444,0.5645212005021387,0.5219441274859528,8.141351742356212,25.667800905800508,15.891090306656224,0.8935023694896084,0.3458571046212682,-21.237322200032786,-20.014031903045797,0.8342727184137042,0.499875539436234,0.7034050931436048,5.2365246559111185,-6.898970367185295,-15.748571939383588,0.12579392387110722,21.076932252016757,0.19371351974207562,0.22234563091198511,0.6250841710640271,0.9562960466226827,0.8060204511373447,23.783432290899892
-48.43988521913889,-92.92900905720187,0.9085671127393444,0.5645212005021387,0.5219441274859528,8.141351742356212,25.667800905800508,15.891090306656224,0.8935023694896084,0.3458571046212682,-21.237322200032786,-20.014031903045797,0.8342727184137042,0.499875539436234,0.7034050931436048,5.2365246559111185,-6.898970367185295,-15.748571939383588,0.12579392387110722,21.076932252016757,0.19371351974207562,0.22234563091198511,0.6250841710640271,0.9562960466226827,0.8060204511373447,23.783432290899892
-48.60426789095375,-93.06051519465376,0.9085671127393444,0.5645212005021387,0.5219441274859528,8.141351742356212,25.667800905800508,15.891090306656224,0.8935023694896084,0.3458571046212682,-21.237322200032786,-20.014031903045797,0.8342727184137042,0.499875539436234,0.7034050931436048,5.2365246559111185,-6.898970367185295,-15.748571939383588,0.12579392387110722,21.076932252016757,0.19371351974207562,0.22234563091198511,0.6250841710640271,0.9562960466226827,0.8060204511373447,23.783432290899892
-48.907851178952676,-93.06051519465376,0.9085671127393444,0.5645212005021387,0.5219441274859528,8.141351742356212,25.667800905800508,15.891090306656224,0.8935023694896084,0.3458571046212682,-21.237322200032786,-20.014031903045797,0.8342727184137042,0.499875539436234,0.7034050931436048,5.2365246559111185,-6.898970367185295,-15.748571939383588,0.12579392387110722,21.076932252016757,0.19371351974207562,0.22234563091198511,0.6250841710640271,0.9562960466226827,0.8060204511373447,23.540565660500754
-49.200505468583636,-93.06051519465376,0.9085671127393444,0.5645212005021387,0.5219441274859528,8.141351742356212,25.667800905800508,15.891090306656224,0.8935023694896084,0.3458571046212682,-21.237322200032786,-20.014031903045797,0.8342727184137042,0.499875539436234,0.7034050931436048,5.2365246559111185,-6.898970367185295,-15.748571939383588,0.12579392387110722,21.076932252016757,0.19371351974207562,0.22234563091198511,0.6250841710640271,0.9562960466226827,0.8060204511373447,23.306442228795984
-49.482624203787886,-93.06051519465376,0.9085671127393444,0.5645212005021387,0.5219441274859528,8.141351742356212,25.667800905800508,15.891090306656224,0.8935023694896084,0.3458571046212682,-21.237322200032786,-20.014031903045797,0.8342727184137042,0.499875539436234,0.7034050931436048,5.2365246559111185,-6.898970367185295,-15.748571939383588,0.12579392387110722,21.076932252016757,0.19371351974207562,0.22234563091198511,0.6250841710640271,0.9562960466226827,0.8060204511373447,23.080747240632586
-49.726334177467514,-93.25548317359745,0.9085671127393444,0.5645212005021387,0.5219441274859528,8.141351742356212,25.667800905800508,15.891090306656224,0.8935023694896084,0.3458571046212682,-21.237322200032786,-20.014031903045797,0.8342727184137042,0.499875539436234,0.7034050931436048,5.2365246559111185,-6.898970367185295,-15.748571939383588,0.12579392387110722,21.076932252016757,0.19371351974207562,0.22234563091198511,0.6250841710640271,0.9562960466226827,0.8060204511373447,23.080747240632586
-49.99342243873082,-93.25548317359745,0.9085671127393444,0.5645212005021387,0.5219441274859528,8.141351742356212,25.667800905800508,15.891090306656224,0.8935023694896084,0.3458571046212682,-21.237322200032786,-20.014031903045797,0.8342727184137042,0.499875539436234,0.7034050931436048,5.2365246559111185,-6.898970367185295,-15.748571939383588,0.12579392387110722,21.076932252016757,0.19371351974207562,0.22234563091198511,0.6250841710640271,0.9562960466226827,0.8060204511373447,22.867076631621945
-49.75156788824336,-93.25548317359745,0.9085671127393444,0.5645212005021387,0.5219441274859528,8.141351742356212,25.667800905800508,16.084573947046195,0.8935023694896084,0.3458571046212682,-21.237322200032786,-20.014031903045797,0.8342727184137042,0.499875539436234,0.7034050931436048,5.2365246559111185,-6.898970367185295,-15.748571939383588,0.12579392387110722,21.076932252016757,0.19371351974207562,0.22234563091198511,0.6250841710640271,0.9562960466226827,0.8060204511373447,22.867076631621945
-49.48523573271491,-93.04241744917469,0.9085671127393444,0.5645212005021387,0.5219441274859528,8.141351742356212,25.667800905800508,16.084573947046195,0.8935023694896084,0.3458571046212682,-21.237322200032786,-20.014031903045797,0.8342727184137042,0.499875539436234,0.7034050931436048,5.2365246559111185,-6.898970367185295,-15.748571939383588,0.12579392387110722,21.076932252016757,0.19371351974207562,0.22234563091198511,0.6250841710640271,0.9562960466226827,0.8060204511373447,22.867076631621945
-48.113017405528765,-93.04241744917469,0.9085671127393444,0.5645212005021387,0.5219441274859528,8.141351742356212,26.765575567549426,16.084573947046195,0.8935023694896084,0.3458571046212682,-21.237322200032786,-20.014031903045797,0.8342727184137042,0.499875539436234,0.7034050931436048,5.2365246559111185,-6.898970367185295,-15.748571939383588,0.12579392387110722,21.076932252016757,0.19371351974207562,0.22234563091198511,0.6250841710640271,0.9562960466226827,0.8060204511373447,22.867076631621945
-48.40809859005063,-93.04241744917469,0.9085671127393444,0.5645212005021387,0.5219441274859528,8.141351742356212,26.765575567549426,16.084573947046195,0.8935023694896084,0.3458571046212682,-21.237322200032786,-20.014031903045797,0.8342727184137042,0.499875539436234,0.7034050931436048,5.2365246559111185,-6.898970367185295,-15.748571939383588,0.12579392387110722,21.076932252016757,0.19371351974207562,0.22234563091198511,0.6250841710640271,0.9562960466226827,0.8060204511373447,22.631011684004452
-48.6925568519297,-93.04241744917469,0.9085671127393444,0.5645212005021387,0.5219441274859528,8.141351742356212,26.765575567549426,16.084573947046195,0.8935023694896084,0.3458571046212682,-21.237322200032786,-20.014031903045797,0.8342727184137042,0.499875539436234,0.7034050931436048,5.2365246559111185,-6.898970367185295,-15.748571939383588,0.12579392387110722,21.076932252016757,0.19371351974207562,0.22234563091198511,0.6250841710640271,0.9562960466226827,0.8060204511373447,22.40344507450119
-49.07760211164595,-93.35045365694769,0.9085671127393444,0.5645212005021387,0.5219441274859528,8.141351742356212,26.765575567549426,16.084573947046195,0.8935023694896084,0.3458571046212682,-21.237322200032786,-20.014031903045797,0.8342727184137042,0.499875539436234,0.7034050931436048,5.2365246559111185,-6.898970367185295,-15.748571939383588,0.12579392387110722,21.076932252016757,0.19371351974207562,0.22234563091198511,0.6250841710640271,0.9562960466226827,0.8060204511373447,22.40344507450119
-49.39333922461328,-93.60304334732156,0.9085671127393444,0.5645212005021387,0.5219441274859528,8.141351742356212,26.765575567549426,16.084573947046195,0.8935023694896084,0.3458571046212682,-21.237322200032786,-20.014031903045797,0.8342727184137042,0.499875539436234,0.7034050931436048,5.2365246559111185,-6.898970367185295,-15.748571939383588,0.12579392387110722,21.076932252016757,0.19371351974207562,0.22234563091198511,0.6250841710640271,0.9562960466226827,0.8060204511373447,22.40344507450119
-49.65354134161104,-93.60304334732156,0.9085671127393444,0.5645212005021387,0.5219441274859528,8.141351742356212,26.765575567549426,16.084573947046195,0.8935023694896084,0.3458571046212682,-21.237322200032786,-20.014031903045797,0.8342727184137042,0.499875539436234,0.7034050931436048,5.2365246559111185,-6.898970367185295,-15.748571939383588,0.12579392387110722,21.076932252016757,0.19371351974207562,0.22234563091198511,0.6250841710640271,0.9562960466226827,0.8060204511373447,22.195283380902982
-49.25958170202916,-93.60304334732156,0.9085671127393444,0.5645212005021387,0.5219441274859528,8.141351742356212,26.765575567549426,16.399741658711697,0.8935023694896084,0.3458571046212682,-21.237322200032786,-20.014031903045797,0.8342727184137042,0.499875539436234,0.7034050931436048,5.2365246559111185,-6.898970367185295,-15.748571939383588,0.12579392387110722,21.076932252016757,0.19371351974207562,0.22234563091198511,0.6250841710640271,0.9562960466226827,0.8060204511373447,22.195283380902982
-48.23235417293593,-93.60304334732156,0.9085671127393444,0.5645212005021387,0.5219441274859528,8.141351742356212,27.587357590824016,16.399741658711697,0.8935023694896084,0.3458571046212682,-21.237322200032786,-20.014031903045797,0.8342727184137042,0.499875539436234,0.7034050931436048,5.2365246559111185,-6.898970367185295,-15.748571939383588,0.12579392387110722,21.076932252016757,0.19371351974207562,0.22234563091198511,0.6250841710640271,0.9562960466226827,0.8060204511373447,22.195283380902982
-47.945473135164306,-93.60304334732156,0.9085671127393444,0.5645212005021387,0.5219441274859528,8.141351742356212,27.587357590824016,16.629246488928995,0.8935023694896084,0.3458571046212682,-21.237322200032786,-20.014031903045797,0.8342727184137042,0.499875539436234,0.7034050931436048,5.2365246559111185,-6.898970367185295,-15.748571939383588,0.12579392387110722,21.076932252016757,0.19371351974207562,0.22234563091198511,0.6250841710640271,0.9562960466226827,0.8060204511373447,22.195283380902982
-48.517261961684284,-93.60304334732156,0.9085671127393444,0.5645212005021387,0.5219441274859528,8.141351742356212,27.587357590824016,16.171815427713014,0.8935023694896084,0.3458571046212682,-21.237322200032786,-20.014031903045797,0.8342727184137042,0.499875539436234,0.7034050931436048,5.2365246559111185,-6.898970367185295,-15.748571939383588,0.12579392387110722,21.076932252016757,0.19371351974207562,0.22234563091198511,0.6250841710640271,0.9562960466226827,0.8060204511373447,22.195283380902982
-48.01555544164488,-93.60304334732156,0.9085671127393444,0.5645212005021387,0.5219441274859528,8.141351742356212,27.587357590824016,16.57318064374454,0.8935023694896084,0.3458571046212682,-21.237322200032786,-20.014031903045797,0.8342727184137042,0.499875539436234,0.7034050931436048,5.2365246559111185,-6.898970367185295,-15.748571939383588,0.12579392387110722,21.076932252016757,0.19371351974207562,0.22234563091198511,0.6250841710640271,0.9562960466226827,0.8060204511373447,22.195283380902982
-47.36891129699935,-93.08572803160514,0.9085671127393444,0.5645212005021387,0.5219441274859528,8.141351742356212,27.587357590824016,16.57318064374454,0.8935023694896084,0.3458571046212682,-21.237322200032786,-20.014031903045797,0.8342727184137042,0.499875539436234,0.7034050931436048,5.2365246559111185,-6.898970367185295,-15.748571939383588,0.12579392387110722,21.076932252016757,0.19371351974207562,0.22234563091198511,0.6250841710640271,0.9562960466226827,0.8060204511373447,22.195283380902982
-46.838663098390015,-92.66152947271767,0.9085671127393444,0.5645212005021387,0.5219441274859528,8.141351742356212,27.587357590824016,16.57318064374454,0.8935023694896084,0.3458571046212682,-21.237322200032786,-20.014031903045797,0.8342727184137042,0.499875539436234,0.7034050931436048,5.2365246559111185,-6.898970367185295,-15.748571939383588,0.12579392387110722,21.076932252016757,0.19371351974207562,0.22234563091198511,0.6250841710640271,0.9562960466226827,0.8060204511373447,22.195283380902982
-46.02421034602448,-92.66152947271767,0.9085671127393444,0.5645212005021387,0.5219441274859528,8.141351742356212,28.238919792716445,16.57318064374454,0.8935023694896084,0.3458571046212682,-21.237322200032786,-20.014031903045797,0.8342727184137042,0.499875539436234,0.7034050931436048,5.2365246559111185,-6.898970367185295,-15.748571939383588,0.12579392387110722,21.076932252016757,0.19371351974207562,0.22234563091198511,0.6250841710640271,0.9562960466226827,0.8060204511373447,22.195283380902982
-45.53535670516394,-92.66152947271767,0.9085671127393444,0.5645212005021387,0.5219441274859528,8.141351742356212,28.238919792716445,16.96426355643297,0.8935023694896084,0.3458571046212682,-21.237322200032786,-20.014031903045797,0.8342727184137042,0.499875539436234,0.7034050931436048,5.2365246559111185,-6.898970367185295,-15.748571939383588,0.12579392387110722,21.076932252016757,0.19371351974207562,0.22234563091198511,0.6250841710640271,0.9562960466226827,0.8060204511373447,22.195283380902982
-46.22235127378472,-92.66152947271767,0.9085671127393444,0.5645212005021387,0.5219441274859528,8.141351742356212,28.238919792716445,16.414667901536347,0.8935023694896084,0.3458571046212682,-21.237322200032786,-20.014031903045797,0.8342727184137042,0.499875539436234,0.7034050931436048,5.2365246559111185,-6.898970367185295,-15.748571939383588,0.12579392387110722,21.076932252016757,0.19371351974207562,0.22234563091198511,0.6250841710640271,0.9562960466226827,0.8060204511373447,22.195283380902982
-46.77044734520295,-93.10000632985226,0.9085671127393444,0.5645212005021387,0.5219441274859528,8.141351742356212,28.238919792716445,16.414667901536347,0.8935023694896084,0.3458571046212682,-21.237322200032786,-20.014031903045797,0.8342727184137042,0.499875539436234,0.7034050931436048,5.2365246559111185,-6.898970367185295,-15.748571939383588,0.12579392387110722,21.076932252016757,0.19371351974207562,0.22234563091198511,0.6250841710640271,0.9562960466226827,0.8060204511373447,22.195283380902982
-47.2198861237659,-93.45955735270262,0.9085671127393444,0.5645212005021387,0.5219441274859528,8.141351742356212,28.238919792716445,16.414667901536347,0.8935023694896084,0.3458571046212682,-21.237322200032786,-20.014031903045797,0.8342727184137042,0.499875539436234,0.7034050931436048,5.2365246559111185,-6.898970367185295,-15.748571939383588,0.12579392387110722,21.076932252016757,0.19371351974207562,0.22234563091198511,0.6250841710640271,0.9562960466226827,0.8060204511373447,22.195283380902982
-47.588425922187525,-93.75438919143991,0.9085671127393444,0.5645212005021387,0.5219441274859528,8.141351742356212,28.238919792716445,16.414667901536347,0.8935023694896084,0.3458571046212682,-21.237322200032786,-20.014031903045797,0.8342727184137042,0.499875539436234,0.7034050931436048,5.2365246559111185,-6.898970367185295,-15.748571939383588,0.12579392387110722,21.076932252016757,0.19371351974207562,0.22234563091198511,0.6250841710640271,0.9562960466226827,0.8060204511373447,22.195283380902982
-47.03658542136208,-93.75438919143991,0.9085671127393444,0.5645212005021387,0.5219441274859528,8.141351742356212,28.238919792716445,16.8561403021967,0.8935023694896084,0.3458571046212682,-21.237322200032786,-20.014031903045797,0.8342727184137042,0.499875539436234,0.7034050931436048,5.2365246559111185,-6.898970367185295,-15.748571939383588,0.12579392387110722,21.076932252016757,0.19371351974207562,0.22234563091198511,0.6250841710640271,0.9562960466226827,0.8060204511373447,22.195283380902982
-47.67193076481164,-93.75438919143991,0.9085671127393444,0.5645212005021387,0.5219441274859528,8.141351742356212,28.238919792716445,16.34786402743705,0.8935023694896084,0.3458571046212682,-21.237322200032786,-20.014031903045797,0.8342727184137042,0.499875539436234,0.7034050931436048,5.2365246559111185,-6.898970367185295,-15.748571939383588,0.12579392387110722,21.076932252016757,0.19371351974207562,0.22234563091198511,0.6250841710640271,0.9562960466226827,0.8060204511373447,22.195283380902982
-47.97246330266489,-93.99481522172252,0.9085671127393444,0.5645212005021387,0.5219441274859528,8.141351742356212,28.238919792716445,16.34786402743705,0.8935023694896084,0.3458571046212682,-21.237322200032786,-20.014031903045797,0.8342727184137042,0.499875539436234,0.7034050931436048,5.2365246559111185,-6.898970367185295,-15.748571939383588,0.12579392387110722,21.076932252016757,0.19371351974207562,0.22234563091198511,0.6250841710640271,0.9562960466226827,0.8060204511373447,22.195283380902982
-48.21889998370455,-94.19196456655425,0.9085671127393444,0.5645212005021387,0.5219441274859528,8.141351742356212,28.238919792716445,16.34786402743705,0.8935023694896084,0.3458571046212682,-21.237322200032786,-20.014031903045797,0.8342727184137042,0.499875539436234,0.7034050931436048,5.2365246559111185,-6.898970367185295,-15.748571939383588,0.12579392387110722,21.076932252016757,0.19371351974207562,0.22234563091198511,0.6250841710640271,0.9562960466226827,0.8060204511373447,22.195283380902982
-47.64108922682891,-94.19196456655425,0.9085671127393444,0.5645212005021387,0.5219441274859528,8.141351742356212,28.238919792716445,16.810112632937564,0.8935023694896084,0.3458571046212682,-21.237322200032786,-20.014031903045797,0.8342727184137042,0.499875539436234,0.7034050931436048,5.2365246559111185,-6.898970367185295,-15.748571939383588,0.12579392387110722,21.076932252016757,0.19371351974207562,0.22234563091198511,0.6250841710640271,0.9562960466226827,0.8060204511373447,22.195283380902982
-46.76686896629252,-93.49258835812513,0.9085671127393444,0.5645212005021387,0.5219441274859528,8.141351742356212,28.238919792716445,16.810112632937564,0.8935023694896084,0.3458571046212682,-21.237322200032786,-20.014031903045797,0.8342727184137042,0.499875539436234,0.7034050931436048,5.2365246559111185,-6.898970367185295,-15.748571939383588,0.12579392387110722,21.076932252016757,0.19371351974207562,0.22234563091198511,0.6250841710640271,0.9562960466226827,0.8060204511373447,22.195283380902982
-47.398403104991644,-93.49258835812513,0.9085671127393444,0.5645212005021387,0.5219441274859528,8.141351742356212,28.238919792716445,16.30488532197826,0.8935023694896084,0.3458571046212682,-21.237322200032786,-20.014031903045797,0.8342727184137042,0.499875539436234,0.7034050931436048,5.2365246559111185,-6.898970367185295,-15.748571939383588,0.12579392387110722,21.076932252016757,0.19371351974207562,0.22234563091198511,0.6250841710640271,0.9562960466226827,0.8060204511373447,22.195283380902982
-47.75676636270425,-93.77927896429522,0.9085671127393444,0.5645212005021387,0.5219441274859528,8.141351742356212,28.238919792716445,16.30488532197826,0.8935023694896084,0.3458571046212682,-21.237322200032786,-20.014031903045797,0.8342727184137042,0.499875539436234,0.7034050931436048,5.2365246559111185,-6.898970367185295,-15.748571939383588,0.12579392387110722,21.076932252016757,0.19371351974207562,0.22234563091198511,0.6250841710640271,0.9562960466226827,0.8060204511373447,22.195283380902982
-48.04553670306822,-93.77927896429522,0.9085671127393444,0.5645212005021387,0.5219441274859528,8.141351742356212,28.238919792716445,16.30488532197826,0.8935023694896084,0.3458571046212682,-21.237322200032786,-20.014031903045797,0.8342727184137042,0.499875539436234,0.7034050931436048,5.2365246559111185,-6.898970367185295,-15.748571939383588,0.12579392387110722,21.076932252016757,0.19371351974207562,0.22234563091198511,0.6250841710640271,0.9562960466226827,0.8060204511373447,21.964267108611804
-48.37520209659769,-94.04301127911879,0.9085671127393444,0.5645212005021387,0.5219441274859528,8.141351742356212,28.238919792716445,16.30488532197826,0.8935023694896084,0.3458571046212682,-21.237322200032786,-20.014031903045797,0.8342727184137042,0.499875539436234,0.7034050931436048,5.2365246559111185,-6.898970367185295,-15.748571939383588,0.12579392387110722,21.076932252016757,0.19371351974207562,0.22234563091198511,0.6250841710640271,0.9562960466226827,0.8060204511373447,21.964267108611804
-48.646983396837975,-94.04301127911879,0.9085671127393444,0.5645212005021387,0.5219441274859528,8.141351742356212,28.238919792716445,16.30488532197826,0.8935023694896084,0.3458571046212682,-21.237322200032786,-20.014031903045797,0.8342727184137042,0.499875539436234,0.7034050931436048,5.2365246559111185,-6.898970367185295,-15.748571939383588,0.12579392387110722,21.076932252016757,0.19371351974207562,0.22234563091198511,0.6250841710640271,0.9562960466226827,0.8060204511373447,21.74684206841958
-48.908980570269605,-94.04301127911879,0.9085671127393444,0.5645212005021387,0.5219441274859528,8.141351742356212,28.238919792716445,16.30488532197826,0.8935023694896084,0.3458571046212682,-21.237322200032786,-20.014031903045797,0.8342727184137042,0.499875539436234,0.7034050931436048,5.2365246559111185,-6.898970367185295,-15.748571939383588,0.12579392387110722,21.076932252016757,0.19371351974207562,0.22234563091198511,0.6250841710640271,0.9562960466226827,0.8060204511373447,21.537244329674273
-49.161545845457695,-94.04301127911879,0.9085671127393444,0.5645212005021387,0.5219441274859528,8.141351742356212,28.238919792716445,16.30488532197826,0.8935023694896084,0.3458571046212682,-21.237322200032786,-20.014031903045797,0.8342727184137042,0.499875539436234,0.7034050931436048,5.2365246559111185,-6.898970367185295,-15.748571939383588,0.12579392387110722,21.076932252016757,0.19371351974207562,0.22234563091198511,0.6250841710640271,0.9562960466226827,0.8060204511373447,21.3351921095238
-49.52937809301051,-94.33727707716103,0.9085671127393444,0.5645212005021387,0.5219441274859528,8.141351742356212,28.238919792716445,16.30488532197826,0.8935023694896084,0.3458571046212682,-21.237322200032786,-20.014031903045797,0.8342727184137042,0.499875539436234,0.7034050931436048,5.2365246559111185,-6.898970367185295,-15.748571939383588,0.12579392387110722,21.076932252016757,0.19371351974207562,0.22234563091198511,0.6250841710640271,0.9562960466226827,0.8060204511373447,21.3351921095238
-49.76549437334077,-94.33727707716103,0.9085671127393444,0.5645212005021387,0.5219441274859528,8.141351742356212,28.238919792716445,16.30488532197826,0.8935023694896084,0.3458571046212682,-21.237322200032786,-20.014031903045797,0.8342727184137042,0.499875539436234,0.7034050931436048,5.2365246559111185,-6.898970367185295,-15.748571939383588,0.12579392387110722,21.076932252016757,0.19371351974207562,0.22234563091198511,0.6250841710640271,0.9562960466226827,0.8060204511373447,21.146299085259585
-49.14815598758065,-94.33727707716103,0.9085671127393444,0.5645212005021387,0.5219441274859528,8.141351742356212,28.238919792716445,16.79875603058636,0.8935023694896084,0.3458571046212682,-21.237322200032786,-20.014031903045797,0.8342727184137042,0.499875539436234,0.7034050931436048,5.2365246559111185,-6.898970367185295,-15.748571939383588,0.12579392387110722,21.076932252016757,0.19371351974207562,0.22234563091198511,0.6250841710640271,0.9562960466226827,0.8060204511373447,21.146299085259585
-48.6066429910256,-94.33727707716103,0.9085671127393444,0.5645212005021387,0.5219441274859528,8.141351742356212,28.672130189960484,16.79875603058636,0.8935023694896084,0.3458571046212682,-21.237322200032786,-20.014031903045797,0.8342727184137042,0.499875539436234,0.7034050931436048,5.2365246559111185,-6.898970367185295,-15.748571939383588,0.12579392387110722,21.076932252016757,0.19371351974207562,0.22234563091198511,0.6250841710640271,0.9562960466226827,0.8060204511373447,21.146299085259585
-48.96072088042616,-94.62053938868148,0.9085671127393444,0.5645212005021387,0.5219441274859528,8.141351742356212,28.672130189960484,16.79875603058636,0.8935023694896084,0.3458571046212682,-21.237322200032786,-20.014031903045797,0.8342727184137042,0.499875539436234,0.7034050931436048,5.2365246559111185,-6.898970367185295,-15.748571939383588,0.12579392387110722,21.076932252016757,0.19371351974207562,0.22234563091198511,0.6250841710640271,0.9562960466226827,0.8060204511373447,21.146299085259585
-49.25106474973461,-94.85281448412825,0.9085671127393444,0.5645212005021387,0.5219441274859528,8.141351742356212,28.672130189960484,16.79875603058636,0.8935023694896084,0.3458571046212682,-21.237322200032786,-20.014031903045797,0.8342727184137042,0.499875539436234,0.7034050931436048,5.2365246559111185,-6.898970367185295,-15.748571939383588,0.12579392387110722,21.076932252016757,0.19371351974207562,0.22234563091198511,0.6250841710640271,0.9562960466226827,0.8060204511373447,21.146299085259585
-49.48914672256754,-95.0432800623946,0.9085671127393444,0.5645212005021387,0.5219441274859528,8.141351742356212,28.672130189960484,16.79875603058636,0.8935023694896084,0.3458571046212682,-21.237322200032786,-20.014031903045797,0.8342727184137042,0.499875539436234,0.7034050931436048,5.2365246559111185,-6.898970367185295,-15.748571939383588,0.12579392387110722,21.076932252016757,0.19371351974207562,0.22234563091198511,0.6250841710640271,0.9562960466226827,0.8060204511373447,21.146299085259585
-49.68437394029054,-95.19946183657301,0.9085671127393444,0.5645212005021387,0.5219441274859528,8.141351742356212,28.672130189960484,16.79875603058636,0.8935023694896084,0.3458571046212682,-21.237322200032786,-20.014031903045797,0.8342727184137042,0.499875539436234,0.7034050931436048,5.2365246559111185,-6.898970367185295,-15.748571939383588,0.12579392387110722,21.076932252016757,0.19371351974207562,0.22234563091198511,0.6250841710640271,0.9562960466226827,0.8060204511373447,21.146299085259585
-49.91361244318992,-95.19946183657301,0.9085671127393444,0.5645212005021387,0.5219441274859528,8.141351742356212,28.672130189960484,16.79875603058636,0.8935023694896084,0.3458571046212682,-21.237322200032786,-20.014031903045797,0.8342727184137042,0.499875539436234,0.7034050931436048,5.2365246559111185,-6.898970367185295,-15.748571939383588,0.12579392387110722,21.076932252016757,0.19371351974207562,0.22234563091198511,0.6250841710640271,0.9562960466226827,0.8060204511373447,20.96290828294008
-49.3141079662505,-95.19946183657301,0.9085671127393444,0.5645212005021387,0.5219441274859528,8.141351742356212,28.672130189960484,17.27835961213789,0.8935023694896084,0.3458571046212682,-21.237322200032786,-20.014031903045797,0.8342727184137042,0.499875539436234,0.7034050931436048,5.2365246559111185,-6.898970367185295,-15.748571939383588,0.12579392387110722,21.076932252016757,0.19371351974207562,0.22234563091198511,0.6250841710640271,0.9562960466226827,0.8060204511373447,20.96290828294008
-48.888928353988376,-95.19946183657301,0.9085671127393444,0.5645212005021387,0.5219441274859528,8.141351742356212,29.012273879770188,17.27835961213789,0.8935023694896084,0.3458571046212682,-21.237322200032786,-20.014031903045797,0.8342727184137042,0.499875539436234,0.7034050931436048,5.2365246559111185,-6.898970367185295,-15.748571939383588,0.12579392387110722,21.076932252016757,0.19371351974207562,0.22234563091198511,0.6250841710640271,0.9562960466226827,0.8060204511373447,20.96290828294008
